|--- feature_461 <= 0.00196078442968428135
|   |--- feature_378 <= 0.01372549077495932579
|   |   |--- feature_597 <= 0.00196078442968428135
|   |   |   |--- feature_514 <= 0.02156862802803516388
|   |   |   |   |--- feature_623 <= 0.01176470611244440079
|   |   |   |   |   |--- feature_432 <= 0.02156862802803516388
|   |   |   |   |   |   |--- feature_153 <= 0.04509804025292396545
|   |   |   |   |   |   |   |--- feature_570 <= 0.29411765933036804199
|   |   |   |   |   |   |   |   |--- feature_349 <= 0.19411765038967132568
|   |   |   |   |   |   |   |   |   |--- feature_487 <= 0.04901960864663124084
|   |   |   |   |   |   |   |   |   |   |--- feature_270 <= 0.37450981140136718750
|   |   |   |   |   |   |   |   |   |   |   |--- feature_582 <= 0.08235294558107852936
|   |   |   |   |   |   |   |   |   |   |   |   |--- feature_183 <= 0.08627451211214065552
|   |   |   |   |   |   |   |   |   |   |   |   |   |--- feature_347 <= 0.37647059559822082520
|   |   |   |   |   |   |   |   |   |   |   |   |   |   |--- feature_261 <= 0.28431373834609985352
|   |   |   |   |   |   |   |   |   |   |   |   |   |   |   |--- feature_607 <= 0.99019607901573181152
|   |   |   |   |   |   |   |   |   |   |   |   |   |   |   |   |--- feature_499 <= 0.07058823853731155396
|   |   |   |   |   |   |   |   |   |   |   |   |   |   |   |   |   |--- feature_291 <= 0.99019607901573181152
|   |   |   |   |   |   |   |   |   |   |   |   |   |   |   |   |   |   |--- class: 7
|   |   |   |   |   |   |   |   |   |   |   |   |   |   |   |   |   |--- feature_291 >  0.99019607901573181152
|   |   |   |   |   |   |   |   |   |   |   |   |   |   |   |   |   |   |--- feature_435 <= 0.56666669249534606934
|   |   |   |   |   |   |   |   |   |   |   |   |   |   |   |   |   |   |   |--- class: 7
|   |   |   |   |   |   |   |   |   |   |   |   |   |   |   |   |   |   |--- feature_435 >  0.56666669249534606934
|   |   |   |   |   |   |   |   |   |   |   |   |   |   |   |   |   |   |   |--- class: 9
|   |   |   |   |   |   |   |   |   |   |   |   |   |   |   |   |--- feature_499 >  0.07058823853731155396
|   |   |   |   |   |   |   |   |   |   |   |   |   |   |   |   |   |--- class: 2
|   |   |   |   |   |   |   |   |   |   |   |   |   |   |   |--- feature_607 >  0.99019607901573181152
|   |   |   |   |   |   |   |   |   |   |   |   |   |   |   |   |--- feature_207 <= 0.81568628549575805664
|   |   |   |   |   |   |   |   |   |   |   |   |   |   |   |   |   |--- class: 9
|   |   |   |   |   |   |   |   |   |   |   |   |   |   |   |   |--- feature_207 >  0.81568628549575805664
|   |   |   |   |   |   |   |   |   |   |   |   |   |   |   |   |   |--- class: 2
|   |   |   |   |   |   |   |   |   |   |   |   |   |   |--- feature_261 >  0.28431373834609985352
|   |   |   |   |   |   |   |   |   |   |   |   |   |   |   |--- class: 7
|   |   |   |   |   |   |   |   |   |   |   |   |   |--- feature_347 >  0.37647059559822082520
|   |   |   |   |   |   |   |   |   |   |   |   |   |   |--- feature_264 <= 0.02156862802803516388
|   |   |   |   |   |   |   |   |   |   |   |   |   |   |   |--- feature_351 <= 0.17254902422428131104
|   |   |   |   |   |   |   |   |   |   |   |   |   |   |   |   |--- class: 9
|   |   |   |   |   |   |   |   |   |   |   |   |   |   |   |--- feature_351 >  0.17254902422428131104
|   |   |   |   |   |   |   |   |   |   |   |   |   |   |   |   |--- class: 4
|   |   |   |   |   |   |   |   |   |   |   |   |   |   |--- feature_264 >  0.02156862802803516388
|   |   |   |   |   |   |   |   |   |   |   |   |   |   |   |--- feature_537 <= 0.08627451024949550629
|   |   |   |   |   |   |   |   |   |   |   |   |   |   |   |   |--- feature_715 <= 0.95882353186607360840
|   |   |   |   |   |   |   |   |   |   |   |   |   |   |   |   |   |--- class: 7
|   |   |   |   |   |   |   |   |   |   |   |   |   |   |   |   |--- feature_715 >  0.95882353186607360840
|   |   |   |   |   |   |   |   |   |   |   |   |   |   |   |   |   |--- feature_427 <= 0.07058823853731155396
|   |   |   |   |   |   |   |   |   |   |   |   |   |   |   |   |   |   |--- class: 7
|   |   |   |   |   |   |   |   |   |   |   |   |   |   |   |   |   |--- feature_427 >  0.07058823853731155396
|   |   |   |   |   |   |   |   |   |   |   |   |   |   |   |   |   |   |--- class: 9
|   |   |   |   |   |   |   |   |   |   |   |   |   |   |   |--- feature_537 >  0.08627451024949550629
|   |   |   |   |   |   |   |   |   |   |   |   |   |   |   |   |--- feature_317 <= 0.50784315168857574463
|   |   |   |   |   |   |   |   |   |   |   |   |   |   |   |   |   |--- class: 4
|   |   |   |   |   |   |   |   |   |   |   |   |   |   |   |   |--- feature_317 >  0.50784315168857574463
|   |   |   |   |   |   |   |   |   |   |   |   |   |   |   |   |   |--- feature_552 <= 0.05686274543404579163
|   |   |   |   |   |   |   |   |   |   |   |   |   |   |   |   |   |   |--- class: 7
|   |   |   |   |   |   |   |   |   |   |   |   |   |   |   |   |   |--- feature_552 >  0.05686274543404579163
|   |   |   |   |   |   |   |   |   |   |   |   |   |   |   |   |   |   |--- class: 0
|   |   |   |   |   |   |   |   |   |   |   |   |--- feature_183 >  0.08627451211214065552
|   |   |   |   |   |   |   |   |   |   |   |   |   |--- feature_519 <= 0.53921569883823394775
|   |   |   |   |   |   |   |   |   |   |   |   |   |   |--- feature_709 <= 0.03921568766236305237
|   |   |   |   |   |   |   |   |   |   |   |   |   |   |   |--- feature_320 <= 0.36666667461395263672
|   |   |   |   |   |   |   |   |   |   |   |   |   |   |   |   |--- class: 7
|   |   |   |   |   |   |   |   |   |   |   |   |   |   |   |--- feature_320 >  0.36666667461395263672
|   |   |   |   |   |   |   |   |   |   |   |   |   |   |   |   |--- class: 4
|   |   |   |   |   |   |   |   |   |   |   |   |   |   |--- feature_709 >  0.03921568766236305237
|   |   |   |   |   |   |   |   |   |   |   |   |   |   |   |--- class: 3
|   |   |   |   |   |   |   |   |   |   |   |   |   |--- feature_519 >  0.53921569883823394775
|   |   |   |   |   |   |   |   |   |   |   |   |   |   |--- feature_689 <= 0.00588235305622220039
|   |   |   |   |   |   |   |   |   |   |   |   |   |   |   |--- feature_319 <= 0.99411764740943908691
|   |   |   |   |   |   |   |   |   |   |   |   |   |   |   |   |--- class: 7
|   |   |   |   |   |   |   |   |   |   |   |   |   |   |   |--- feature_319 >  0.99411764740943908691
|   |   |   |   |   |   |   |   |   |   |   |   |   |   |   |   |--- feature_208 <= 0.07450980693101882935
|   |   |   |   |   |   |   |   |   |   |   |   |   |   |   |   |   |--- class: 1
|   |   |   |   |   |   |   |   |   |   |   |   |   |   |   |   |--- feature_208 >  0.07450980693101882935
|   |   |   |   |   |   |   |   |   |   |   |   |   |   |   |   |   |--- class: 7
|   |   |   |   |   |   |   |   |   |   |   |   |   |   |--- feature_689 >  0.00588235305622220039
|   |   |   |   |   |   |   |   |   |   |   |   |   |   |   |--- feature_266 <= 0.47058823704719543457
|   |   |   |   |   |   |   |   |   |   |   |   |   |   |   |   |--- class: 2
|   |   |   |   |   |   |   |   |   |   |   |   |   |   |   |--- feature_266 >  0.47058823704719543457
|   |   |   |   |   |   |   |   |   |   |   |   |   |   |   |   |--- feature_436 <= 0.92745098471641540527
|   |   |   |   |   |   |   |   |   |   |   |   |   |   |   |   |   |--- class: 9
|   |   |   |   |   |   |   |   |   |   |   |   |   |   |   |   |--- feature_436 >  0.92745098471641540527
|   |   |   |   |   |   |   |   |   |   |   |   |   |   |   |   |   |--- class: 7
|   |   |   |   |   |   |   |   |   |   |   |--- feature_582 >  0.08235294558107852936
|   |   |   |   |   |   |   |   |   |   |   |   |--- class: 2
|   |   |   |   |   |   |   |   |   |   |--- feature_270 >  0.37450981140136718750
|   |   |   |   |   |   |   |   |   |   |   |--- feature_158 <= 0.22352941334247589111
|   |   |   |   |   |   |   |   |   |   |   |   |--- feature_267 <= 0.21372549235820770264
|   |   |   |   |   |   |   |   |   |   |   |   |   |--- feature_691 <= 0.96274510025978088379
|   |   |   |   |   |   |   |   |   |   |   |   |   |   |--- feature_228 <= 0.68431374430656433105
|   |   |   |   |   |   |   |   |   |   |   |   |   |   |   |--- feature_706 <= 0.87843137979507446289
|   |   |   |   |   |   |   |   |   |   |   |   |   |   |   |   |--- class: 7
|   |   |   |   |   |   |   |   |   |   |   |   |   |   |   |--- feature_706 >  0.87843137979507446289
|   |   |   |   |   |   |   |   |   |   |   |   |   |   |   |   |--- class: 9
|   |   |   |   |   |   |   |   |   |   |   |   |   |   |--- feature_228 >  0.68431374430656433105
|   |   |   |   |   |   |   |   |   |   |   |   |   |   |   |--- feature_297 <= 0.24705883115530014038
|   |   |   |   |   |   |   |   |   |   |   |   |   |   |   |   |--- feature_631 <= 0.20000000298023223877
|   |   |   |   |   |   |   |   |   |   |   |   |   |   |   |   |   |--- class: 1
|   |   |   |   |   |   |   |   |   |   |   |   |   |   |   |   |--- feature_631 >  0.20000000298023223877
|   |   |   |   |   |   |   |   |   |   |   |   |   |   |   |   |   |--- class: 3
|   |   |   |   |   |   |   |   |   |   |   |   |   |   |   |--- feature_297 >  0.24705883115530014038
|   |   |   |   |   |   |   |   |   |   |   |   |   |   |   |   |--- class: 7
|   |   |   |   |   |   |   |   |   |   |   |   |   |--- feature_691 >  0.96274510025978088379
|   |   |   |   |   |   |   |   |   |   |   |   |   |   |--- class: 2
|   |   |   |   |   |   |   |   |   |   |   |   |--- feature_267 >  0.21372549235820770264
|   |   |   |   |   |   |   |   |   |   |   |   |   |--- feature_351 <= 0.57058826088905334473
|   |   |   |   |   |   |   |   |   |   |   |   |   |   |--- class: 7
|   |   |   |   |   |   |   |   |   |   |   |   |   |--- feature_351 >  0.57058826088905334473
|   |   |   |   |   |   |   |   |   |   |   |   |   |   |--- feature_681 <= 0.05294117704033851624
|   |   |   |   |   |   |   |   |   |   |   |   |   |   |   |--- class: 7
|   |   |   |   |   |   |   |   |   |   |   |   |   |   |--- feature_681 >  0.05294117704033851624
|   |   |   |   |   |   |   |   |   |   |   |   |   |   |   |--- class: 3
|   |   |   |   |   |   |   |   |   |   |   |--- feature_158 >  0.22352941334247589111
|   |   |   |   |   |   |   |   |   |   |   |   |--- feature_481 <= 0.19607843458652496338
|   |   |   |   |   |   |   |   |   |   |   |   |   |--- class: 4
|   |   |   |   |   |   |   |   |   |   |   |   |--- feature_481 >  0.19607843458652496338
|   |   |   |   |   |   |   |   |   |   |   |   |   |--- class: 0
|   |   |   |   |   |   |   |   |   |--- feature_487 >  0.04901960864663124084
|   |   |   |   |   |   |   |   |   |   |--- feature_546 <= 0.30588235333561897278
|   |   |   |   |   |   |   |   |   |   |   |--- feature_715 <= 0.93333333730697631836
|   |   |   |   |   |   |   |   |   |   |   |   |--- class: 9
|   |   |   |   |   |   |   |   |   |   |   |--- feature_715 >  0.93333333730697631836
|   |   |   |   |   |   |   |   |   |   |   |   |--- class: 7
|   |   |   |   |   |   |   |   |   |   |--- feature_546 >  0.30588235333561897278
|   |   |   |   |   |   |   |   |   |   |   |--- feature_263 <= 0.30588236451148986816
|   |   |   |   |   |   |   |   |   |   |   |   |--- feature_435 <= 0.35882353782653808594
|   |   |   |   |   |   |   |   |   |   |   |   |   |--- class: 5
|   |   |   |   |   |   |   |   |   |   |   |   |--- feature_435 >  0.35882353782653808594
|   |   |   |   |   |   |   |   |   |   |   |   |   |--- feature_327 <= 0.44705882668495178223
|   |   |   |   |   |   |   |   |   |   |   |   |   |   |--- class: 4
|   |   |   |   |   |   |   |   |   |   |   |   |   |--- feature_327 >  0.44705882668495178223
|   |   |   |   |   |   |   |   |   |   |   |   |   |   |--- class: 6
|   |   |   |   |   |   |   |   |   |   |   |--- feature_263 >  0.30588236451148986816
|   |   |   |   |   |   |   |   |   |   |   |   |--- class: 7
|   |   |   |   |   |   |   |   |--- feature_349 >  0.19411765038967132568
|   |   |   |   |   |   |   |   |   |--- feature_293 <= 0.66862747073173522949
|   |   |   |   |   |   |   |   |   |   |--- feature_210 <= 0.29803922027349472046
|   |   |   |   |   |   |   |   |   |   |   |--- feature_435 <= 0.05098039284348487854
|   |   |   |   |   |   |   |   |   |   |   |   |--- feature_240 <= 0.36862745881080627441
|   |   |   |   |   |   |   |   |   |   |   |   |   |--- class: 7
|   |   |   |   |   |   |   |   |   |   |   |   |--- feature_240 >  0.36862745881080627441
|   |   |   |   |   |   |   |   |   |   |   |   |   |--- feature_205 <= 0.48039215803146362305
|   |   |   |   |   |   |   |   |   |   |   |   |   |   |--- feature_684 <= 0.30196079611778259277
|   |   |   |   |   |   |   |   |   |   |   |   |   |   |   |--- class: 5
|   |   |   |   |   |   |   |   |   |   |   |   |   |   |--- feature_684 >  0.30196079611778259277
|   |   |   |   |   |   |   |   |   |   |   |   |   |   |   |--- class: 7
|   |   |   |   |   |   |   |   |   |   |   |   |   |--- feature_205 >  0.48039215803146362305
|   |   |   |   |   |   |   |   |   |   |   |   |   |   |--- class: 4
|   |   |   |   |   |   |   |   |   |   |   |--- feature_435 >  0.05098039284348487854
|   |   |   |   |   |   |   |   |   |   |   |   |--- feature_325 <= 0.99607843160629272461
|   |   |   |   |   |   |   |   |   |   |   |   |   |--- feature_352 <= 0.58431375026702880859
|   |   |   |   |   |   |   |   |   |   |   |   |   |   |--- class: 9
|   |   |   |   |   |   |   |   |   |   |   |   |   |--- feature_352 >  0.58431375026702880859
|   |   |   |   |   |   |   |   |   |   |   |   |   |   |--- class: 4
|   |   |   |   |   |   |   |   |   |   |   |   |--- feature_325 >  0.99607843160629272461
|   |   |   |   |   |   |   |   |   |   |   |   |   |--- class: 7
|   |   |   |   |   |   |   |   |   |   |--- feature_210 >  0.29803922027349472046
|   |   |   |   |   |   |   |   |   |   |   |--- feature_464 <= 0.03333333507180213928
|   |   |   |   |   |   |   |   |   |   |   |   |--- feature_351 <= 0.21176470816135406494
|   |   |   |   |   |   |   |   |   |   |   |   |   |--- class: 9
|   |   |   |   |   |   |   |   |   |   |   |   |--- feature_351 >  0.21176470816135406494
|   |   |   |   |   |   |   |   |   |   |   |   |   |--- class: 5
|   |   |   |   |   |   |   |   |   |   |   |--- feature_464 >  0.03333333507180213928
|   |   |   |   |   |   |   |   |   |   |   |   |--- feature_653 <= 0.42549021542072296143
|   |   |   |   |   |   |   |   |   |   |   |   |   |--- class: 9
|   |   |   |   |   |   |   |   |   |   |   |   |--- feature_653 >  0.42549021542072296143
|   |   |   |   |   |   |   |   |   |   |   |   |   |--- class: 7
|   |   |   |   |   |   |   |   |   |--- feature_293 >  0.66862747073173522949
|   |   |   |   |   |   |   |   |   |   |--- feature_184 <= 0.31176471710205078125
|   |   |   |   |   |   |   |   |   |   |   |--- feature_291 <= 0.04117647279053926468
|   |   |   |   |   |   |   |   |   |   |   |   |--- feature_324 <= 0.55490198731422424316
|   |   |   |   |   |   |   |   |   |   |   |   |   |--- class: 7
|   |   |   |   |   |   |   |   |   |   |   |   |--- feature_324 >  0.55490198731422424316
|   |   |   |   |   |   |   |   |   |   |   |   |   |--- feature_691 <= 0.12352941185235977173
|   |   |   |   |   |   |   |   |   |   |   |   |   |   |--- class: 1
|   |   |   |   |   |   |   |   |   |   |   |   |   |--- feature_691 >  0.12352941185235977173
|   |   |   |   |   |   |   |   |   |   |   |   |   |   |--- class: 9
|   |   |   |   |   |   |   |   |   |   |   |--- feature_291 >  0.04117647279053926468
|   |   |   |   |   |   |   |   |   |   |   |   |--- class: 7
|   |   |   |   |   |   |   |   |   |   |--- feature_184 >  0.31176471710205078125
|   |   |   |   |   |   |   |   |   |   |   |--- feature_435 <= 0.20000000298023223877
|   |   |   |   |   |   |   |   |   |   |   |   |--- feature_656 <= 0.84705883264541625977
|   |   |   |   |   |   |   |   |   |   |   |   |   |--- class: 7
|   |   |   |   |   |   |   |   |   |   |   |   |--- feature_656 >  0.84705883264541625977
|   |   |   |   |   |   |   |   |   |   |   |   |   |--- class: 5
|   |   |   |   |   |   |   |   |   |   |   |--- feature_435 >  0.20000000298023223877
|   |   |   |   |   |   |   |   |   |   |   |   |--- feature_376 <= 0.66274511814117431641
|   |   |   |   |   |   |   |   |   |   |   |   |   |--- class: 9
|   |   |   |   |   |   |   |   |   |   |   |   |--- feature_376 >  0.66274511814117431641
|   |   |   |   |   |   |   |   |   |   |   |   |   |--- class: 1
|   |   |   |   |   |   |   |--- feature_570 >  0.29411765933036804199
|   |   |   |   |   |   |   |   |--- feature_510 <= 0.15490196831524372101
|   |   |   |   |   |   |   |   |   |--- feature_320 <= 0.31568628549575805664
|   |   |   |   |   |   |   |   |   |   |--- feature_519 <= 0.17843137681484222412
|   |   |   |   |   |   |   |   |   |   |   |--- class: 6
|   |   |   |   |   |   |   |   |   |   |--- feature_519 >  0.17843137681484222412
|   |   |   |   |   |   |   |   |   |   |   |--- feature_546 <= 0.86862745881080627441
|   |   |   |   |   |   |   |   |   |   |   |   |--- class: 2
|   |   |   |   |   |   |   |   |   |   |   |--- feature_546 >  0.86862745881080627441
|   |   |   |   |   |   |   |   |   |   |   |   |--- class: 7
|   |   |   |   |   |   |   |   |   |--- feature_320 >  0.31568628549575805664
|   |   |   |   |   |   |   |   |   |   |--- class: 5
|   |   |   |   |   |   |   |   |--- feature_510 >  0.15490196831524372101
|   |   |   |   |   |   |   |   |   |--- feature_187 <= 0.10588235408067703247
|   |   |   |   |   |   |   |   |   |   |--- feature_436 <= 0.33725491166114807129
|   |   |   |   |   |   |   |   |   |   |   |--- class: 0
|   |   |   |   |   |   |   |   |   |   |--- feature_436 >  0.33725491166114807129
|   |   |   |   |   |   |   |   |   |   |   |--- class: 6
|   |   |   |   |   |   |   |   |   |--- feature_187 >  0.10588235408067703247
|   |   |   |   |   |   |   |   |   |   |--- feature_436 <= 0.97450980544090270996
|   |   |   |   |   |   |   |   |   |   |   |--- class: 9
|   |   |   |   |   |   |   |   |   |   |--- feature_436 >  0.97450980544090270996
|   |   |   |   |   |   |   |   |   |   |   |--- class: 4
|   |   |   |   |   |   |--- feature_153 >  0.04509804025292396545
|   |   |   |   |   |   |   |--- feature_320 <= 0.44705882668495178223
|   |   |   |   |   |   |   |   |--- feature_151 <= 0.10784313827753067017
|   |   |   |   |   |   |   |   |   |--- feature_211 <= 0.13333333656191825867
|   |   |   |   |   |   |   |   |   |   |--- feature_127 <= 0.01764705963432788849
|   |   |   |   |   |   |   |   |   |   |   |--- feature_244 <= 0.02549019642174243927
|   |   |   |   |   |   |   |   |   |   |   |   |--- class: 9
|   |   |   |   |   |   |   |   |   |   |   |--- feature_244 >  0.02549019642174243927
|   |   |   |   |   |   |   |   |   |   |   |   |--- class: 4
|   |   |   |   |   |   |   |   |   |   |--- feature_127 >  0.01764705963432788849
|   |   |   |   |   |   |   |   |   |   |   |--- class: 6
|   |   |   |   |   |   |   |   |   |--- feature_211 >  0.13333333656191825867
|   |   |   |   |   |   |   |   |   |   |--- feature_574 <= 0.40588235855102539062
|   |   |   |   |   |   |   |   |   |   |   |--- feature_493 <= 0.02745098061859607697
|   |   |   |   |   |   |   |   |   |   |   |   |--- class: 0
|   |   |   |   |   |   |   |   |   |   |   |--- feature_493 >  0.02745098061859607697
|   |   |   |   |   |   |   |   |   |   |   |   |--- class: 3
|   |   |   |   |   |   |   |   |   |   |--- feature_574 >  0.40588235855102539062
|   |   |   |   |   |   |   |   |   |   |   |--- feature_547 <= 0.26862745359539985657
|   |   |   |   |   |   |   |   |   |   |   |   |--- class: 1
|   |   |   |   |   |   |   |   |   |   |   |--- feature_547 >  0.26862745359539985657
|   |   |   |   |   |   |   |   |   |   |   |   |--- class: 2
|   |   |   |   |   |   |   |   |--- feature_151 >  0.10784313827753067017
|   |   |   |   |   |   |   |   |   |--- feature_231 <= 0.08039215952157974243
|   |   |   |   |   |   |   |   |   |   |--- feature_297 <= 0.68235296010971069336
|   |   |   |   |   |   |   |   |   |   |   |--- class: 2
|   |   |   |   |   |   |   |   |   |   |--- feature_297 >  0.68235296010971069336
|   |   |   |   |   |   |   |   |   |   |   |--- feature_123 <= 0.00980392191559076309
|   |   |   |   |   |   |   |   |   |   |   |   |--- class: 7
|   |   |   |   |   |   |   |   |   |   |   |--- feature_123 >  0.00980392191559076309
|   |   |   |   |   |   |   |   |   |   |   |   |--- class: 2
|   |   |   |   |   |   |   |   |   |--- feature_231 >  0.08039215952157974243
|   |   |   |   |   |   |   |   |   |   |--- feature_181 <= 0.58039218187332153320
|   |   |   |   |   |   |   |   |   |   |   |--- feature_578 <= 0.44117647409439086914
|   |   |   |   |   |   |   |   |   |   |   |   |--- class: 3
|   |   |   |   |   |   |   |   |   |   |   |--- feature_578 >  0.44117647409439086914
|   |   |   |   |   |   |   |   |   |   |   |   |--- class: 6
|   |   |   |   |   |   |   |   |   |   |--- feature_181 >  0.58039218187332153320
|   |   |   |   |   |   |   |   |   |   |   |--- feature_255 <= 0.08039215998724102974
|   |   |   |   |   |   |   |   |   |   |   |   |--- class: 2
|   |   |   |   |   |   |   |   |   |   |   |--- feature_255 >  0.08039215998724102974
|   |   |   |   |   |   |   |   |   |   |   |   |--- class: 7
|   |   |   |   |   |   |   |--- feature_320 >  0.44705882668495178223
|   |   |   |   |   |   |   |   |--- feature_265 <= 0.83921569585800170898
|   |   |   |   |   |   |   |   |   |--- feature_377 <= 0.04901960864663124084
|   |   |   |   |   |   |   |   |   |   |--- class: 5
|   |   |   |   |   |   |   |   |   |--- feature_377 >  0.04901960864663124084
|   |   |   |   |   |   |   |   |   |   |--- feature_207 <= 0.12745098769664764404
|   |   |   |   |   |   |   |   |   |   |   |--- class: 5
|   |   |   |   |   |   |   |   |   |   |--- feature_207 >  0.12745098769664764404
|   |   |   |   |   |   |   |   |   |   |   |--- class: 9
|   |   |   |   |   |   |   |   |--- feature_265 >  0.83921569585800170898
|   |   |   |   |   |   |   |   |   |--- feature_177 <= 0.24705882370471954346
|   |   |   |   |   |   |   |   |   |   |--- class: 7
|   |   |   |   |   |   |   |   |   |--- feature_177 >  0.24705882370471954346
|   |   |   |   |   |   |   |   |   |   |--- class: 3
|   |   |   |   |   |--- feature_432 >  0.02156862802803516388
|   |   |   |   |   |   |--- feature_353 <= 0.01176470611244440079
|   |   |   |   |   |   |   |--- feature_516 <= 0.33529413491487503052
|   |   |   |   |   |   |   |   |--- feature_356 <= 0.03921568766236305237
|   |   |   |   |   |   |   |   |   |--- feature_321 <= 0.16274509951472282410
|   |   |   |   |   |   |   |   |   |   |--- feature_297 <= 0.17254902049899101257
|   |   |   |   |   |   |   |   |   |   |   |--- feature_234 <= 0.86470589041709899902
|   |   |   |   |   |   |   |   |   |   |   |   |--- class: 5
|   |   |   |   |   |   |   |   |   |   |   |--- feature_234 >  0.86470589041709899902
|   |   |   |   |   |   |   |   |   |   |   |   |--- feature_439 <= 0.44117647409439086914
|   |   |   |   |   |   |   |   |   |   |   |   |   |--- class: 7
|   |   |   |   |   |   |   |   |   |   |   |   |--- feature_439 >  0.44117647409439086914
|   |   |   |   |   |   |   |   |   |   |   |   |   |--- class: 2
|   |   |   |   |   |   |   |   |   |   |--- feature_297 >  0.17254902049899101257
|   |   |   |   |   |   |   |   |   |   |   |--- class: 9
|   |   |   |   |   |   |   |   |   |--- feature_321 >  0.16274509951472282410
|   |   |   |   |   |   |   |   |   |   |--- feature_467 <= 0.05686274543404579163
|   |   |   |   |   |   |   |   |   |   |   |--- class: 5
|   |   |   |   |   |   |   |   |   |   |--- feature_467 >  0.05686274543404579163
|   |   |   |   |   |   |   |   |   |   |   |--- class: 3
|   |   |   |   |   |   |   |   |--- feature_356 >  0.03921568766236305237
|   |   |   |   |   |   |   |   |   |--- feature_241 <= 0.49607843253761529922
|   |   |   |   |   |   |   |   |   |   |--- class: 4
|   |   |   |   |   |   |   |   |   |--- feature_241 >  0.49607843253761529922
|   |   |   |   |   |   |   |   |   |   |--- feature_240 <= 0.99411764740943908691
|   |   |   |   |   |   |   |   |   |   |   |--- class: 9
|   |   |   |   |   |   |   |   |   |   |--- feature_240 >  0.99411764740943908691
|   |   |   |   |   |   |   |   |   |   |   |--- class: 7
|   |   |   |   |   |   |   |--- feature_516 >  0.33529413491487503052
|   |   |   |   |   |   |   |   |--- feature_657 <= 0.04117647185921669006
|   |   |   |   |   |   |   |   |   |--- class: 6
|   |   |   |   |   |   |   |   |--- feature_657 >  0.04117647185921669006
|   |   |   |   |   |   |   |   |   |--- feature_410 <= 0.05882352963089942932
|   |   |   |   |   |   |   |   |   |   |--- class: 5
|   |   |   |   |   |   |   |   |   |--- feature_410 >  0.05882352963089942932
|   |   |   |   |   |   |   |   |   |   |--- feature_355 <= 0.26862746477127075195
|   |   |   |   |   |   |   |   |   |   |   |--- class: 9
|   |   |   |   |   |   |   |   |   |   |--- feature_355 >  0.26862746477127075195
|   |   |   |   |   |   |   |   |   |   |   |--- class: 8
|   |   |   |   |   |   |--- feature_353 >  0.01176470611244440079
|   |   |   |   |   |   |   |--- feature_433 <= 0.16666667163372039795
|   |   |   |   |   |   |   |   |--- feature_347 <= 0.21176470816135406494
|   |   |   |   |   |   |   |   |   |--- feature_243 <= 0.62941177189350128174
|   |   |   |   |   |   |   |   |   |   |--- class: 9
|   |   |   |   |   |   |   |   |   |--- feature_243 >  0.62941177189350128174
|   |   |   |   |   |   |   |   |   |   |--- class: 8
|   |   |   |   |   |   |   |   |--- feature_347 >  0.21176470816135406494
|   |   |   |   |   |   |   |   |   |--- feature_268 <= 0.07058823853731155396
|   |   |   |   |   |   |   |   |   |   |--- feature_469 <= 0.75294119119644165039
|   |   |   |   |   |   |   |   |   |   |   |--- class: 6
|   |   |   |   |   |   |   |   |   |   |--- feature_469 >  0.75294119119644165039
|   |   |   |   |   |   |   |   |   |   |   |--- class: 5
|   |   |   |   |   |   |   |   |   |--- feature_268 >  0.07058823853731155396
|   |   |   |   |   |   |   |   |   |   |--- feature_352 <= 0.98431372642517089844
|   |   |   |   |   |   |   |   |   |   |   |--- class: 7
|   |   |   |   |   |   |   |   |   |   |--- feature_352 >  0.98431372642517089844
|   |   |   |   |   |   |   |   |   |   |   |--- class: 1
|   |   |   |   |   |   |   |--- feature_433 >  0.16666667163372039795
|   |   |   |   |   |   |   |   |--- feature_211 <= 0.18039216101169586182
|   |   |   |   |   |   |   |   |   |--- feature_266 <= 0.33333334419876337051
|   |   |   |   |   |   |   |   |   |   |--- feature_286 <= 0.68627452850341796875
|   |   |   |   |   |   |   |   |   |   |   |--- class: 4
|   |   |   |   |   |   |   |   |   |   |--- feature_286 >  0.68627452850341796875
|   |   |   |   |   |   |   |   |   |   |   |--- class: 9
|   |   |   |   |   |   |   |   |   |--- feature_266 >  0.33333334419876337051
|   |   |   |   |   |   |   |   |   |   |--- feature_380 <= 0.43137255683541297913
|   |   |   |   |   |   |   |   |   |   |   |--- class: 7
|   |   |   |   |   |   |   |   |   |   |--- feature_380 >  0.43137255683541297913
|   |   |   |   |   |   |   |   |   |   |   |--- class: 9
|   |   |   |   |   |   |   |   |--- feature_211 >  0.18039216101169586182
|   |   |   |   |   |   |   |   |   |--- feature_427 <= 0.60980394482612609863
|   |   |   |   |   |   |   |   |   |   |--- feature_190 <= 0.02156862802803516388
|   |   |   |   |   |   |   |   |   |   |   |--- feature_354 <= 0.24705883115530014038
|   |   |   |   |   |   |   |   |   |   |   |   |--- feature_465 <= 0.48431374132633209229
|   |   |   |   |   |   |   |   |   |   |   |   |   |--- class: 7
|   |   |   |   |   |   |   |   |   |   |   |   |--- feature_465 >  0.48431374132633209229
|   |   |   |   |   |   |   |   |   |   |   |   |   |--- class: 9
|   |   |   |   |   |   |   |   |   |   |   |--- feature_354 >  0.24705883115530014038
|   |   |   |   |   |   |   |   |   |   |   |   |--- class: 9
|   |   |   |   |   |   |   |   |   |   |--- feature_190 >  0.02156862802803516388
|   |   |   |   |   |   |   |   |   |   |   |--- feature_314 <= 0.22352941334247589111
|   |   |   |   |   |   |   |   |   |   |   |   |--- class: 4
|   |   |   |   |   |   |   |   |   |   |   |--- feature_314 >  0.22352941334247589111
|   |   |   |   |   |   |   |   |   |   |   |   |--- class: 8
|   |   |   |   |   |   |   |   |   |--- feature_427 >  0.60980394482612609863
|   |   |   |   |   |   |   |   |   |   |--- class: 4
|   |   |   |   |--- feature_623 >  0.01176470611244440079
|   |   |   |   |   |--- feature_510 <= 0.00588235305622220039
|   |   |   |   |   |   |--- feature_344 <= 0.01960784383118152618
|   |   |   |   |   |   |   |--- feature_179 <= 0.05490196123719215393
|   |   |   |   |   |   |   |   |--- feature_681 <= 0.70980393886566162109
|   |   |   |   |   |   |   |   |   |--- class: 5
|   |   |   |   |   |   |   |   |--- feature_681 >  0.70980393886566162109
|   |   |   |   |   |   |   |   |   |--- feature_596 <= 0.09019608050584793091
|   |   |   |   |   |   |   |   |   |   |--- feature_183 <= 0.73333333432674407959
|   |   |   |   |   |   |   |   |   |   |   |--- class: 7
|   |   |   |   |   |   |   |   |   |   |--- feature_183 >  0.73333333432674407959
|   |   |   |   |   |   |   |   |   |   |   |--- class: 9
|   |   |   |   |   |   |   |   |   |--- feature_596 >  0.09019608050584793091
|   |   |   |   |   |   |   |   |   |   |--- class: 0
|   |   |   |   |   |   |   |--- feature_179 >  0.05490196123719215393
|   |   |   |   |   |   |   |   |--- feature_235 <= 0.37450981885194778442
|   |   |   |   |   |   |   |   |   |--- feature_315 <= 0.10196078568696975708
|   |   |   |   |   |   |   |   |   |   |--- class: 3
|   |   |   |   |   |   |   |   |   |--- feature_315 >  0.10196078568696975708
|   |   |   |   |   |   |   |   |   |   |--- class: 2
|   |   |   |   |   |   |   |   |--- feature_235 >  0.37450981885194778442
|   |   |   |   |   |   |   |   |   |--- class: 5
|   |   |   |   |   |   |--- feature_344 >  0.01960784383118152618
|   |   |   |   |   |   |   |--- feature_270 <= 0.76274511218070983887
|   |   |   |   |   |   |   |   |--- class: 5
|   |   |   |   |   |   |   |--- feature_270 >  0.76274511218070983887
|   |   |   |   |   |   |   |   |--- feature_594 <= 0.29607843235135078430
|   |   |   |   |   |   |   |   |   |--- feature_184 <= 0.47254902496933937073
|   |   |   |   |   |   |   |   |   |   |--- class: 7
|   |   |   |   |   |   |   |   |   |--- feature_184 >  0.47254902496933937073
|   |   |   |   |   |   |   |   |   |   |--- class: 5
|   |   |   |   |   |   |   |   |--- feature_594 >  0.29607843235135078430
|   |   |   |   |   |   |   |   |   |--- class: 0
|   |   |   |   |   |--- feature_510 >  0.00588235305622220039
|   |   |   |   |   |   |--- feature_410 <= 0.23725491017103195190
|   |   |   |   |   |   |   |--- feature_719 <= 0.08039215952157974243
|   |   |   |   |   |   |   |   |--- class: 0
|   |   |   |   |   |   |   |--- feature_719 >  0.08039215952157974243
|   |   |   |   |   |   |   |   |--- class: 7
|   |   |   |   |   |   |--- feature_410 >  0.23725491017103195190
|   |   |   |   |   |   |   |--- feature_244 <= 0.38039216399192810059
|   |   |   |   |   |   |   |   |--- feature_322 <= 0.49803921580314636230
|   |   |   |   |   |   |   |   |   |--- feature_408 <= 0.22352941334247589111
|   |   |   |   |   |   |   |   |   |   |--- class: 5
|   |   |   |   |   |   |   |   |   |--- feature_408 >  0.22352941334247589111
|   |   |   |   |   |   |   |   |   |   |--- class: 2
|   |   |   |   |   |   |   |   |--- feature_322 >  0.49803921580314636230
|   |   |   |   |   |   |   |   |   |--- class: 3
|   |   |   |   |   |   |   |--- feature_244 >  0.38039216399192810059
|   |   |   |   |   |   |   |   |--- class: 0
|   |   |   |--- feature_514 >  0.02156862802803516388
|   |   |   |   |--- feature_241 <= 0.01764705963432788849
|   |   |   |   |   |--- feature_244 <= 0.01372549030929803848
|   |   |   |   |   |   |--- feature_295 <= 0.00784313771873712540
|   |   |   |   |   |   |   |--- feature_574 <= 0.53137257695198059082
|   |   |   |   |   |   |   |   |--- feature_571 <= 0.37647059559822082520
|   |   |   |   |   |   |   |   |   |--- feature_315 <= 0.10000000149011611938
|   |   |   |   |   |   |   |   |   |   |--- feature_437 <= 0.04509804025292396545
|   |   |   |   |   |   |   |   |   |   |   |--- feature_607 <= 0.12549020349979400635
|   |   |   |   |   |   |   |   |   |   |   |   |--- feature_319 <= 0.20980392768979072571
|   |   |   |   |   |   |   |   |   |   |   |   |   |--- class: 5
|   |   |   |   |   |   |   |   |   |   |   |   |--- feature_319 >  0.20980392768979072571
|   |   |   |   |   |   |   |   |   |   |   |   |   |--- class: 2
|   |   |   |   |   |   |   |   |   |   |   |--- feature_607 >  0.12549020349979400635
|   |   |   |   |   |   |   |   |   |   |   |   |--- feature_466 <= 0.86666667461395263672
|   |   |   |   |   |   |   |   |   |   |   |   |   |--- class: 4
|   |   |   |   |   |   |   |   |   |   |   |   |--- feature_466 >  0.86666667461395263672
|   |   |   |   |   |   |   |   |   |   |   |   |   |--- class: 9
|   |   |   |   |   |   |   |   |   |   |--- feature_437 >  0.04509804025292396545
|   |   |   |   |   |   |   |   |   |   |   |--- feature_352 <= 0.15294118225574493408
|   |   |   |   |   |   |   |   |   |   |   |   |--- feature_342 <= 0.10588235408067703247
|   |   |   |   |   |   |   |   |   |   |   |   |   |--- class: 4
|   |   |   |   |   |   |   |   |   |   |   |   |--- feature_342 >  0.10588235408067703247
|   |   |   |   |   |   |   |   |   |   |   |   |   |--- class: 6
|   |   |   |   |   |   |   |   |   |   |   |--- feature_352 >  0.15294118225574493408
|   |   |   |   |   |   |   |   |   |   |   |   |--- feature_290 <= 0.82352942228317260742
|   |   |   |   |   |   |   |   |   |   |   |   |   |--- class: 6
|   |   |   |   |   |   |   |   |   |   |   |   |--- feature_290 >  0.82352942228317260742
|   |   |   |   |   |   |   |   |   |   |   |   |   |--- class: 9
|   |   |   |   |   |   |   |   |   |--- feature_315 >  0.10000000149011611938
|   |   |   |   |   |   |   |   |   |   |--- feature_443 <= 0.21960784494876861572
|   |   |   |   |   |   |   |   |   |   |   |--- feature_412 <= 0.19607843831181526184
|   |   |   |   |   |   |   |   |   |   |   |   |--- class: 6
|   |   |   |   |   |   |   |   |   |   |   |--- feature_412 >  0.19607843831181526184
|   |   |   |   |   |   |   |   |   |   |   |   |--- class: 4
|   |   |   |   |   |   |   |   |   |   |--- feature_443 >  0.21960784494876861572
|   |   |   |   |   |   |   |   |   |   |   |--- class: 6
|   |   |   |   |   |   |   |   |--- feature_571 >  0.37647059559822082520
|   |   |   |   |   |   |   |   |   |--- feature_270 <= 0.42352943122386932373
|   |   |   |   |   |   |   |   |   |   |--- feature_486 <= 0.23921569436788558960
|   |   |   |   |   |   |   |   |   |   |   |--- feature_463 <= 0.27647060155868530273
|   |   |   |   |   |   |   |   |   |   |   |   |--- feature_520 <= 0.20784313976764678955
|   |   |   |   |   |   |   |   |   |   |   |   |   |--- class: 5
|   |   |   |   |   |   |   |   |   |   |   |   |--- feature_520 >  0.20784313976764678955
|   |   |   |   |   |   |   |   |   |   |   |   |   |--- feature_260 <= 0.50392156932502985001
|   |   |   |   |   |   |   |   |   |   |   |   |   |   |--- class: 0
|   |   |   |   |   |   |   |   |   |   |   |   |   |--- feature_260 >  0.50392156932502985001
|   |   |   |   |   |   |   |   |   |   |   |   |   |   |--- class: 9
|   |   |   |   |   |   |   |   |   |   |   |--- feature_463 >  0.27647060155868530273
|   |   |   |   |   |   |   |   |   |   |   |   |--- class: 6
|   |   |   |   |   |   |   |   |   |   |--- feature_486 >  0.23921569436788558960
|   |   |   |   |   |   |   |   |   |   |   |--- feature_349 <= 0.76078432798385620117
|   |   |   |   |   |   |   |   |   |   |   |   |--- class: 6
|   |   |   |   |   |   |   |   |   |   |   |--- feature_349 >  0.76078432798385620117
|   |   |   |   |   |   |   |   |   |   |   |   |--- class: 2
|   |   |   |   |   |   |   |   |   |--- feature_270 >  0.42352943122386932373
|   |   |   |   |   |   |   |   |   |   |--- class: 0
|   |   |   |   |   |   |   |--- feature_574 >  0.53137257695198059082
|   |   |   |   |   |   |   |   |--- feature_572 <= 0.00588235305622220039
|   |   |   |   |   |   |   |   |   |--- feature_601 <= 0.22745098546147346497
|   |   |   |   |   |   |   |   |   |   |--- class: 6
|   |   |   |   |   |   |   |   |   |--- feature_601 >  0.22745098546147346497
|   |   |   |   |   |   |   |   |   |   |--- class: 4
|   |   |   |   |   |   |   |   |--- feature_572 >  0.00588235305622220039
|   |   |   |   |   |   |   |   |   |--- feature_300 <= 0.93921568989753723145
|   |   |   |   |   |   |   |   |   |   |--- feature_581 <= 0.99019607901573181152
|   |   |   |   |   |   |   |   |   |   |   |--- feature_690 <= 0.49607843160629272461
|   |   |   |   |   |   |   |   |   |   |   |   |--- feature_270 <= 0.60392157733440399170
|   |   |   |   |   |   |   |   |   |   |   |   |   |--- class: 6
|   |   |   |   |   |   |   |   |   |   |   |   |--- feature_270 >  0.60392157733440399170
|   |   |   |   |   |   |   |   |   |   |   |   |   |--- class: 4
|   |   |   |   |   |   |   |   |   |   |   |--- feature_690 >  0.49607843160629272461
|   |   |   |   |   |   |   |   |   |   |   |   |--- class: 5
|   |   |   |   |   |   |   |   |   |   |--- feature_581 >  0.99019607901573181152
|   |   |   |   |   |   |   |   |   |   |   |--- feature_176 <= 0.60196079313755035400
|   |   |   |   |   |   |   |   |   |   |   |   |--- class: 6
|   |   |   |   |   |   |   |   |   |   |   |--- feature_176 >  0.60196079313755035400
|   |   |   |   |   |   |   |   |   |   |   |   |--- feature_238 <= 0.99607843160629272461
|   |   |   |   |   |   |   |   |   |   |   |   |   |--- class: 3
|   |   |   |   |   |   |   |   |   |   |   |   |--- feature_238 >  0.99607843160629272461
|   |   |   |   |   |   |   |   |   |   |   |   |   |--- class: 2
|   |   |   |   |   |   |   |   |   |--- feature_300 >  0.93921568989753723145
|   |   |   |   |   |   |   |   |   |   |--- feature_237 <= 0.03725490346550941467
|   |   |   |   |   |   |   |   |   |   |   |--- class: 6
|   |   |   |   |   |   |   |   |   |   |--- feature_237 >  0.03725490346550941467
|   |   |   |   |   |   |   |   |   |   |   |--- class: 4
|   |   |   |   |   |   |--- feature_295 >  0.00784313771873712540
|   |   |   |   |   |   |   |--- feature_601 <= 0.01176470611244440079
|   |   |   |   |   |   |   |   |--- feature_387 <= 0.12352941185235977173
|   |   |   |   |   |   |   |   |   |--- feature_260 <= 0.19019608199596405029
|   |   |   |   |   |   |   |   |   |   |--- feature_239 <= 0.11176471039652824402
|   |   |   |   |   |   |   |   |   |   |   |--- class: 5
|   |   |   |   |   |   |   |   |   |   |--- feature_239 >  0.11176471039652824402
|   |   |   |   |   |   |   |   |   |   |   |--- feature_312 <= 0.20784313976764678955
|   |   |   |   |   |   |   |   |   |   |   |   |--- class: 2
|   |   |   |   |   |   |   |   |   |   |   |--- feature_312 >  0.20784313976764678955
|   |   |   |   |   |   |   |   |   |   |   |   |--- class: 9
|   |   |   |   |   |   |   |   |   |--- feature_260 >  0.19019608199596405029
|   |   |   |   |   |   |   |   |   |   |--- feature_427 <= 0.00196078442968428135
|   |   |   |   |   |   |   |   |   |   |   |--- feature_326 <= 0.05294117704033851624
|   |   |   |   |   |   |   |   |   |   |   |   |--- feature_399 <= 0.19215686619281768799
|   |   |   |   |   |   |   |   |   |   |   |   |   |--- class: 2
|   |   |   |   |   |   |   |   |   |   |   |   |--- feature_399 >  0.19215686619281768799
|   |   |   |   |   |   |   |   |   |   |   |   |   |--- class: 9
|   |   |   |   |   |   |   |   |   |   |   |--- feature_326 >  0.05294117704033851624
|   |   |   |   |   |   |   |   |   |   |   |   |--- class: 7
|   |   |   |   |   |   |   |   |   |   |--- feature_427 >  0.00196078442968428135
|   |   |   |   |   |   |   |   |   |   |   |--- class: 9
|   |   |   |   |   |   |   |   |--- feature_387 >  0.12352941185235977173
|   |   |   |   |   |   |   |   |   |--- class: 0
|   |   |   |   |   |   |   |--- feature_601 >  0.01176470611244440079
|   |   |   |   |   |   |   |   |--- feature_430 <= 0.01960784383118152618
|   |   |   |   |   |   |   |   |   |--- feature_510 <= 0.10588235408067703247
|   |   |   |   |   |   |   |   |   |   |--- feature_574 <= 0.85490196943283081055
|   |   |   |   |   |   |   |   |   |   |   |--- class: 5
|   |   |   |   |   |   |   |   |   |   |--- feature_574 >  0.85490196943283081055
|   |   |   |   |   |   |   |   |   |   |   |--- feature_355 <= 0.14117647707462310791
|   |   |   |   |   |   |   |   |   |   |   |   |--- class: 6
|   |   |   |   |   |   |   |   |   |   |   |--- feature_355 >  0.14117647707462310791
|   |   |   |   |   |   |   |   |   |   |   |   |--- class: 3
|   |   |   |   |   |   |   |   |   |--- feature_510 >  0.10588235408067703247
|   |   |   |   |   |   |   |   |   |   |--- class: 0
|   |   |   |   |   |   |   |   |--- feature_430 >  0.01960784383118152618
|   |   |   |   |   |   |   |   |   |--- feature_295 <= 0.99019607901573181152
|   |   |   |   |   |   |   |   |   |   |--- feature_550 <= 0.05294117704033851624
|   |   |   |   |   |   |   |   |   |   |   |--- feature_545 <= 0.49607843905687332153
|   |   |   |   |   |   |   |   |   |   |   |   |--- feature_404 <= 0.25294119119644165039
|   |   |   |   |   |   |   |   |   |   |   |   |   |--- class: 5
|   |   |   |   |   |   |   |   |   |   |   |   |--- feature_404 >  0.25294119119644165039
|   |   |   |   |   |   |   |   |   |   |   |   |   |--- class: 2
|   |   |   |   |   |   |   |   |   |   |   |--- feature_545 >  0.49607843905687332153
|   |   |   |   |   |   |   |   |   |   |   |   |--- class: 6
|   |   |   |   |   |   |   |   |   |   |--- feature_550 >  0.05294117704033851624
|   |   |   |   |   |   |   |   |   |   |   |--- class: 6
|   |   |   |   |   |   |   |   |   |--- feature_295 >  0.99019607901573181152
|   |   |   |   |   |   |   |   |   |   |--- feature_571 <= 0.83921569585800170898
|   |   |   |   |   |   |   |   |   |   |   |--- feature_123 <= 0.23137255012989044189
|   |   |   |   |   |   |   |   |   |   |   |   |--- class: 6
|   |   |   |   |   |   |   |   |   |   |   |--- feature_123 >  0.23137255012989044189
|   |   |   |   |   |   |   |   |   |   |   |   |--- class: 2
|   |   |   |   |   |   |   |   |   |   |--- feature_571 >  0.83921569585800170898
|   |   |   |   |   |   |   |   |   |   |   |--- class: 0
|   |   |   |   |   |--- feature_244 >  0.01372549030929803848
|   |   |   |   |   |   |--- feature_128 <= 0.03725490346550941467
|   |   |   |   |   |   |   |--- feature_185 <= 0.23921569436788558960
|   |   |   |   |   |   |   |   |--- feature_437 <= 0.24509804695844650269
|   |   |   |   |   |   |   |   |   |--- feature_510 <= 0.19411765411496162415
|   |   |   |   |   |   |   |   |   |   |--- feature_208 <= 0.20784313976764678955
|   |   |   |   |   |   |   |   |   |   |   |--- class: 6
|   |   |   |   |   |   |   |   |   |   |--- feature_208 >  0.20784313976764678955
|   |   |   |   |   |   |   |   |   |   |   |--- feature_182 <= 0.15490196645259857178
|   |   |   |   |   |   |   |   |   |   |   |   |--- class: 9
|   |   |   |   |   |   |   |   |   |   |   |--- feature_182 >  0.15490196645259857178
|   |   |   |   |   |   |   |   |   |   |   |   |--- class: 0
|   |   |   |   |   |   |   |   |   |--- feature_510 >  0.19411765411496162415
|   |   |   |   |   |   |   |   |   |   |--- feature_300 <= 0.19411765038967132568
|   |   |   |   |   |   |   |   |   |   |   |--- class: 0
|   |   |   |   |   |   |   |   |   |   |--- feature_300 >  0.19411765038967132568
|   |   |   |   |   |   |   |   |   |   |   |--- class: 4
|   |   |   |   |   |   |   |   |--- feature_437 >  0.24509804695844650269
|   |   |   |   |   |   |   |   |   |--- feature_368 <= 0.09215686470270156860
|   |   |   |   |   |   |   |   |   |   |--- class: 4
|   |   |   |   |   |   |   |   |   |--- feature_368 >  0.09215686470270156860
|   |   |   |   |   |   |   |   |   |   |--- class: 9
|   |   |   |   |   |   |   |--- feature_185 >  0.23921569436788558960
|   |   |   |   |   |   |   |   |--- feature_599 <= 0.19607843831181526184
|   |   |   |   |   |   |   |   |   |--- class: 9
|   |   |   |   |   |   |   |   |--- feature_599 >  0.19607843831181526184
|   |   |   |   |   |   |   |   |   |--- feature_330 <= 0.56274510920047760010
|   |   |   |   |   |   |   |   |   |   |--- class: 8
|   |   |   |   |   |   |   |   |   |--- feature_330 >  0.56274510920047760010
|   |   |   |   |   |   |   |   |   |   |--- class: 0
|   |   |   |   |   |   |--- feature_128 >  0.03725490346550941467
|   |   |   |   |   |   |   |--- feature_457 <= 0.21764706075191497803
|   |   |   |   |   |   |   |   |--- class: 2
|   |   |   |   |   |   |   |--- feature_457 >  0.21764706075191497803
|   |   |   |   |   |   |   |   |--- feature_518 <= 0.34117648005485534668
|   |   |   |   |   |   |   |   |   |--- class: 0
|   |   |   |   |   |   |   |   |--- feature_518 >  0.34117648005485534668
|   |   |   |   |   |   |   |   |   |--- class: 6
|   |   |   |   |--- feature_241 >  0.01764705963432788849
|   |   |   |   |   |--- feature_491 <= 0.12745098769664764404
|   |   |   |   |   |   |--- feature_220 <= 0.00784313771873712540
|   |   |   |   |   |   |   |--- feature_153 <= 0.01764705963432788849
|   |   |   |   |   |   |   |   |--- feature_716 <= 0.03333333507180213928
|   |   |   |   |   |   |   |   |   |--- feature_493 <= 0.13333334028720855713
|   |   |   |   |   |   |   |   |   |   |--- feature_376 <= 0.26274510473012924194
|   |   |   |   |   |   |   |   |   |   |   |--- feature_543 <= 0.24705883115530014038
|   |   |   |   |   |   |   |   |   |   |   |   |--- feature_320 <= 0.01960784383118152618
|   |   |   |   |   |   |   |   |   |   |   |   |   |--- class: 0
|   |   |   |   |   |   |   |   |   |   |   |   |--- feature_320 >  0.01960784383118152618
|   |   |   |   |   |   |   |   |   |   |   |   |   |--- class: 5
|   |   |   |   |   |   |   |   |   |   |   |--- feature_543 >  0.24705883115530014038
|   |   |   |   |   |   |   |   |   |   |   |   |--- class: 0
|   |   |   |   |   |   |   |   |   |   |--- feature_376 >  0.26274510473012924194
|   |   |   |   |   |   |   |   |   |   |   |--- feature_241 <= 0.72156864404678344727
|   |   |   |   |   |   |   |   |   |   |   |   |--- class: 6
|   |   |   |   |   |   |   |   |   |   |   |--- feature_241 >  0.72156864404678344727
|   |   |   |   |   |   |   |   |   |   |   |   |--- feature_484 <= 0.36470589041709899902
|   |   |   |   |   |   |   |   |   |   |   |   |   |--- class: 5
|   |   |   |   |   |   |   |   |   |   |   |   |--- feature_484 >  0.36470589041709899902
|   |   |   |   |   |   |   |   |   |   |   |   |   |--- feature_649 <= 0.27254903316497802734
|   |   |   |   |   |   |   |   |   |   |   |   |   |   |--- class: 3
|   |   |   |   |   |   |   |   |   |   |   |   |   |--- feature_649 >  0.27254903316497802734
|   |   |   |   |   |   |   |   |   |   |   |   |   |   |--- class: 0
|   |   |   |   |   |   |   |   |   |--- feature_493 >  0.13333334028720855713
|   |   |   |   |   |   |   |   |   |   |--- feature_265 <= 0.47450982034206390381
|   |   |   |   |   |   |   |   |   |   |   |--- feature_209 <= 0.26862746477127075195
|   |   |   |   |   |   |   |   |   |   |   |   |--- feature_245 <= 0.08039215952157974243
|   |   |   |   |   |   |   |   |   |   |   |   |   |--- class: 4
|   |   |   |   |   |   |   |   |   |   |   |   |--- feature_245 >  0.08039215952157974243
|   |   |   |   |   |   |   |   |   |   |   |   |   |--- feature_416 <= 0.38039216399192810059
|   |   |   |   |   |   |   |   |   |   |   |   |   |   |--- class: 5
|   |   |   |   |   |   |   |   |   |   |   |   |   |--- feature_416 >  0.38039216399192810059
|   |   |   |   |   |   |   |   |   |   |   |   |   |   |--- class: 0
|   |   |   |   |   |   |   |   |   |   |   |--- feature_209 >  0.26862746477127075195
|   |   |   |   |   |   |   |   |   |   |   |   |--- class: 9
|   |   |   |   |   |   |   |   |   |   |--- feature_265 >  0.47450982034206390381
|   |   |   |   |   |   |   |   |   |   |   |--- feature_720 <= 0.45686274766921997070
|   |   |   |   |   |   |   |   |   |   |   |   |--- class: 0
|   |   |   |   |   |   |   |   |   |   |   |--- feature_720 >  0.45686274766921997070
|   |   |   |   |   |   |   |   |   |   |   |   |--- class: 9
|   |   |   |   |   |   |   |   |--- feature_716 >  0.03333333507180213928
|   |   |   |   |   |   |   |   |   |--- feature_262 <= 0.91176471114158630371
|   |   |   |   |   |   |   |   |   |   |--- feature_344 <= 0.55490196496248245239
|   |   |   |   |   |   |   |   |   |   |   |--- class: 5
|   |   |   |   |   |   |   |   |   |   |--- feature_344 >  0.55490196496248245239
|   |   |   |   |   |   |   |   |   |   |   |--- class: 9
|   |   |   |   |   |   |   |   |   |--- feature_262 >  0.91176471114158630371
|   |   |   |   |   |   |   |   |   |   |--- class: 7
|   |   |   |   |   |   |   |--- feature_153 >  0.01764705963432788849
|   |   |   |   |   |   |   |   |--- feature_407 <= 0.00588235305622220039
|   |   |   |   |   |   |   |   |   |--- feature_546 <= 0.49411766231060028076
|   |   |   |   |   |   |   |   |   |   |--- class: 0
|   |   |   |   |   |   |   |   |   |--- feature_546 >  0.49411766231060028076
|   |   |   |   |   |   |   |   |   |   |--- feature_428 <= 0.06470588594675064087
|   |   |   |   |   |   |   |   |   |   |   |--- feature_632 <= 0.71176472306251525879
|   |   |   |   |   |   |   |   |   |   |   |   |--- class: 0
|   |   |   |   |   |   |   |   |   |   |   |--- feature_632 >  0.71176472306251525879
|   |   |   |   |   |   |   |   |   |   |   |   |--- class: 2
|   |   |   |   |   |   |   |   |   |   |--- feature_428 >  0.06470588594675064087
|   |   |   |   |   |   |   |   |   |   |   |--- feature_543 <= 0.95882353186607360840
|   |   |   |   |   |   |   |   |   |   |   |   |--- class: 9
|   |   |   |   |   |   |   |   |   |   |   |--- feature_543 >  0.95882353186607360840
|   |   |   |   |   |   |   |   |   |   |   |   |--- class: 0
|   |   |   |   |   |   |   |   |--- feature_407 >  0.00588235305622220039
|   |   |   |   |   |   |   |   |   |--- class: 8
|   |   |   |   |   |   |--- feature_220 >  0.00784313771873712540
|   |   |   |   |   |   |   |--- class: 5
|   |   |   |   |   |--- feature_491 >  0.12745098769664764404
|   |   |   |   |   |   |--- feature_158 <= 0.05882353149354457855
|   |   |   |   |   |   |   |--- feature_456 <= 0.00784313771873712540
|   |   |   |   |   |   |   |   |--- feature_233 <= 0.03725490346550941467
|   |   |   |   |   |   |   |   |   |--- feature_570 <= 0.01176470611244440079
|   |   |   |   |   |   |   |   |   |   |--- feature_374 <= 0.11568627506494522095
|   |   |   |   |   |   |   |   |   |   |   |--- feature_266 <= 0.65294118225574493408
|   |   |   |   |   |   |   |   |   |   |   |   |--- feature_268 <= 0.52156862802803516388
|   |   |   |   |   |   |   |   |   |   |   |   |   |--- class: 6
|   |   |   |   |   |   |   |   |   |   |   |   |--- feature_268 >  0.52156862802803516388
|   |   |   |   |   |   |   |   |   |   |   |   |   |--- feature_437 <= 0.15882353484630584717
|   |   |   |   |   |   |   |   |   |   |   |   |   |   |--- class: 2
|   |   |   |   |   |   |   |   |   |   |   |   |   |--- feature_437 >  0.15882353484630584717
|   |   |   |   |   |   |   |   |   |   |   |   |   |   |--- class: 5
|   |   |   |   |   |   |   |   |   |   |   |--- feature_266 >  0.65294118225574493408
|   |   |   |   |   |   |   |   |   |   |   |   |--- class: 7
|   |   |   |   |   |   |   |   |   |   |--- feature_374 >  0.11568627506494522095
|   |   |   |   |   |   |   |   |   |   |   |--- feature_214 <= 0.22156862914562225342
|   |   |   |   |   |   |   |   |   |   |   |   |--- class: 9
|   |   |   |   |   |   |   |   |   |   |   |--- feature_214 >  0.22156862914562225342
|   |   |   |   |   |   |   |   |   |   |   |   |--- class: 4
|   |   |   |   |   |   |   |   |   |--- feature_570 >  0.01176470611244440079
|   |   |   |   |   |   |   |   |   |   |--- feature_517 <= 0.91568627953529357910
|   |   |   |   |   |   |   |   |   |   |   |--- feature_210 <= 0.00588235305622220039
|   |   |   |   |   |   |   |   |   |   |   |   |--- feature_567 <= 0.31764706969261169434
|   |   |   |   |   |   |   |   |   |   |   |   |   |--- class: 6
|   |   |   |   |   |   |   |   |   |   |   |   |--- feature_567 >  0.31764706969261169434
|   |   |   |   |   |   |   |   |   |   |   |   |   |--- class: 3
|   |   |   |   |   |   |   |   |   |   |   |--- feature_210 >  0.00588235305622220039
|   |   |   |   |   |   |   |   |   |   |   |   |--- class: 0
|   |   |   |   |   |   |   |   |   |   |--- feature_517 >  0.91568627953529357910
|   |   |   |   |   |   |   |   |   |   |   |--- class: 2
|   |   |   |   |   |   |   |   |--- feature_233 >  0.03725490346550941467
|   |   |   |   |   |   |   |   |   |--- feature_482 <= 0.28039216995239257812
|   |   |   |   |   |   |   |   |   |   |--- feature_374 <= 0.27647060155868530273
|   |   |   |   |   |   |   |   |   |   |   |--- class: 7
|   |   |   |   |   |   |   |   |   |   |--- feature_374 >  0.27647060155868530273
|   |   |   |   |   |   |   |   |   |   |   |--- feature_272 <= 0.16274510324001312256
|   |   |   |   |   |   |   |   |   |   |   |   |--- class: 4
|   |   |   |   |   |   |   |   |   |   |   |--- feature_272 >  0.16274510324001312256
|   |   |   |   |   |   |   |   |   |   |   |   |--- class: 6
|   |   |   |   |   |   |   |   |   |--- feature_482 >  0.28039216995239257812
|   |   |   |   |   |   |   |   |   |   |--- class: 9
|   |   |   |   |   |   |   |--- feature_456 >  0.00784313771873712540
|   |   |   |   |   |   |   |   |--- feature_210 <= 0.02549019688740372658
|   |   |   |   |   |   |   |   |   |--- feature_294 <= 0.24313726276159286499
|   |   |   |   |   |   |   |   |   |   |--- feature_385 <= 0.23137255758047103882
|   |   |   |   |   |   |   |   |   |   |   |--- feature_401 <= 0.08823529630899429321
|   |   |   |   |   |   |   |   |   |   |   |   |--- feature_572 <= 0.25098040699958801270
|   |   |   |   |   |   |   |   |   |   |   |   |   |--- class: 9
|   |   |   |   |   |   |   |   |   |   |   |   |--- feature_572 >  0.25098040699958801270
|   |   |   |   |   |   |   |   |   |   |   |   |   |--- class: 2
|   |   |   |   |   |   |   |   |   |   |   |--- feature_401 >  0.08823529630899429321
|   |   |   |   |   |   |   |   |   |   |   |   |--- class: 4
|   |   |   |   |   |   |   |   |   |   |--- feature_385 >  0.23137255758047103882
|   |   |   |   |   |   |   |   |   |   |   |--- class: 6
|   |   |   |   |   |   |   |   |   |--- feature_294 >  0.24313726276159286499
|   |   |   |   |   |   |   |   |   |   |--- feature_263 <= 0.41764707863330841064
|   |   |   |   |   |   |   |   |   |   |   |--- class: 0
|   |   |   |   |   |   |   |   |   |   |--- feature_263 >  0.41764707863330841064
|   |   |   |   |   |   |   |   |   |   |   |--- feature_371 <= 0.51960784383118152618
|   |   |   |   |   |   |   |   |   |   |   |   |--- class: 7
|   |   |   |   |   |   |   |   |   |   |   |--- feature_371 >  0.51960784383118152618
|   |   |   |   |   |   |   |   |   |   |   |   |--- class: 5
|   |   |   |   |   |   |   |   |--- feature_210 >  0.02549019688740372658
|   |   |   |   |   |   |   |   |   |--- feature_292 <= 0.95686274766921997070
|   |   |   |   |   |   |   |   |   |   |--- feature_219 <= 0.03725490346550941467
|   |   |   |   |   |   |   |   |   |   |   |--- feature_443 <= 0.52745099365711212158
|   |   |   |   |   |   |   |   |   |   |   |   |--- feature_630 <= 0.34313726425170898438
|   |   |   |   |   |   |   |   |   |   |   |   |   |--- feature_229 <= 0.48627452552318572998
|   |   |   |   |   |   |   |   |   |   |   |   |   |   |--- class: 9
|   |   |   |   |   |   |   |   |   |   |   |   |   |--- feature_229 >  0.48627452552318572998
|   |   |   |   |   |   |   |   |   |   |   |   |   |   |--- class: 4
|   |   |   |   |   |   |   |   |   |   |   |   |--- feature_630 >  0.34313726425170898438
|   |   |   |   |   |   |   |   |   |   |   |   |   |--- feature_714 <= 0.26862746477127075195
|   |   |   |   |   |   |   |   |   |   |   |   |   |   |--- class: 7
|   |   |   |   |   |   |   |   |   |   |   |   |   |--- feature_714 >  0.26862746477127075195
|   |   |   |   |   |   |   |   |   |   |   |   |   |   |--- class: 9
|   |   |   |   |   |   |   |   |   |   |   |--- feature_443 >  0.52745099365711212158
|   |   |   |   |   |   |   |   |   |   |   |   |--- feature_466 <= 0.87058824300765991211
|   |   |   |   |   |   |   |   |   |   |   |   |   |--- class: 0
|   |   |   |   |   |   |   |   |   |   |   |   |--- feature_466 >  0.87058824300765991211
|   |   |   |   |   |   |   |   |   |   |   |   |   |--- class: 7
|   |   |   |   |   |   |   |   |   |   |--- feature_219 >  0.03725490346550941467
|   |   |   |   |   |   |   |   |   |   |   |--- feature_605 <= 0.89215686917304992676
|   |   |   |   |   |   |   |   |   |   |   |   |--- class: 5
|   |   |   |   |   |   |   |   |   |   |   |--- feature_605 >  0.89215686917304992676
|   |   |   |   |   |   |   |   |   |   |   |   |--- class: 4
|   |   |   |   |   |   |   |   |   |--- feature_292 >  0.95686274766921997070
|   |   |   |   |   |   |   |   |   |   |--- feature_316 <= 0.05098039377480745316
|   |   |   |   |   |   |   |   |   |   |   |--- feature_241 <= 0.36862745881080627441
|   |   |   |   |   |   |   |   |   |   |   |   |--- class: 4
|   |   |   |   |   |   |   |   |   |   |   |--- feature_241 >  0.36862745881080627441
|   |   |   |   |   |   |   |   |   |   |   |   |--- feature_236 <= 0.72156862914562225342
|   |   |   |   |   |   |   |   |   |   |   |   |   |--- class: 9
|   |   |   |   |   |   |   |   |   |   |   |   |--- feature_236 >  0.72156862914562225342
|   |   |   |   |   |   |   |   |   |   |   |   |   |--- class: 5
|   |   |   |   |   |   |   |   |   |   |--- feature_316 >  0.05098039377480745316
|   |   |   |   |   |   |   |   |   |   |   |--- feature_578 <= 0.34901960939168930054
|   |   |   |   |   |   |   |   |   |   |   |   |--- feature_464 <= 0.46274510025978088379
|   |   |   |   |   |   |   |   |   |   |   |   |   |--- class: 0
|   |   |   |   |   |   |   |   |   |   |   |   |--- feature_464 >  0.46274510025978088379
|   |   |   |   |   |   |   |   |   |   |   |   |   |--- class: 8
|   |   |   |   |   |   |   |   |   |   |   |--- feature_578 >  0.34901960939168930054
|   |   |   |   |   |   |   |   |   |   |   |   |--- feature_664 <= 0.40000000596046447754
|   |   |   |   |   |   |   |   |   |   |   |   |   |--- class: 7
|   |   |   |   |   |   |   |   |   |   |   |   |--- feature_664 >  0.40000000596046447754
|   |   |   |   |   |   |   |   |   |   |   |   |   |--- class: 2
|   |   |   |   |   |   |--- feature_158 >  0.05882353149354457855
|   |   |   |   |   |   |   |--- feature_599 <= 0.14313726127147674561
|   |   |   |   |   |   |   |   |--- feature_182 <= 0.60000002384185791016
|   |   |   |   |   |   |   |   |   |--- feature_131 <= 0.67450982332229614258
|   |   |   |   |   |   |   |   |   |   |--- class: 4
|   |   |   |   |   |   |   |   |   |--- feature_131 >  0.67450982332229614258
|   |   |   |   |   |   |   |   |   |   |--- feature_212 <= 0.48431372642517089844
|   |   |   |   |   |   |   |   |   |   |   |--- feature_72 <= 0.11764705926179885864
|   |   |   |   |   |   |   |   |   |   |   |   |--- class: 4
|   |   |   |   |   |   |   |   |   |   |   |--- feature_72 >  0.11764705926179885864
|   |   |   |   |   |   |   |   |   |   |   |   |--- class: 2
|   |   |   |   |   |   |   |   |   |   |--- feature_212 >  0.48431372642517089844
|   |   |   |   |   |   |   |   |   |   |   |--- class: 6
|   |   |   |   |   |   |   |   |--- feature_182 >  0.60000002384185791016
|   |   |   |   |   |   |   |   |   |--- feature_381 <= 0.94509804248809814453
|   |   |   |   |   |   |   |   |   |   |--- feature_270 <= 0.23333333432674407959
|   |   |   |   |   |   |   |   |   |   |   |--- feature_442 <= 0.49803921580314636230
|   |   |   |   |   |   |   |   |   |   |   |   |--- class: 8
|   |   |   |   |   |   |   |   |   |   |   |--- feature_442 >  0.49803921580314636230
|   |   |   |   |   |   |   |   |   |   |   |   |--- class: 0
|   |   |   |   |   |   |   |   |   |   |--- feature_270 >  0.23333333432674407959
|   |   |   |   |   |   |   |   |   |   |   |--- feature_410 <= 0.99411764740943908691
|   |   |   |   |   |   |   |   |   |   |   |   |--- class: 9
|   |   |   |   |   |   |   |   |   |   |   |--- feature_410 >  0.99411764740943908691
|   |   |   |   |   |   |   |   |   |   |   |   |--- class: 2
|   |   |   |   |   |   |   |   |   |--- feature_381 >  0.94509804248809814453
|   |   |   |   |   |   |   |   |   |   |--- class: 4
|   |   |   |   |   |   |   |--- feature_599 >  0.14313726127147674561
|   |   |   |   |   |   |   |   |--- feature_271 <= 0.01176470611244440079
|   |   |   |   |   |   |   |   |   |--- feature_520 <= 0.99607843160629272461
|   |   |   |   |   |   |   |   |   |   |--- class: 6
|   |   |   |   |   |   |   |   |   |--- feature_520 >  0.99607843160629272461
|   |   |   |   |   |   |   |   |   |   |--- class: 5
|   |   |   |   |   |   |   |   |--- feature_271 >  0.01176470611244440079
|   |   |   |   |   |   |   |   |   |--- feature_400 <= 0.02745098061859607697
|   |   |   |   |   |   |   |   |   |   |--- class: 2
|   |   |   |   |   |   |   |   |   |--- feature_400 >  0.02745098061859607697
|   |   |   |   |   |   |   |   |   |   |--- feature_291 <= 0.39607843756675720215
|   |   |   |   |   |   |   |   |   |   |   |--- feature_407 <= 0.09607843309640884399
|   |   |   |   |   |   |   |   |   |   |   |   |--- class: 3
|   |   |   |   |   |   |   |   |   |   |   |--- feature_407 >  0.09607843309640884399
|   |   |   |   |   |   |   |   |   |   |   |   |--- class: 4
|   |   |   |   |   |   |   |   |   |   |--- feature_291 >  0.39607843756675720215
|   |   |   |   |   |   |   |   |   |   |   |--- class: 0
|   |   |--- feature_597 >  0.00196078442968428135
|   |   |   |--- feature_428 <= 0.00196078442968428135
|   |   |   |   |--- feature_490 <= 0.06470588594675064087
|   |   |   |   |   |--- feature_398 <= 0.13529412448406219482
|   |   |   |   |   |   |--- feature_430 <= 0.57254904508590698242
|   |   |   |   |   |   |   |--- feature_323 <= 0.01176470657810568810
|   |   |   |   |   |   |   |   |--- feature_547 <= 0.49411766231060028076
|   |   |   |   |   |   |   |   |   |--- feature_291 <= 0.10392156988382339478
|   |   |   |   |   |   |   |   |   |   |--- feature_243 <= 0.05686274543404579163
|   |   |   |   |   |   |   |   |   |   |   |--- feature_158 <= 0.01372549030929803848
|   |   |   |   |   |   |   |   |   |   |   |   |--- feature_652 <= 0.20000000298023223877
|   |   |   |   |   |   |   |   |   |   |   |   |   |--- feature_600 <= 0.53333333507180213928
|   |   |   |   |   |   |   |   |   |   |   |   |   |   |--- class: 2
|   |   |   |   |   |   |   |   |   |   |   |   |   |--- feature_600 >  0.53333333507180213928
|   |   |   |   |   |   |   |   |   |   |   |   |   |   |--- class: 0
|   |   |   |   |   |   |   |   |   |   |   |   |--- feature_652 >  0.20000000298023223877
|   |   |   |   |   |   |   |   |   |   |   |   |   |--- class: 3
|   |   |   |   |   |   |   |   |   |   |   |--- feature_158 >  0.01372549030929803848
|   |   |   |   |   |   |   |   |   |   |   |   |--- feature_637 <= 0.25490197539329528809
|   |   |   |   |   |   |   |   |   |   |   |   |   |--- class: 5
|   |   |   |   |   |   |   |   |   |   |   |   |--- feature_637 >  0.25490197539329528809
|   |   |   |   |   |   |   |   |   |   |   |   |   |--- class: 1
|   |   |   |   |   |   |   |   |   |   |--- feature_243 >  0.05686274543404579163
|   |   |   |   |   |   |   |   |   |   |   |--- feature_346 <= 0.10588235408067703247
|   |   |   |   |   |   |   |   |   |   |   |   |--- class: 0
|   |   |   |   |   |   |   |   |   |   |   |--- feature_346 >  0.10588235408067703247
|   |   |   |   |   |   |   |   |   |   |   |   |--- class: 3
|   |   |   |   |   |   |   |   |   |--- feature_291 >  0.10392156988382339478
|   |   |   |   |   |   |   |   |   |   |--- feature_155 <= 0.99803921580314636230
|   |   |   |   |   |   |   |   |   |   |   |--- feature_546 <= 0.09019608050584793091
|   |   |   |   |   |   |   |   |   |   |   |   |--- class: 5
|   |   |   |   |   |   |   |   |   |   |   |--- feature_546 >  0.09019608050584793091
|   |   |   |   |   |   |   |   |   |   |   |   |--- class: 3
|   |   |   |   |   |   |   |   |   |   |--- feature_155 >  0.99803921580314636230
|   |   |   |   |   |   |   |   |   |   |   |--- class: 0
|   |   |   |   |   |   |   |   |--- feature_547 >  0.49411766231060028076
|   |   |   |   |   |   |   |   |   |--- feature_375 <= 0.05686274543404579163
|   |   |   |   |   |   |   |   |   |   |--- feature_520 <= 0.18627451360225677490
|   |   |   |   |   |   |   |   |   |   |   |--- feature_496 <= 0.39019608497619628906
|   |   |   |   |   |   |   |   |   |   |   |   |--- feature_632 <= 0.26274511218070983887
|   |   |   |   |   |   |   |   |   |   |   |   |   |--- class: 1
|   |   |   |   |   |   |   |   |   |   |   |   |--- feature_632 >  0.26274511218070983887
|   |   |   |   |   |   |   |   |   |   |   |   |   |--- class: 5
|   |   |   |   |   |   |   |   |   |   |   |--- feature_496 >  0.39019608497619628906
|   |   |   |   |   |   |   |   |   |   |   |   |--- feature_154 <= 0.99607843160629272461
|   |   |   |   |   |   |   |   |   |   |   |   |   |--- class: 0
|   |   |   |   |   |   |   |   |   |   |   |   |--- feature_154 >  0.99607843160629272461
|   |   |   |   |   |   |   |   |   |   |   |   |   |--- class: 2
|   |   |   |   |   |   |   |   |   |   |--- feature_520 >  0.18627451360225677490
|   |   |   |   |   |   |   |   |   |   |   |--- feature_536 <= 0.89019608497619628906
|   |   |   |   |   |   |   |   |   |   |   |   |--- feature_156 <= 0.15882353484630584717
|   |   |   |   |   |   |   |   |   |   |   |   |   |--- feature_243 <= 0.82549020648002624512
|   |   |   |   |   |   |   |   |   |   |   |   |   |   |--- class: 2
|   |   |   |   |   |   |   |   |   |   |   |   |   |--- feature_243 >  0.82549020648002624512
|   |   |   |   |   |   |   |   |   |   |   |   |   |   |--- feature_439 <= 0.99411764740943908691
|   |   |   |   |   |   |   |   |   |   |   |   |   |   |   |--- class: 7
|   |   |   |   |   |   |   |   |   |   |   |   |   |   |--- feature_439 >  0.99411764740943908691
|   |   |   |   |   |   |   |   |   |   |   |   |   |   |   |--- class: 2
|   |   |   |   |   |   |   |   |   |   |   |   |--- feature_156 >  0.15882353484630584717
|   |   |   |   |   |   |   |   |   |   |   |   |   |--- class: 2
|   |   |   |   |   |   |   |   |   |   |   |--- feature_536 >  0.89019608497619628906
|   |   |   |   |   |   |   |   |   |   |   |   |--- class: 3
|   |   |   |   |   |   |   |   |   |--- feature_375 >  0.05686274543404579163
|   |   |   |   |   |   |   |   |   |   |--- feature_654 <= 0.11176470667123794556
|   |   |   |   |   |   |   |   |   |   |   |--- class: 5
|   |   |   |   |   |   |   |   |   |   |--- feature_654 >  0.11176470667123794556
|   |   |   |   |   |   |   |   |   |   |   |--- feature_513 <= 0.03529411926865577698
|   |   |   |   |   |   |   |   |   |   |   |   |--- class: 9
|   |   |   |   |   |   |   |   |   |   |   |--- feature_513 >  0.03529411926865577698
|   |   |   |   |   |   |   |   |   |   |   |   |--- feature_442 <= 0.37450981140136718750
|   |   |   |   |   |   |   |   |   |   |   |   |   |--- class: 0
|   |   |   |   |   |   |   |   |   |   |   |   |--- feature_442 >  0.37450981140136718750
|   |   |   |   |   |   |   |   |   |   |   |   |   |--- class: 2
|   |   |   |   |   |   |   |--- feature_323 >  0.01176470657810568810
|   |   |   |   |   |   |   |   |--- feature_267 <= 0.29607844352722167969
|   |   |   |   |   |   |   |   |   |--- feature_269 <= 0.64313727617263793945
|   |   |   |   |   |   |   |   |   |   |--- feature_235 <= 0.06666667014360427856
|   |   |   |   |   |   |   |   |   |   |   |--- feature_261 <= 0.07647058926522731781
|   |   |   |   |   |   |   |   |   |   |   |   |--- feature_151 <= 0.04313725605607032776
|   |   |   |   |   |   |   |   |   |   |   |   |   |--- feature_298 <= 0.97450980544090270996
|   |   |   |   |   |   |   |   |   |   |   |   |   |   |--- feature_525 <= 0.62745100259780883789
|   |   |   |   |   |   |   |   |   |   |   |   |   |   |   |--- class: 5
|   |   |   |   |   |   |   |   |   |   |   |   |   |   |--- feature_525 >  0.62745100259780883789
|   |   |   |   |   |   |   |   |   |   |   |   |   |   |   |--- class: 3
|   |   |   |   |   |   |   |   |   |   |   |   |   |--- feature_298 >  0.97450980544090270996
|   |   |   |   |   |   |   |   |   |   |   |   |   |   |--- class: 3
|   |   |   |   |   |   |   |   |   |   |   |   |--- feature_151 >  0.04313725605607032776
|   |   |   |   |   |   |   |   |   |   |   |   |   |--- feature_372 <= 0.42352942377328872681
|   |   |   |   |   |   |   |   |   |   |   |   |   |   |--- class: 3
|   |   |   |   |   |   |   |   |   |   |   |   |   |--- feature_372 >  0.42352942377328872681
|   |   |   |   |   |   |   |   |   |   |   |   |   |   |--- class: 5
|   |   |   |   |   |   |   |   |   |   |   |--- feature_261 >  0.07647058926522731781
|   |   |   |   |   |   |   |   |   |   |   |   |--- feature_321 <= 0.20980392768979072571
|   |   |   |   |   |   |   |   |   |   |   |   |   |--- class: 3
|   |   |   |   |   |   |   |   |   |   |   |   |--- feature_321 >  0.20980392768979072571
|   |   |   |   |   |   |   |   |   |   |   |   |   |--- class: 5
|   |   |   |   |   |   |   |   |   |   |--- feature_235 >  0.06666667014360427856
|   |   |   |   |   |   |   |   |   |   |   |--- feature_148 <= 0.74117648601531982422
|   |   |   |   |   |   |   |   |   |   |   |   |--- class: 5
|   |   |   |   |   |   |   |   |   |   |   |--- feature_148 >  0.74117648601531982422
|   |   |   |   |   |   |   |   |   |   |   |   |--- feature_325 <= 0.76078432798385620117
|   |   |   |   |   |   |   |   |   |   |   |   |   |--- class: 3
|   |   |   |   |   |   |   |   |   |   |   |   |--- feature_325 >  0.76078432798385620117
|   |   |   |   |   |   |   |   |   |   |   |   |   |--- class: 5
|   |   |   |   |   |   |   |   |   |--- feature_269 >  0.64313727617263793945
|   |   |   |   |   |   |   |   |   |   |--- feature_240 <= 0.75882354378700256348
|   |   |   |   |   |   |   |   |   |   |   |--- feature_430 <= 0.21764706075191497803
|   |   |   |   |   |   |   |   |   |   |   |   |--- class: 3
|   |   |   |   |   |   |   |   |   |   |   |--- feature_430 >  0.21764706075191497803
|   |   |   |   |   |   |   |   |   |   |   |   |--- class: 5
|   |   |   |   |   |   |   |   |   |   |--- feature_240 >  0.75882354378700256348
|   |   |   |   |   |   |   |   |   |   |   |--- feature_147 <= 0.34509804844856262207
|   |   |   |   |   |   |   |   |   |   |   |   |--- feature_289 <= 0.13529412448406219482
|   |   |   |   |   |   |   |   |   |   |   |   |   |--- class: 0
|   |   |   |   |   |   |   |   |   |   |   |   |--- feature_289 >  0.13529412448406219482
|   |   |   |   |   |   |   |   |   |   |   |   |   |--- class: 7
|   |   |   |   |   |   |   |   |   |   |   |--- feature_147 >  0.34509804844856262207
|   |   |   |   |   |   |   |   |   |   |   |   |--- class: 1
|   |   |   |   |   |   |   |   |--- feature_267 >  0.29607844352722167969
|   |   |   |   |   |   |   |   |   |--- feature_124 <= 0.44313725829124450684
|   |   |   |   |   |   |   |   |   |   |--- feature_263 <= 0.71764707565307617188
|   |   |   |   |   |   |   |   |   |   |   |--- feature_247 <= 0.09215686656534671783
|   |   |   |   |   |   |   |   |   |   |   |   |--- feature_439 <= 0.83137255907058715820
|   |   |   |   |   |   |   |   |   |   |   |   |   |--- feature_321 <= 0.04509804025292396545
|   |   |   |   |   |   |   |   |   |   |   |   |   |   |--- feature_149 <= 0.41176471114158630371
|   |   |   |   |   |   |   |   |   |   |   |   |   |   |   |--- class: 5
|   |   |   |   |   |   |   |   |   |   |   |   |   |   |--- feature_149 >  0.41176471114158630371
|   |   |   |   |   |   |   |   |   |   |   |   |   |   |   |--- class: 7
|   |   |   |   |   |   |   |   |   |   |   |   |   |--- feature_321 >  0.04509804025292396545
|   |   |   |   |   |   |   |   |   |   |   |   |   |   |--- feature_135 <= 0.04901960911229252815
|   |   |   |   |   |   |   |   |   |   |   |   |   |   |   |--- feature_290 <= 0.99215686321258544922
|   |   |   |   |   |   |   |   |   |   |   |   |   |   |   |   |--- feature_430 <= 0.21960784494876861572
|   |   |   |   |   |   |   |   |   |   |   |   |   |   |   |   |   |--- feature_510 <= 0.99411764740943908691
|   |   |   |   |   |   |   |   |   |   |   |   |   |   |   |   |   |   |--- class: 3
|   |   |   |   |   |   |   |   |   |   |   |   |   |   |   |   |   |--- feature_510 >  0.99411764740943908691
|   |   |   |   |   |   |   |   |   |   |   |   |   |   |   |   |   |   |--- class: 5
|   |   |   |   |   |   |   |   |   |   |   |   |   |   |   |   |--- feature_430 >  0.21960784494876861572
|   |   |   |   |   |   |   |   |   |   |   |   |   |   |   |   |   |--- feature_217 <= 0.48627451062202453613
|   |   |   |   |   |   |   |   |   |   |   |   |   |   |   |   |   |   |--- class: 0
|   |   |   |   |   |   |   |   |   |   |   |   |   |   |   |   |   |--- feature_217 >  0.48627451062202453613
|   |   |   |   |   |   |   |   |   |   |   |   |   |   |   |   |   |   |--- class: 5
|   |   |   |   |   |   |   |   |   |   |   |   |   |   |   |--- feature_290 >  0.99215686321258544922
|   |   |   |   |   |   |   |   |   |   |   |   |   |   |   |   |--- class: 5
|   |   |   |   |   |   |   |   |   |   |   |   |   |   |--- feature_135 >  0.04901960911229252815
|   |   |   |   |   |   |   |   |   |   |   |   |   |   |   |--- class: 5
|   |   |   |   |   |   |   |   |   |   |   |   |--- feature_439 >  0.83137255907058715820
|   |   |   |   |   |   |   |   |   |   |   |   |   |--- feature_299 <= 0.44117648899555206299
|   |   |   |   |   |   |   |   |   |   |   |   |   |   |--- class: 3
|   |   |   |   |   |   |   |   |   |   |   |   |   |--- feature_299 >  0.44117648899555206299
|   |   |   |   |   |   |   |   |   |   |   |   |   |   |--- feature_631 <= 0.10000000242143869400
|   |   |   |   |   |   |   |   |   |   |   |   |   |   |   |--- class: 3
|   |   |   |   |   |   |   |   |   |   |   |   |   |   |--- feature_631 >  0.10000000242143869400
|   |   |   |   |   |   |   |   |   |   |   |   |   |   |   |--- class: 2
|   |   |   |   |   |   |   |   |   |   |   |--- feature_247 >  0.09215686656534671783
|   |   |   |   |   |   |   |   |   |   |   |   |--- class: 5
|   |   |   |   |   |   |   |   |   |   |--- feature_263 >  0.71764707565307617188
|   |   |   |   |   |   |   |   |   |   |   |--- feature_259 <= 0.54313726723194122314
|   |   |   |   |   |   |   |   |   |   |   |   |--- feature_600 <= 0.89019608497619628906
|   |   |   |   |   |   |   |   |   |   |   |   |   |--- class: 5
|   |   |   |   |   |   |   |   |   |   |   |   |--- feature_600 >  0.89019608497619628906
|   |   |   |   |   |   |   |   |   |   |   |   |   |--- feature_634 <= 0.31960785388946533203
|   |   |   |   |   |   |   |   |   |   |   |   |   |   |--- feature_99 <= 0.09803921915590763092
|   |   |   |   |   |   |   |   |   |   |   |   |   |   |   |--- feature_653 <= 0.91568627953529357910
|   |   |   |   |   |   |   |   |   |   |   |   |   |   |   |   |--- class: 5
|   |   |   |   |   |   |   |   |   |   |   |   |   |   |   |--- feature_653 >  0.91568627953529357910
|   |   |   |   |   |   |   |   |   |   |   |   |   |   |   |   |--- class: 3
|   |   |   |   |   |   |   |   |   |   |   |   |   |   |--- feature_99 >  0.09803921915590763092
|   |   |   |   |   |   |   |   |   |   |   |   |   |   |   |--- class: 3
|   |   |   |   |   |   |   |   |   |   |   |   |   |--- feature_634 >  0.31960785388946533203
|   |   |   |   |   |   |   |   |   |   |   |   |   |   |--- feature_348 <= 0.45686274766921997070
|   |   |   |   |   |   |   |   |   |   |   |   |   |   |   |--- class: 3
|   |   |   |   |   |   |   |   |   |   |   |   |   |   |--- feature_348 >  0.45686274766921997070
|   |   |   |   |   |   |   |   |   |   |   |   |   |   |   |--- class: 1
|   |   |   |   |   |   |   |   |   |   |   |--- feature_259 >  0.54313726723194122314
|   |   |   |   |   |   |   |   |   |   |   |   |--- feature_566 <= 0.10000000149011611938
|   |   |   |   |   |   |   |   |   |   |   |   |   |--- class: 7
|   |   |   |   |   |   |   |   |   |   |   |   |--- feature_566 >  0.10000000149011611938
|   |   |   |   |   |   |   |   |   |   |   |   |   |--- feature_549 <= 0.93333333730697631836
|   |   |   |   |   |   |   |   |   |   |   |   |   |   |--- class: 5
|   |   |   |   |   |   |   |   |   |   |   |   |   |--- feature_549 >  0.93333333730697631836
|   |   |   |   |   |   |   |   |   |   |   |   |   |   |--- class: 2
|   |   |   |   |   |   |   |   |   |--- feature_124 >  0.44313725829124450684
|   |   |   |   |   |   |   |   |   |   |--- feature_436 <= 0.40980394184589385986
|   |   |   |   |   |   |   |   |   |   |   |--- feature_233 <= 0.89411765336990356445
|   |   |   |   |   |   |   |   |   |   |   |   |--- class: 3
|   |   |   |   |   |   |   |   |   |   |   |--- feature_233 >  0.89411765336990356445
|   |   |   |   |   |   |   |   |   |   |   |   |--- class: 5
|   |   |   |   |   |   |   |   |   |   |--- feature_436 >  0.40980394184589385986
|   |   |   |   |   |   |   |   |   |   |   |--- feature_606 <= 0.04509804025292396545
|   |   |   |   |   |   |   |   |   |   |   |   |--- class: 3
|   |   |   |   |   |   |   |   |   |   |   |--- feature_606 >  0.04509804025292396545
|   |   |   |   |   |   |   |   |   |   |   |   |--- feature_628 <= 0.50392158329486846924
|   |   |   |   |   |   |   |   |   |   |   |   |   |--- feature_178 <= 0.62745100259780883789
|   |   |   |   |   |   |   |   |   |   |   |   |   |   |--- class: 1
|   |   |   |   |   |   |   |   |   |   |   |   |   |--- feature_178 >  0.62745100259780883789
|   |   |   |   |   |   |   |   |   |   |   |   |   |   |--- class: 2
|   |   |   |   |   |   |   |   |   |   |   |   |--- feature_628 >  0.50392158329486846924
|   |   |   |   |   |   |   |   |   |   |   |   |   |--- class: 9
|   |   |   |   |   |   |--- feature_430 >  0.57254904508590698242
|   |   |   |   |   |   |   |--- feature_327 <= 0.06470588408410549164
|   |   |   |   |   |   |   |   |--- feature_513 <= 0.16862745583057403564
|   |   |   |   |   |   |   |   |   |--- feature_379 <= 0.07450980693101882935
|   |   |   |   |   |   |   |   |   |   |--- feature_374 <= 0.16274510324001312256
|   |   |   |   |   |   |   |   |   |   |   |--- class: 6
|   |   |   |   |   |   |   |   |   |   |--- feature_374 >  0.16274510324001312256
|   |   |   |   |   |   |   |   |   |   |   |--- class: 5
|   |   |   |   |   |   |   |   |   |--- feature_379 >  0.07450980693101882935
|   |   |   |   |   |   |   |   |   |   |--- feature_659 <= 0.59803921729326248169
|   |   |   |   |   |   |   |   |   |   |   |--- class: 0
|   |   |   |   |   |   |   |   |   |   |--- feature_659 >  0.59803921729326248169
|   |   |   |   |   |   |   |   |   |   |   |--- class: 3
|   |   |   |   |   |   |   |   |--- feature_513 >  0.16862745583057403564
|   |   |   |   |   |   |   |   |   |--- feature_241 <= 0.08235294371843338013
|   |   |   |   |   |   |   |   |   |   |--- feature_626 <= 0.95294117927551269531
|   |   |   |   |   |   |   |   |   |   |   |--- feature_525 <= 0.25098040699958801270
|   |   |   |   |   |   |   |   |   |   |   |   |--- class: 6
|   |   |   |   |   |   |   |   |   |   |   |--- feature_525 >  0.25098040699958801270
|   |   |   |   |   |   |   |   |   |   |   |   |--- class: 2
|   |   |   |   |   |   |   |   |   |   |--- feature_626 >  0.95294117927551269531
|   |   |   |   |   |   |   |   |   |   |   |--- feature_184 <= 0.00588235305622220039
|   |   |   |   |   |   |   |   |   |   |   |   |--- class: 5
|   |   |   |   |   |   |   |   |   |   |   |--- feature_184 >  0.00588235305622220039
|   |   |   |   |   |   |   |   |   |   |   |   |--- class: 0
|   |   |   |   |   |   |   |   |   |--- feature_241 >  0.08235294371843338013
|   |   |   |   |   |   |   |   |   |   |--- feature_233 <= 0.99411764740943908691
|   |   |   |   |   |   |   |   |   |   |   |--- class: 0
|   |   |   |   |   |   |   |   |   |   |--- feature_233 >  0.99411764740943908691
|   |   |   |   |   |   |   |   |   |   |   |--- class: 8
|   |   |   |   |   |   |   |--- feature_327 >  0.06470588408410549164
|   |   |   |   |   |   |   |   |--- feature_183 <= 0.00392156885936856270
|   |   |   |   |   |   |   |   |   |--- feature_466 <= 0.41176472604274749756
|   |   |   |   |   |   |   |   |   |   |--- feature_153 <= 0.29607844352722167969
|   |   |   |   |   |   |   |   |   |   |   |--- class: 5
|   |   |   |   |   |   |   |   |   |   |--- feature_153 >  0.29607844352722167969
|   |   |   |   |   |   |   |   |   |   |   |--- feature_381 <= 0.04705882444977760315
|   |   |   |   |   |   |   |   |   |   |   |   |--- class: 2
|   |   |   |   |   |   |   |   |   |   |   |--- feature_381 >  0.04705882444977760315
|   |   |   |   |   |   |   |   |   |   |   |   |--- class: 6
|   |   |   |   |   |   |   |   |   |--- feature_466 >  0.41176472604274749756
|   |   |   |   |   |   |   |   |   |   |--- class: 0
|   |   |   |   |   |   |   |   |--- feature_183 >  0.00392156885936856270
|   |   |   |   |   |   |   |   |   |--- class: 0
|   |   |   |   |   |--- feature_398 >  0.13529412448406219482
|   |   |   |   |   |   |--- feature_410 <= 0.00196078442968428135
|   |   |   |   |   |   |   |--- feature_348 <= 0.77450981736183166504
|   |   |   |   |   |   |   |   |--- feature_315 <= 0.07843137532472610474
|   |   |   |   |   |   |   |   |   |--- feature_302 <= 0.05490196123719215393
|   |   |   |   |   |   |   |   |   |   |--- feature_231 <= 0.24705882743000984192
|   |   |   |   |   |   |   |   |   |   |   |--- class: 5
|   |   |   |   |   |   |   |   |   |   |--- feature_231 >  0.24705882743000984192
|   |   |   |   |   |   |   |   |   |   |   |--- class: 0
|   |   |   |   |   |   |   |   |   |--- feature_302 >  0.05490196123719215393
|   |   |   |   |   |   |   |   |   |   |--- class: 0
|   |   |   |   |   |   |   |   |--- feature_315 >  0.07843137532472610474
|   |   |   |   |   |   |   |   |   |--- class: 0
|   |   |   |   |   |   |   |--- feature_348 >  0.77450981736183166504
|   |   |   |   |   |   |   |   |--- feature_325 <= 0.56274510920047760010
|   |   |   |   |   |   |   |   |   |--- feature_313 <= 0.39019608497619628906
|   |   |   |   |   |   |   |   |   |   |--- class: 0
|   |   |   |   |   |   |   |   |   |--- feature_313 >  0.39019608497619628906
|   |   |   |   |   |   |   |   |   |   |--- class: 9
|   |   |   |   |   |   |   |   |--- feature_325 >  0.56274510920047760010
|   |   |   |   |   |   |   |   |   |--- class: 5
|   |   |   |   |   |   |--- feature_410 >  0.00196078442968428135
|   |   |   |   |   |   |   |--- feature_427 <= 0.03921568789519369602
|   |   |   |   |   |   |   |   |--- feature_183 <= 0.45098040997982025146
|   |   |   |   |   |   |   |   |   |--- feature_353 <= 0.42549020797014236450
|   |   |   |   |   |   |   |   |   |   |--- feature_291 <= 0.07254902273416519165
|   |   |   |   |   |   |   |   |   |   |   |--- class: 4
|   |   |   |   |   |   |   |   |   |   |--- feature_291 >  0.07254902273416519165
|   |   |   |   |   |   |   |   |   |   |   |--- class: 9
|   |   |   |   |   |   |   |   |   |--- feature_353 >  0.42549020797014236450
|   |   |   |   |   |   |   |   |   |   |--- class: 3
|   |   |   |   |   |   |   |   |--- feature_183 >  0.45098040997982025146
|   |   |   |   |   |   |   |   |   |--- class: 5
|   |   |   |   |   |   |   |--- feature_427 >  0.03921568789519369602
|   |   |   |   |   |   |   |   |--- feature_326 <= 0.12549019977450370789
|   |   |   |   |   |   |   |   |   |--- feature_189 <= 0.17647059634327888489
|   |   |   |   |   |   |   |   |   |   |--- class: 6
|   |   |   |   |   |   |   |   |   |--- feature_189 >  0.17647059634327888489
|   |   |   |   |   |   |   |   |   |   |--- feature_187 <= 0.99803921580314636230
|   |   |   |   |   |   |   |   |   |   |   |--- class: 9
|   |   |   |   |   |   |   |   |   |   |--- feature_187 >  0.99803921580314636230
|   |   |   |   |   |   |   |   |   |   |   |--- class: 0
|   |   |   |   |   |   |   |   |--- feature_326 >  0.12549019977450370789
|   |   |   |   |   |   |   |   |   |--- class: 0
|   |   |   |   |--- feature_490 >  0.06470588594675064087
|   |   |   |   |   |--- feature_708 <= 0.00196078442968428135
|   |   |   |   |   |   |--- feature_321 <= 0.12352941557765007019
|   |   |   |   |   |   |   |--- feature_398 <= 0.09019608050584793091
|   |   |   |   |   |   |   |   |--- feature_514 <= 0.09607843309640884399
|   |   |   |   |   |   |   |   |   |--- feature_604 <= 0.04117647185921669006
|   |   |   |   |   |   |   |   |   |   |--- feature_681 <= 0.01176470611244440079
|   |   |   |   |   |   |   |   |   |   |   |--- feature_651 <= 0.51372550427913665771
|   |   |   |   |   |   |   |   |   |   |   |   |--- feature_597 <= 0.18823529779911041260
|   |   |   |   |   |   |   |   |   |   |   |   |   |--- feature_624 <= 0.03333333507180213928
|   |   |   |   |   |   |   |   |   |   |   |   |   |   |--- class: 7
|   |   |   |   |   |   |   |   |   |   |   |   |   |--- feature_624 >  0.03333333507180213928
|   |   |   |   |   |   |   |   |   |   |   |   |   |   |--- class: 1
|   |   |   |   |   |   |   |   |   |   |   |   |--- feature_597 >  0.18823529779911041260
|   |   |   |   |   |   |   |   |   |   |   |   |   |--- feature_594 <= 0.96862745285034179688
|   |   |   |   |   |   |   |   |   |   |   |   |   |   |--- class: 2
|   |   |   |   |   |   |   |   |   |   |   |   |   |--- feature_594 >  0.96862745285034179688
|   |   |   |   |   |   |   |   |   |   |   |   |   |   |--- class: 3
|   |   |   |   |   |   |   |   |   |   |   |--- feature_651 >  0.51372550427913665771
|   |   |   |   |   |   |   |   |   |   |   |   |--- class: 7
|   |   |   |   |   |   |   |   |   |   |--- feature_681 >  0.01176470611244440079
|   |   |   |   |   |   |   |   |   |   |   |--- feature_545 <= 0.69019609689712524414
|   |   |   |   |   |   |   |   |   |   |   |   |--- class: 9
|   |   |   |   |   |   |   |   |   |   |   |--- feature_545 >  0.69019609689712524414
|   |   |   |   |   |   |   |   |   |   |   |   |--- class: 7
|   |   |   |   |   |   |   |   |   |--- feature_604 >  0.04117647185921669006
|   |   |   |   |   |   |   |   |   |   |--- feature_544 <= 0.06666666734963655472
|   |   |   |   |   |   |   |   |   |   |   |--- feature_652 <= 0.80784314870834350586
|   |   |   |   |   |   |   |   |   |   |   |   |--- feature_685 <= 0.43725490570068359375
|   |   |   |   |   |   |   |   |   |   |   |   |   |--- class: 1
|   |   |   |   |   |   |   |   |   |   |   |   |--- feature_685 >  0.43725490570068359375
|   |   |   |   |   |   |   |   |   |   |   |   |   |--- class: 7
|   |   |   |   |   |   |   |   |   |   |   |--- feature_652 >  0.80784314870834350586
|   |   |   |   |   |   |   |   |   |   |   |   |--- class: 2
|   |   |   |   |   |   |   |   |   |   |--- feature_544 >  0.06666666734963655472
|   |   |   |   |   |   |   |   |   |   |   |--- feature_104 <= 0.39411765336990356445
|   |   |   |   |   |   |   |   |   |   |   |   |--- feature_745 <= 0.17843137681484222412
|   |   |   |   |   |   |   |   |   |   |   |   |   |--- class: 2
|   |   |   |   |   |   |   |   |   |   |   |   |--- feature_745 >  0.17843137681484222412
|   |   |   |   |   |   |   |   |   |   |   |   |   |--- class: 7
|   |   |   |   |   |   |   |   |   |   |   |--- feature_104 >  0.39411765336990356445
|   |   |   |   |   |   |   |   |   |   |   |   |--- class: 1
|   |   |   |   |   |   |   |   |--- feature_514 >  0.09607843309640884399
|   |   |   |   |   |   |   |   |   |--- feature_430 <= 0.88235294818878173828
|   |   |   |   |   |   |   |   |   |   |--- feature_267 <= 0.93333333730697631836
|   |   |   |   |   |   |   |   |   |   |   |--- class: 2
|   |   |   |   |   |   |   |   |   |   |--- feature_267 >  0.93333333730697631836
|   |   |   |   |   |   |   |   |   |   |   |--- feature_96 <= 0.72352942824363708496
|   |   |   |   |   |   |   |   |   |   |   |   |--- feature_270 <= 0.99411764740943908691
|   |   |   |   |   |   |   |   |   |   |   |   |   |--- class: 2
|   |   |   |   |   |   |   |   |   |   |   |   |--- feature_270 >  0.99411764740943908691
|   |   |   |   |   |   |   |   |   |   |   |   |   |--- class: 7
|   |   |   |   |   |   |   |   |   |   |   |--- feature_96 >  0.72352942824363708496
|   |   |   |   |   |   |   |   |   |   |   |   |--- class: 3
|   |   |   |   |   |   |   |   |   |--- feature_430 >  0.88235294818878173828
|   |   |   |   |   |   |   |   |   |   |--- feature_290 <= 0.45098040252923965454
|   |   |   |   |   |   |   |   |   |   |   |--- class: 6
|   |   |   |   |   |   |   |   |   |   |--- feature_290 >  0.45098040252923965454
|   |   |   |   |   |   |   |   |   |   |   |--- class: 4
|   |   |   |   |   |   |   |--- feature_398 >  0.09019608050584793091
|   |   |   |   |   |   |   |   |--- feature_214 <= 0.18627451360225677490
|   |   |   |   |   |   |   |   |   |--- class: 6
|   |   |   |   |   |   |   |   |--- feature_214 >  0.18627451360225677490
|   |   |   |   |   |   |   |   |   |--- feature_344 <= 0.02156862802803516388
|   |   |   |   |   |   |   |   |   |   |--- class: 2
|   |   |   |   |   |   |   |   |   |--- feature_344 >  0.02156862802803516388
|   |   |   |   |   |   |   |   |   |   |--- feature_608 <= 0.49411766231060028076
|   |   |   |   |   |   |   |   |   |   |   |--- feature_325 <= 0.99411764740943908691
|   |   |   |   |   |   |   |   |   |   |   |   |--- class: 0
|   |   |   |   |   |   |   |   |   |   |   |--- feature_325 >  0.99411764740943908691
|   |   |   |   |   |   |   |   |   |   |   |   |--- class: 1
|   |   |   |   |   |   |   |   |   |   |--- feature_608 >  0.49411766231060028076
|   |   |   |   |   |   |   |   |   |   |   |--- class: 9
|   |   |   |   |   |   |--- feature_321 >  0.12352941557765007019
|   |   |   |   |   |   |   |--- feature_431 <= 0.28235295414924621582
|   |   |   |   |   |   |   |   |--- feature_463 <= 0.62156865000724792480
|   |   |   |   |   |   |   |   |   |--- feature_352 <= 0.00784313771873712540
|   |   |   |   |   |   |   |   |   |   |--- feature_600 <= 0.98627451062202453613
|   |   |   |   |   |   |   |   |   |   |   |--- feature_543 <= 0.73921570181846618652
|   |   |   |   |   |   |   |   |   |   |   |   |--- class: 5
|   |   |   |   |   |   |   |   |   |   |   |--- feature_543 >  0.73921570181846618652
|   |   |   |   |   |   |   |   |   |   |   |   |--- class: 0
|   |   |   |   |   |   |   |   |   |   |--- feature_600 >  0.98627451062202453613
|   |   |   |   |   |   |   |   |   |   |   |--- class: 2
|   |   |   |   |   |   |   |   |   |--- feature_352 >  0.00784313771873712540
|   |   |   |   |   |   |   |   |   |   |--- feature_356 <= 0.66666668653488159180
|   |   |   |   |   |   |   |   |   |   |   |--- feature_486 <= 0.81960785388946533203
|   |   |   |   |   |   |   |   |   |   |   |   |--- class: 5
|   |   |   |   |   |   |   |   |   |   |   |--- feature_486 >  0.81960785388946533203
|   |   |   |   |   |   |   |   |   |   |   |   |--- class: 3
|   |   |   |   |   |   |   |   |   |   |--- feature_356 >  0.66666668653488159180
|   |   |   |   |   |   |   |   |   |   |   |--- class: 3
|   |   |   |   |   |   |   |   |--- feature_463 >  0.62156865000724792480
|   |   |   |   |   |   |   |   |   |--- feature_158 <= 0.04313725605607032776
|   |   |   |   |   |   |   |   |   |   |--- feature_354 <= 0.01176470611244440079
|   |   |   |   |   |   |   |   |   |   |   |--- feature_495 <= 0.12745098769664764404
|   |   |   |   |   |   |   |   |   |   |   |   |--- class: 3
|   |   |   |   |   |   |   |   |   |   |   |--- feature_495 >  0.12745098769664764404
|   |   |   |   |   |   |   |   |   |   |   |   |--- class: 0
|   |   |   |   |   |   |   |   |   |   |--- feature_354 >  0.01176470611244440079
|   |   |   |   |   |   |   |   |   |   |   |--- class: 7
|   |   |   |   |   |   |   |   |   |--- feature_158 >  0.04313725605607032776
|   |   |   |   |   |   |   |   |   |   |--- feature_572 <= 0.89215686917304992676
|   |   |   |   |   |   |   |   |   |   |   |--- class: 1
|   |   |   |   |   |   |   |   |   |   |--- feature_572 >  0.89215686917304992676
|   |   |   |   |   |   |   |   |   |   |   |--- class: 2
|   |   |   |   |   |   |   |--- feature_431 >  0.28235295414924621582
|   |   |   |   |   |   |   |   |--- feature_298 <= 0.02156862802803516388
|   |   |   |   |   |   |   |   |   |--- feature_654 <= 0.08627451211214065552
|   |   |   |   |   |   |   |   |   |   |--- class: 6
|   |   |   |   |   |   |   |   |   |--- feature_654 >  0.08627451211214065552
|   |   |   |   |   |   |   |   |   |   |--- feature_516 <= 0.14901961479336023331
|   |   |   |   |   |   |   |   |   |   |   |--- class: 0
|   |   |   |   |   |   |   |   |   |   |--- feature_516 >  0.14901961479336023331
|   |   |   |   |   |   |   |   |   |   |   |--- feature_569 <= 0.37843137979507446289
|   |   |   |   |   |   |   |   |   |   |   |   |--- class: 5
|   |   |   |   |   |   |   |   |   |   |   |--- feature_569 >  0.37843137979507446289
|   |   |   |   |   |   |   |   |   |   |   |   |--- class: 6
|   |   |   |   |   |   |   |   |--- feature_298 >  0.02156862802803516388
|   |   |   |   |   |   |   |   |   |--- feature_212 <= 0.39607844129204750061
|   |   |   |   |   |   |   |   |   |   |--- feature_438 <= 0.19607843458652496338
|   |   |   |   |   |   |   |   |   |   |   |--- class: 5
|   |   |   |   |   |   |   |   |   |   |--- feature_438 >  0.19607843458652496338
|   |   |   |   |   |   |   |   |   |   |   |--- feature_375 <= 0.98823529481887817383
|   |   |   |   |   |   |   |   |   |   |   |   |--- class: 4
|   |   |   |   |   |   |   |   |   |   |   |--- feature_375 >  0.98823529481887817383
|   |   |   |   |   |   |   |   |   |   |   |   |--- class: 9
|   |   |   |   |   |   |   |   |   |--- feature_212 >  0.39607844129204750061
|   |   |   |   |   |   |   |   |   |   |--- class: 0
|   |   |   |   |   |--- feature_708 >  0.00196078442968428135
|   |   |   |   |   |   |--- feature_185 <= 0.99411764740943908691
|   |   |   |   |   |   |   |--- class: 7
|   |   |   |   |   |   |--- feature_185 >  0.99411764740943908691
|   |   |   |   |   |   |   |--- feature_354 <= 0.72745099663734436035
|   |   |   |   |   |   |   |   |--- feature_265 <= 0.49803921580314636230
|   |   |   |   |   |   |   |   |   |--- class: 2
|   |   |   |   |   |   |   |   |--- feature_265 >  0.49803921580314636230
|   |   |   |   |   |   |   |   |   |--- class: 9
|   |   |   |   |   |   |   |--- feature_354 >  0.72745099663734436035
|   |   |   |   |   |   |   |   |--- class: 7
|   |   |   |--- feature_428 >  0.00196078442968428135
|   |   |   |   |--- feature_243 <= 0.00196078442968428135
|   |   |   |   |   |--- feature_463 <= 0.09019608050584793091
|   |   |   |   |   |   |--- feature_323 <= 0.31960785388946533203
|   |   |   |   |   |   |   |--- feature_654 <= 0.00196078442968428135
|   |   |   |   |   |   |   |   |--- feature_400 <= 0.05490196123719215393
|   |   |   |   |   |   |   |   |   |--- feature_153 <= 0.07647059112787246704
|   |   |   |   |   |   |   |   |   |   |--- feature_270 <= 0.02156862802803516388
|   |   |   |   |   |   |   |   |   |   |   |--- feature_331 <= 0.25098040699958801270
|   |   |   |   |   |   |   |   |   |   |   |   |--- class: 6
|   |   |   |   |   |   |   |   |   |   |   |--- feature_331 >  0.25098040699958801270
|   |   |   |   |   |   |   |   |   |   |   |   |--- class: 2
|   |   |   |   |   |   |   |   |   |   |--- feature_270 >  0.02156862802803516388
|   |   |   |   |   |   |   |   |   |   |   |--- class: 0
|   |   |   |   |   |   |   |   |   |--- feature_153 >  0.07647059112787246704
|   |   |   |   |   |   |   |   |   |   |--- class: 2
|   |   |   |   |   |   |   |   |--- feature_400 >  0.05490196123719215393
|   |   |   |   |   |   |   |   |   |--- feature_274 <= 0.02941176481544971466
|   |   |   |   |   |   |   |   |   |   |--- feature_297 <= 0.04117647185921669006
|   |   |   |   |   |   |   |   |   |   |   |--- feature_516 <= 0.88039216399192810059
|   |   |   |   |   |   |   |   |   |   |   |   |--- feature_272 <= 0.52745099365711212158
|   |   |   |   |   |   |   |   |   |   |   |   |   |--- feature_275 <= 0.29215687559917569160
|   |   |   |   |   |   |   |   |   |   |   |   |   |   |--- feature_521 <= 0.00980392191559076309
|   |   |   |   |   |   |   |   |   |   |   |   |   |   |   |--- feature_525 <= 0.61960785090923309326
|   |   |   |   |   |   |   |   |   |   |   |   |   |   |   |   |--- class: 0
|   |   |   |   |   |   |   |   |   |   |   |   |   |   |   |--- feature_525 >  0.61960785090923309326
|   |   |   |   |   |   |   |   |   |   |   |   |   |   |   |   |--- class: 6
|   |   |   |   |   |   |   |   |   |   |   |   |   |   |--- feature_521 >  0.00980392191559076309
|   |   |   |   |   |   |   |   |   |   |   |   |   |   |   |--- class: 6
|   |   |   |   |   |   |   |   |   |   |   |   |   |--- feature_275 >  0.29215687559917569160
|   |   |   |   |   |   |   |   |   |   |   |   |   |   |--- class: 0
|   |   |   |   |   |   |   |   |   |   |   |   |--- feature_272 >  0.52745099365711212158
|   |   |   |   |   |   |   |   |   |   |   |   |   |--- class: 0
|   |   |   |   |   |   |   |   |   |   |   |--- feature_516 >  0.88039216399192810059
|   |   |   |   |   |   |   |   |   |   |   |   |--- class: 2
|   |   |   |   |   |   |   |   |   |   |--- feature_297 >  0.04117647185921669006
|   |   |   |   |   |   |   |   |   |   |   |--- feature_293 <= 0.58039218187332153320
|   |   |   |   |   |   |   |   |   |   |   |   |--- feature_437 <= 0.99411764740943908691
|   |   |   |   |   |   |   |   |   |   |   |   |   |--- class: 0
|   |   |   |   |   |   |   |   |   |   |   |   |--- feature_437 >  0.99411764740943908691
|   |   |   |   |   |   |   |   |   |   |   |   |   |--- class: 9
|   |   |   |   |   |   |   |   |   |   |   |--- feature_293 >  0.58039218187332153320
|   |   |   |   |   |   |   |   |   |   |   |   |--- feature_519 <= 0.03137255087494850159
|   |   |   |   |   |   |   |   |   |   |   |   |   |--- feature_599 <= 0.90196079015731811523
|   |   |   |   |   |   |   |   |   |   |   |   |   |   |--- class: 3
|   |   |   |   |   |   |   |   |   |   |   |   |   |--- feature_599 >  0.90196079015731811523
|   |   |   |   |   |   |   |   |   |   |   |   |   |   |--- class: 6
|   |   |   |   |   |   |   |   |   |   |   |   |--- feature_519 >  0.03137255087494850159
|   |   |   |   |   |   |   |   |   |   |   |   |   |--- class: 0
|   |   |   |   |   |   |   |   |   |--- feature_274 >  0.02941176481544971466
|   |   |   |   |   |   |   |   |   |   |--- feature_582 <= 0.82549020648002624512
|   |   |   |   |   |   |   |   |   |   |   |--- feature_660 <= 0.99411764740943908691
|   |   |   |   |   |   |   |   |   |   |   |   |--- class: 0
|   |   |   |   |   |   |   |   |   |   |   |--- feature_660 >  0.99411764740943908691
|   |   |   |   |   |   |   |   |   |   |   |   |--- class: 9
|   |   |   |   |   |   |   |   |   |   |--- feature_582 >  0.82549020648002624512
|   |   |   |   |   |   |   |   |   |   |   |--- class: 4
|   |   |   |   |   |   |   |--- feature_654 >  0.00196078442968428135
|   |   |   |   |   |   |   |   |--- feature_455 <= 0.22941176593303680420
|   |   |   |   |   |   |   |   |   |--- feature_512 <= 0.00784313771873712540
|   |   |   |   |   |   |   |   |   |   |--- feature_249 <= 0.04117647185921669006
|   |   |   |   |   |   |   |   |   |   |   |--- class: 5
