|--- feature_461 <= 0.50000000000000000000
|   |--- feature_378 <= 3.50000000000000000000
|   |   |--- feature_597 <= 0.50000000000000000000
|   |   |   |--- feature_514 <= 5.50000000000000000000
|   |   |   |   |--- feature_623 <= 3.00000000000000000000
|   |   |   |   |   |--- feature_432 <= 5.50000000000000000000
|   |   |   |   |   |   |--- feature_153 <= 11.50000000000000000000
|   |   |   |   |   |   |   |--- feature_570 <= 75.00000000000000000000
|   |   |   |   |   |   |   |   |--- feature_349 <= 49.50000000000000000000
|   |   |   |   |   |   |   |   |   |--- feature_487 <= 12.50000000000000000000
|   |   |   |   |   |   |   |   |   |   |--- feature_270 <= 95.50000000000000000000
|   |   |   |   |   |   |   |   |   |   |   |--- feature_582 <= 21.00000000000000000000
|   |   |   |   |   |   |   |   |   |   |   |   |--- feature_183 <= 22.00000000000000000000
|   |   |   |   |   |   |   |   |   |   |   |   |   |--- feature_347 <= 96.00000000000000000000
|   |   |   |   |   |   |   |   |   |   |   |   |   |   |--- feature_261 <= 72.50000000000000000000
|   |   |   |   |   |   |   |   |   |   |   |   |   |   |   |--- feature_608 <= 109.00000000000000000000
|   |   |   |   |   |   |   |   |   |   |   |   |   |   |   |   |--- feature_499 <= 18.00000000000000000000
|   |   |   |   |   |   |   |   |   |   |   |   |   |   |   |   |   |--- feature_291 <= 252.50000000000000000000
|   |   |   |   |   |   |   |   |   |   |   |   |   |   |   |   |   |   |--- class: 7
|   |   |   |   |   |   |   |   |   |   |   |   |   |   |   |   |   |--- feature_291 >  252.50000000000000000000
|   |   |   |   |   |   |   |   |   |   |   |   |   |   |   |   |   |   |--- feature_317 <= 83.50000000000000000000
|   |   |   |   |   |   |   |   |   |   |   |   |   |   |   |   |   |   |   |--- class: 9
|   |   |   |   |   |   |   |   |   |   |   |   |   |   |   |   |   |   |--- feature_317 >  83.50000000000000000000
|   |   |   |   |   |   |   |   |   |   |   |   |   |   |   |   |   |   |   |--- class: 7
|   |   |   |   |   |   |   |   |   |   |   |   |   |   |   |   |--- feature_499 >  18.00000000000000000000
|   |   |   |   |   |   |   |   |   |   |   |   |   |   |   |   |   |--- class: 2
|   |   |   |   |   |   |   |   |   |   |   |   |   |   |   |--- feature_608 >  109.00000000000000000000
|   |   |   |   |   |   |   |   |   |   |   |   |   |   |   |   |--- feature_232 <= 7.00000000000000000000
|   |   |   |   |   |   |   |   |   |   |   |   |   |   |   |   |   |--- class: 2
|   |   |   |   |   |   |   |   |   |   |   |   |   |   |   |   |--- feature_232 >  7.00000000000000000000
|   |   |   |   |   |   |   |   |   |   |   |   |   |   |   |   |   |--- class: 9
|   |   |   |   |   |   |   |   |   |   |   |   |   |   |--- feature_261 >  72.50000000000000000000
|   |   |   |   |   |   |   |   |   |   |   |   |   |   |   |--- class: 7
|   |   |   |   |   |   |   |   |   |   |   |   |   |--- feature_347 >  96.00000000000000000000
|   |   |   |   |   |   |   |   |   |   |   |   |   |   |--- feature_264 <= 5.50000000000000000000
|   |   |   |   |   |   |   |   |   |   |   |   |   |   |   |--- feature_406 <= 20.00000000000000000000
|   |   |   |   |   |   |   |   |   |   |   |   |   |   |   |   |--- class: 9
|   |   |   |   |   |   |   |   |   |   |   |   |   |   |   |--- feature_406 >  20.00000000000000000000
|   |   |   |   |   |   |   |   |   |   |   |   |   |   |   |   |--- class: 4
|   |   |   |   |   |   |   |   |   |   |   |   |   |   |--- feature_264 >  5.50000000000000000000
|   |   |   |   |   |   |   |   |   |   |   |   |   |   |   |--- feature_537 <= 22.00000000000000000000
|   |   |   |   |   |   |   |   |   |   |   |   |   |   |   |   |--- feature_407 <= 219.00000000000000000000
|   |   |   |   |   |   |   |   |   |   |   |   |   |   |   |   |   |--- class: 7
|   |   |   |   |   |   |   |   |   |   |   |   |   |   |   |   |--- feature_407 >  219.00000000000000000000
|   |   |   |   |   |   |   |   |   |   |   |   |   |   |   |   |   |--- feature_660 <= 14.50000000000000000000
|   |   |   |   |   |   |   |   |   |   |   |   |   |   |   |   |   |   |--- class: 7
|   |   |   |   |   |   |   |   |   |   |   |   |   |   |   |   |   |--- feature_660 >  14.50000000000000000000
|   |   |   |   |   |   |   |   |   |   |   |   |   |   |   |   |   |   |--- class: 9
|   |   |   |   |   |   |   |   |   |   |   |   |   |   |   |--- feature_537 >  22.00000000000000000000
|   |   |   |   |   |   |   |   |   |   |   |   |   |   |   |   |--- feature_573 <= 2.50000000000000000000
|   |   |   |   |   |   |   |   |   |   |   |   |   |   |   |   |   |--- class: 0
|   |   |   |   |   |   |   |   |   |   |   |   |   |   |   |   |--- feature_573 >  2.50000000000000000000
|   |   |   |   |   |   |   |   |   |   |   |   |   |   |   |   |   |--- feature_402 <= 89.00000000000000000000
|   |   |   |   |   |   |   |   |   |   |   |   |   |   |   |   |   |   |--- class: 7
|   |   |   |   |   |   |   |   |   |   |   |   |   |   |   |   |   |--- feature_402 >  89.00000000000000000000
|   |   |   |   |   |   |   |   |   |   |   |   |   |   |   |   |   |   |--- class: 4
|   |   |   |   |   |   |   |   |   |   |   |   |--- feature_183 >  22.00000000000000000000
|   |   |   |   |   |   |   |   |   |   |   |   |   |--- feature_519 <= 137.50000000000000000000
|   |   |   |   |   |   |   |   |   |   |   |   |   |   |--- feature_709 <= 10.00000000000000000000
|   |   |   |   |   |   |   |   |   |   |   |   |   |   |   |--- feature_184 <= 0.50000000000000000000
|   |   |   |   |   |   |   |   |   |   |   |   |   |   |   |   |--- class: 4
|   |   |   |   |   |   |   |   |   |   |   |   |   |   |   |--- feature_184 >  0.50000000000000000000
|   |   |   |   |   |   |   |   |   |   |   |   |   |   |   |   |--- class: 7
|   |   |   |   |   |   |   |   |   |   |   |   |   |   |--- feature_709 >  10.00000000000000000000
|   |   |   |   |   |   |   |   |   |   |   |   |   |   |   |--- class: 3
|   |   |   |   |   |   |   |   |   |   |   |   |   |--- feature_519 >  137.50000000000000000000
|   |   |   |   |   |   |   |   |   |   |   |   |   |   |--- feature_689 <= 1.50000000000000000000
|   |   |   |   |   |   |   |   |   |   |   |   |   |   |   |--- feature_208 <= 5.50000000000000000000
|   |   |   |   |   |   |   |   |   |   |   |   |   |   |   |   |--- feature_380 <= 148.00000000000000000000
|   |   |   |   |   |   |   |   |   |   |   |   |   |   |   |   |   |--- class: 7
|   |   |   |   |   |   |   |   |   |   |   |   |   |   |   |   |--- feature_380 >  148.00000000000000000000
|   |   |   |   |   |   |   |   |   |   |   |   |   |   |   |   |   |--- class: 1
|   |   |   |   |   |   |   |   |   |   |   |   |   |   |   |--- feature_208 >  5.50000000000000000000
|   |   |   |   |   |   |   |   |   |   |   |   |   |   |   |   |--- class: 7
|   |   |   |   |   |   |   |   |   |   |   |   |   |   |--- feature_689 >  1.50000000000000000000
|   |   |   |   |   |   |   |   |   |   |   |   |   |   |   |--- feature_716 <= 162.50000000000000000000
|   |   |   |   |   |   |   |   |   |   |   |   |   |   |   |   |--- feature_688 <= 228.50000000000000000000
|   |   |   |   |   |   |   |   |   |   |   |   |   |   |   |   |   |--- class: 9
|   |   |   |   |   |   |   |   |   |   |   |   |   |   |   |   |--- feature_688 >  228.50000000000000000000
|   |   |   |   |   |   |   |   |   |   |   |   |   |   |   |   |   |--- class: 7
|   |   |   |   |   |   |   |   |   |   |   |   |   |   |   |--- feature_716 >  162.50000000000000000000
|   |   |   |   |   |   |   |   |   |   |   |   |   |   |   |   |--- class: 2
|   |   |   |   |   |   |   |   |   |   |   |--- feature_582 >  21.00000000000000000000
|   |   |   |   |   |   |   |   |   |   |   |   |--- class: 2
|   |   |   |   |   |   |   |   |   |   |--- feature_270 >  95.50000000000000000000
|   |   |   |   |   |   |   |   |   |   |   |--- feature_678 <= 97.00000000000000000000
|   |   |   |   |   |   |   |   |   |   |   |   |--- feature_267 <= 9.50000000000000000000
|   |   |   |   |   |   |   |   |   |   |   |   |   |--- feature_691 <= 89.00000000000000000000
|   |   |   |   |   |   |   |   |   |   |   |   |   |   |--- feature_228 <= 174.50000000000000000000
|   |   |   |   |   |   |   |   |   |   |   |   |   |   |   |--- class: 7
|   |   |   |   |   |   |   |   |   |   |   |   |   |   |--- feature_228 >  174.50000000000000000000
|   |   |   |   |   |   |   |   |   |   |   |   |   |   |   |--- feature_435 <= 29.00000000000000000000
|   |   |   |   |   |   |   |   |   |   |   |   |   |   |   |   |--- class: 7
|   |   |   |   |   |   |   |   |   |   |   |   |   |   |   |--- feature_435 >  29.00000000000000000000
|   |   |   |   |   |   |   |   |   |   |   |   |   |   |   |   |--- feature_236 <= 35.50000000000000000000
|   |   |   |   |   |   |   |   |   |   |   |   |   |   |   |   |   |--- class: 1
|   |   |   |   |   |   |   |   |   |   |   |   |   |   |   |   |--- feature_236 >  35.50000000000000000000
|   |   |   |   |   |   |   |   |   |   |   |   |   |   |   |   |   |--- class: 3
|   |   |   |   |   |   |   |   |   |   |   |   |   |--- feature_691 >  89.00000000000000000000
|   |   |   |   |   |   |   |   |   |   |   |   |   |   |--- feature_260 <= 119.00000000000000000000
|   |   |   |   |   |   |   |   |   |   |   |   |   |   |   |--- class: 2
|   |   |   |   |   |   |   |   |   |   |   |   |   |   |--- feature_260 >  119.00000000000000000000
|   |   |   |   |   |   |   |   |   |   |   |   |   |   |   |--- feature_634 <= 124.00000000000000000000
|   |   |   |   |   |   |   |   |   |   |   |   |   |   |   |   |--- class: 7
|   |   |   |   |   |   |   |   |   |   |   |   |   |   |   |--- feature_634 >  124.00000000000000000000
|   |   |   |   |   |   |   |   |   |   |   |   |   |   |   |   |--- class: 4
|   |   |   |   |   |   |   |   |   |   |   |   |--- feature_267 >  9.50000000000000000000
|   |   |   |   |   |   |   |   |   |   |   |   |   |--- feature_351 <= 145.50000000000000000000
|   |   |   |   |   |   |   |   |   |   |   |   |   |   |--- class: 7
|   |   |   |   |   |   |   |   |   |   |   |   |   |--- feature_351 >  145.50000000000000000000
|   |   |   |   |   |   |   |   |   |   |   |   |   |   |--- feature_627 <= 210.50000000000000000000
|   |   |   |   |   |   |   |   |   |   |   |   |   |   |   |--- class: 7
|   |   |   |   |   |   |   |   |   |   |   |   |   |   |--- feature_627 >  210.50000000000000000000
|   |   |   |   |   |   |   |   |   |   |   |   |   |   |   |--- class: 3
|   |   |   |   |   |   |   |   |   |   |   |--- feature_678 >  97.00000000000000000000
|   |   |   |   |   |   |   |   |   |   |   |   |--- feature_208 <= 46.50000000000000000000
|   |   |   |   |   |   |   |   |   |   |   |   |   |--- class: 0
|   |   |   |   |   |   |   |   |   |   |   |   |--- feature_208 >  46.50000000000000000000
|   |   |   |   |   |   |   |   |   |   |   |   |   |--- class: 9
|   |   |   |   |   |   |   |   |   |--- feature_487 >  12.50000000000000000000
|   |   |   |   |   |   |   |   |   |   |--- feature_546 <= 78.00000000000000000000
|   |   |   |   |   |   |   |   |   |   |   |--- feature_715 <= 238.00000000000000000000
|   |   |   |   |   |   |   |   |   |   |   |   |--- class: 9
|   |   |   |   |   |   |   |   |   |   |   |--- feature_715 >  238.00000000000000000000
|   |   |   |   |   |   |   |   |   |   |   |   |--- class: 7
|   |   |   |   |   |   |   |   |   |   |--- feature_546 >  78.00000000000000000000
|   |   |   |   |   |   |   |   |   |   |   |--- feature_260 <= 49.00000000000000000000
|   |   |   |   |   |   |   |   |   |   |   |   |--- feature_243 <= 54.50000000000000000000
|   |   |   |   |   |   |   |   |   |   |   |   |   |--- feature_468 <= 37.50000000000000000000
|   |   |   |   |   |   |   |   |   |   |   |   |   |   |--- class: 4
|   |   |   |   |   |   |   |   |   |   |   |   |   |--- feature_468 >  37.50000000000000000000
|   |   |   |   |   |   |   |   |   |   |   |   |   |   |--- class: 6
|   |   |   |   |   |   |   |   |   |   |   |   |--- feature_243 >  54.50000000000000000000
|   |   |   |   |   |   |   |   |   |   |   |   |   |--- class: 5
|   |   |   |   |   |   |   |   |   |   |   |--- feature_260 >  49.00000000000000000000
|   |   |   |   |   |   |   |   |   |   |   |   |--- class: 7
|   |   |   |   |   |   |   |   |--- feature_349 >  49.50000000000000000000
|   |   |   |   |   |   |   |   |   |--- feature_293 <= 170.50000000000000000000
|   |   |   |   |   |   |   |   |   |   |--- feature_210 <= 76.00000000000000000000
|   |   |   |   |   |   |   |   |   |   |   |--- feature_436 <= 219.50000000000000000000
|   |   |   |   |   |   |   |   |   |   |   |   |--- feature_266 <= 27.50000000000000000000
|   |   |   |   |   |   |   |   |   |   |   |   |   |--- class: 7
|   |   |   |   |   |   |   |   |   |   |   |   |--- feature_266 >  27.50000000000000000000
|   |   |   |   |   |   |   |   |   |   |   |   |   |--- feature_688 <= 69.50000000000000000000
|   |   |   |   |   |   |   |   |   |   |   |   |   |   |--- feature_383 <= 95.00000000000000000000
|   |   |   |   |   |   |   |   |   |   |   |   |   |   |   |--- class: 5
|   |   |   |   |   |   |   |   |   |   |   |   |   |   |--- feature_383 >  95.00000000000000000000
|   |   |   |   |   |   |   |   |   |   |   |   |   |   |   |--- class: 7
|   |   |   |   |   |   |   |   |   |   |   |   |   |--- feature_688 >  69.50000000000000000000
|   |   |   |   |   |   |   |   |   |   |   |   |   |   |--- class: 4
|   |   |   |   |   |   |   |   |   |   |   |--- feature_436 >  219.50000000000000000000
|   |   |   |   |   |   |   |   |   |   |   |   |--- feature_325 <= 254.50000000000000000000
|   |   |   |   |   |   |   |   |   |   |   |   |   |--- feature_263 <= 199.50000000000000000000
|   |   |   |   |   |   |   |   |   |   |   |   |   |   |--- class: 4
|   |   |   |   |   |   |   |   |   |   |   |   |   |--- feature_263 >  199.50000000000000000000
|   |   |   |   |   |   |   |   |   |   |   |   |   |   |--- class: 9
|   |   |   |   |   |   |   |   |   |   |   |   |--- feature_325 >  254.50000000000000000000
|   |   |   |   |   |   |   |   |   |   |   |   |   |--- class: 7
|   |   |   |   |   |   |   |   |   |   |--- feature_210 >  76.00000000000000000000
|   |   |   |   |   |   |   |   |   |   |   |--- feature_464 <= 8.50000000000000000000
|   |   |   |   |   |   |   |   |   |   |   |   |--- feature_297 <= 146.50000000000000000000
|   |   |   |   |   |   |   |   |   |   |   |   |   |--- class: 5
|   |   |   |   |   |   |   |   |   |   |   |   |--- feature_297 >  146.50000000000000000000
|   |   |   |   |   |   |   |   |   |   |   |   |   |--- class: 9
|   |   |   |   |   |   |   |   |   |   |   |--- feature_464 >  8.50000000000000000000
|   |   |   |   |   |   |   |   |   |   |   |   |--- feature_653 <= 108.50000000000000000000
|   |   |   |   |   |   |   |   |   |   |   |   |   |--- class: 9
|   |   |   |   |   |   |   |   |   |   |   |   |--- feature_653 >  108.50000000000000000000
|   |   |   |   |   |   |   |   |   |   |   |   |   |--- class: 7
|   |   |   |   |   |   |   |   |   |--- feature_293 >  170.50000000000000000000
|   |   |   |   |   |   |   |   |   |   |--- feature_184 <= 79.50000000000000000000
|   |   |   |   |   |   |   |   |   |   |   |--- feature_291 <= 10.50000000000000000000
|   |   |   |   |   |   |   |   |   |   |   |   |--- feature_659 <= 24.00000000000000000000
|   |   |   |   |   |   |   |   |   |   |   |   |   |--- class: 7
|   |   |   |   |   |   |   |   |   |   |   |   |--- feature_659 >  24.00000000000000000000
|   |   |   |   |   |   |   |   |   |   |   |   |   |--- feature_607 <= 31.50000000000000000000
|   |   |   |   |   |   |   |   |   |   |   |   |   |   |--- class: 1
|   |   |   |   |   |   |   |   |   |   |   |   |   |--- feature_607 >  31.50000000000000000000
|   |   |   |   |   |   |   |   |   |   |   |   |   |   |--- class: 9
|   |   |   |   |   |   |   |   |   |   |   |--- feature_291 >  10.50000000000000000000
|   |   |   |   |   |   |   |   |   |   |   |   |--- class: 7
|   |   |   |   |   |   |   |   |   |   |--- feature_184 >  79.50000000000000000000
|   |   |   |   |   |   |   |   |   |   |   |--- feature_351 <= 98.00000000000000000000
|   |   |   |   |   |   |   |   |   |   |   |   |--- feature_187 <= 23.00000000000000000000
|   |   |   |   |   |   |   |   |   |   |   |   |   |--- class: 7
|   |   |   |   |   |   |   |   |   |   |   |   |--- feature_187 >  23.00000000000000000000
|   |   |   |   |   |   |   |   |   |   |   |   |   |--- class: 5
|   |   |   |   |   |   |   |   |   |   |   |--- feature_351 >  98.00000000000000000000
|   |   |   |   |   |   |   |   |   |   |   |   |--- feature_267 <= 227.00000000000000000000
|   |   |   |   |   |   |   |   |   |   |   |   |   |--- class: 9
|   |   |   |   |   |   |   |   |   |   |   |   |--- feature_267 >  227.00000000000000000000
|   |   |   |   |   |   |   |   |   |   |   |   |   |--- class: 1
|   |   |   |   |   |   |   |--- feature_570 >  75.00000000000000000000
|   |   |   |   |   |   |   |   |--- feature_510 <= 39.50000000000000000000
|   |   |   |   |   |   |   |   |   |--- feature_320 <= 80.50000000000000000000
|   |   |   |   |   |   |   |   |   |   |--- feature_520 <= 84.00000000000000000000
|   |   |   |   |   |   |   |   |   |   |   |--- class: 6
|   |   |   |   |   |   |   |   |   |   |--- feature_520 >  84.00000000000000000000
|   |   |   |   |   |   |   |   |   |   |   |--- feature_541 <= 143.00000000000000000000
|   |   |   |   |   |   |   |   |   |   |   |   |--- class: 2
|   |   |   |   |   |   |   |   |   |   |   |--- feature_541 >  143.00000000000000000000
|   |   |   |   |   |   |   |   |   |   |   |   |--- class: 7
|   |   |   |   |   |   |   |   |   |--- feature_320 >  80.50000000000000000000
|   |   |   |   |   |   |   |   |   |   |--- class: 5
|   |   |   |   |   |   |   |   |--- feature_510 >  39.50000000000000000000
|   |   |   |   |   |   |   |   |   |--- feature_187 <= 27.00000000000000000000
|   |   |   |   |   |   |   |   |   |   |--- feature_489 <= 20.50000000000000000000
|   |   |   |   |   |   |   |   |   |   |   |--- class: 0
|   |   |   |   |   |   |   |   |   |   |--- feature_489 >  20.50000000000000000000
|   |   |   |   |   |   |   |   |   |   |   |--- class: 6
|   |   |   |   |   |   |   |   |   |--- feature_187 >  27.00000000000000000000
|   |   |   |   |   |   |   |   |   |   |--- feature_408 <= 162.00000000000000000000
|   |   |   |   |   |   |   |   |   |   |   |--- class: 9
|   |   |   |   |   |   |   |   |   |   |--- feature_408 >  162.00000000000000000000
|   |   |   |   |   |   |   |   |   |   |   |--- class: 4
|   |   |   |   |   |   |--- feature_153 >  11.50000000000000000000
|   |   |   |   |   |   |   |--- feature_320 <= 114.00000000000000000000
|   |   |   |   |   |   |   |   |--- feature_151 <= 27.50000000000000000000
|   |   |   |   |   |   |   |   |   |--- feature_211 <= 34.00000000000000000000
|   |   |   |   |   |   |   |   |   |   |--- feature_126 <= 43.00000000000000000000
|   |   |   |   |   |   |   |   |   |   |   |--- feature_577 <= 52.50000000000000000000
|   |   |   |   |   |   |   |   |   |   |   |   |--- class: 4
|   |   |   |   |   |   |   |   |   |   |   |--- feature_577 >  52.50000000000000000000
|   |   |   |   |   |   |   |   |   |   |   |   |--- class: 9
|   |   |   |   |   |   |   |   |   |   |--- feature_126 >  43.00000000000000000000
|   |   |   |   |   |   |   |   |   |   |   |--- class: 6
|   |   |   |   |   |   |   |   |   |--- feature_211 >  34.00000000000000000000
|   |   |   |   |   |   |   |   |   |   |--- feature_491 <= 110.50000000000000000000
|   |   |   |   |   |   |   |   |   |   |   |--- feature_216 <= 1.00000000000000000000
|   |   |   |   |   |   |   |   |   |   |   |   |--- class: 3
|   |   |   |   |   |   |   |   |   |   |   |--- feature_216 >  1.00000000000000000000
|   |   |   |   |   |   |   |   |   |   |   |   |--- class: 0
|   |   |   |   |   |   |   |   |   |   |--- feature_491 >  110.50000000000000000000
|   |   |   |   |   |   |   |   |   |   |   |--- feature_629 <= 138.50000000000000000000
|   |   |   |   |   |   |   |   |   |   |   |   |--- class: 1
|   |   |   |   |   |   |   |   |   |   |   |--- feature_629 >  138.50000000000000000000
|   |   |   |   |   |   |   |   |   |   |   |   |--- class: 2
|   |   |   |   |   |   |   |   |--- feature_151 >  27.50000000000000000000
|   |   |   |   |   |   |   |   |   |--- feature_231 <= 20.50000000000000000000
|   |   |   |   |   |   |   |   |   |   |--- feature_297 <= 174.00000000000000000000
|   |   |   |   |   |   |   |   |   |   |   |--- class: 2
|   |   |   |   |   |   |   |   |   |   |--- feature_297 >  174.00000000000000000000
|   |   |   |   |   |   |   |   |   |   |   |--- feature_125 <= 38.00000000000000000000
|   |   |   |   |   |   |   |   |   |   |   |   |--- class: 7
|   |   |   |   |   |   |   |   |   |   |   |--- feature_125 >  38.00000000000000000000
|   |   |   |   |   |   |   |   |   |   |   |   |--- class: 2
|   |   |   |   |   |   |   |   |   |--- feature_231 >  20.50000000000000000000
|   |   |   |   |   |   |   |   |   |   |--- feature_181 <= 148.00000000000000000000
|   |   |   |   |   |   |   |   |   |   |   |--- feature_297 <= 102.00000000000000000000
|   |   |   |   |   |   |   |   |   |   |   |   |--- class: 6
|   |   |   |   |   |   |   |   |   |   |   |--- feature_297 >  102.00000000000000000000
|   |   |   |   |   |   |   |   |   |   |   |   |--- class: 3
|   |   |   |   |   |   |   |   |   |   |--- feature_181 >  148.00000000000000000000
|   |   |   |   |   |   |   |   |   |   |   |--- feature_255 <= 20.50000000000000000000
|   |   |   |   |   |   |   |   |   |   |   |   |--- class: 2
|   |   |   |   |   |   |   |   |   |   |   |--- feature_255 >  20.50000000000000000000
|   |   |   |   |   |   |   |   |   |   |   |   |--- class: 7
|   |   |   |   |   |   |   |--- feature_320 >  114.00000000000000000000
|   |   |   |   |   |   |   |   |--- feature_265 <= 214.00000000000000000000
|   |   |   |   |   |   |   |   |   |--- feature_349 <= 226.50000000000000000000
|   |   |   |   |   |   |   |   |   |   |--- class: 5
|   |   |   |   |   |   |   |   |   |--- feature_349 >  226.50000000000000000000
|   |   |   |   |   |   |   |   |   |   |--- feature_346 <= 253.50000000000000000000
|   |   |   |   |   |   |   |   |   |   |   |--- class: 9
|   |   |   |   |   |   |   |   |   |   |--- feature_346 >  253.50000000000000000000
|   |   |   |   |   |   |   |   |   |   |   |--- class: 5
|   |   |   |   |   |   |   |   |--- feature_265 >  214.00000000000000000000
|   |   |   |   |   |   |   |   |   |--- feature_576 <= 229.00000000000000000000
|   |   |   |   |   |   |   |   |   |   |--- class: 3
|   |   |   |   |   |   |   |   |   |--- feature_576 >  229.00000000000000000000
|   |   |   |   |   |   |   |   |   |   |--- class: 7
|   |   |   |   |   |--- feature_432 >  5.50000000000000000000
|   |   |   |   |   |   |--- feature_353 <= 3.00000000000000000000
|   |   |   |   |   |   |   |--- feature_516 <= 85.50000000000000000000
|   |   |   |   |   |   |   |   |--- feature_356 <= 10.00000000000000000000
|   |   |   |   |   |   |   |   |   |--- feature_321 <= 41.50000000000000000000
|   |   |   |   |   |   |   |   |   |   |--- feature_297 <= 44.00000000000000000000
|   |   |   |   |   |   |   |   |   |   |   |--- feature_234 <= 220.50000000000000000000
|   |   |   |   |   |   |   |   |   |   |   |   |--- class: 5
|   |   |   |   |   |   |   |   |   |   |   |--- feature_234 >  220.50000000000000000000
|   |   |   |   |   |   |   |   |   |   |   |   |--- feature_404 <= 110.00000000000000000000
|   |   |   |   |   |   |   |   |   |   |   |   |   |--- class: 7
|   |   |   |   |   |   |   |   |   |   |   |   |--- feature_404 >  110.00000000000000000000
|   |   |   |   |   |   |   |   |   |   |   |   |   |--- class: 2
|   |   |   |   |   |   |   |   |   |   |--- feature_297 >  44.00000000000000000000
|   |   |   |   |   |   |   |   |   |   |   |--- class: 9
|   |   |   |   |   |   |   |   |   |--- feature_321 >  41.50000000000000000000
|   |   |   |   |   |   |   |   |   |   |--- feature_467 <= 14.50000000000000000000
|   |   |   |   |   |   |   |   |   |   |   |--- class: 5
|   |   |   |   |   |   |   |   |   |   |--- feature_467 >  14.50000000000000000000
|   |   |   |   |   |   |   |   |   |   |   |--- class: 3
|   |   |   |   |   |   |   |   |--- feature_356 >  10.00000000000000000000
|   |   |   |   |   |   |   |   |   |--- feature_268 <= 39.00000000000000000000
|   |   |   |   |   |   |   |   |   |   |--- class: 4
|   |   |   |   |   |   |   |   |   |--- feature_268 >  39.00000000000000000000
|   |   |   |   |   |   |   |   |   |   |--- feature_288 <= 145.50000000000000000000
|   |   |   |   |   |   |   |   |   |   |   |--- class: 9
|   |   |   |   |   |   |   |   |   |   |--- feature_288 >  145.50000000000000000000
|   |   |   |   |   |   |   |   |   |   |   |--- class: 7
|   |   |   |   |   |   |   |--- feature_516 >  85.50000000000000000000
|   |   |   |   |   |   |   |   |--- feature_242 <= 24.50000000000000000000
|   |   |   |   |   |   |   |   |   |--- class: 6
|   |   |   |   |   |   |   |   |--- feature_242 >  24.50000000000000000000
|   |   |   |   |   |   |   |   |   |--- feature_261 <= 42.50000000000000000000
|   |   |   |   |   |   |   |   |   |   |--- feature_486 <= 132.00000000000000000000
|   |   |   |   |   |   |   |   |   |   |   |--- class: 5
|   |   |   |   |   |   |   |   |   |   |--- feature_486 >  132.00000000000000000000
|   |   |   |   |   |   |   |   |   |   |   |--- class: 9
|   |   |   |   |   |   |   |   |   |--- feature_261 >  42.50000000000000000000
|   |   |   |   |   |   |   |   |   |   |--- class: 8
|   |   |   |   |   |   |--- feature_353 >  3.00000000000000000000
|   |   |   |   |   |   |   |--- feature_433 <= 42.50000000000000000000
|   |   |   |   |   |   |   |   |--- feature_347 <= 54.00000000000000000000
|   |   |   |   |   |   |   |   |   |--- feature_289 <= 248.50000000000000000000
|   |   |   |   |   |   |   |   |   |   |--- class: 9
|   |   |   |   |   |   |   |   |   |--- feature_289 >  248.50000000000000000000
|   |   |   |   |   |   |   |   |   |   |--- class: 8
|   |   |   |   |   |   |   |   |--- feature_347 >  54.00000000000000000000
|   |   |   |   |   |   |   |   |   |--- feature_265 <= 12.50000000000000000000
|   |   |   |   |   |   |   |   |   |   |--- feature_485 <= 107.00000000000000000000
|   |   |   |   |   |   |   |   |   |   |   |--- class: 6
|   |   |   |   |   |   |   |   |   |   |--- feature_485 >  107.00000000000000000000
|   |   |   |   |   |   |   |   |   |   |   |--- class: 5
|   |   |   |   |   |   |   |   |   |--- feature_265 >  12.50000000000000000000
|   |   |   |   |   |   |   |   |   |   |--- feature_351 <= 213.50000000000000000000
|   |   |   |   |   |   |   |   |   |   |   |--- class: 7
|   |   |   |   |   |   |   |   |   |   |--- feature_351 >  213.50000000000000000000
|   |   |   |   |   |   |   |   |   |   |   |--- class: 1
|   |   |   |   |   |   |   |--- feature_433 >  42.50000000000000000000
|   |   |   |   |   |   |   |   |--- feature_211 <= 46.00000000000000000000
|   |   |   |   |   |   |   |   |   |--- feature_266 <= 85.00000000000000000000
|   |   |   |   |   |   |   |   |   |   |--- feature_286 <= 175.00000000000000000000
|   |   |   |   |   |   |   |   |   |   |   |--- class: 4
|   |   |   |   |   |   |   |   |   |   |--- feature_286 >  175.00000000000000000000
|   |   |   |   |   |   |   |   |   |   |   |--- class: 9
|   |   |   |   |   |   |   |   |   |--- feature_266 >  85.00000000000000000000
|   |   |   |   |   |   |   |   |   |   |--- feature_401 <= 40.50000000000000000000
|   |   |   |   |   |   |   |   |   |   |   |--- class: 7
|   |   |   |   |   |   |   |   |   |   |--- feature_401 >  40.50000000000000000000
|   |   |   |   |   |   |   |   |   |   |   |--- class: 9
|   |   |   |   |   |   |   |   |--- feature_211 >  46.00000000000000000000
|   |   |   |   |   |   |   |   |   |--- feature_427 <= 155.50000000000000000000
|   |   |   |   |   |   |   |   |   |   |--- feature_190 <= 5.50000000000000000000
|   |   |   |   |   |   |   |   |   |   |   |--- feature_354 <= 63.00000000000000000000
|   |   |   |   |   |   |   |   |   |   |   |   |--- feature_684 <= 109.00000000000000000000
|   |   |   |   |   |   |   |   |   |   |   |   |   |--- class: 9
|   |   |   |   |   |   |   |   |   |   |   |   |--- feature_684 >  109.00000000000000000000
|   |   |   |   |   |   |   |   |   |   |   |   |   |--- class: 7
|   |   |   |   |   |   |   |   |   |   |   |--- feature_354 >  63.00000000000000000000
|   |   |   |   |   |   |   |   |   |   |   |   |--- class: 9
|   |   |   |   |   |   |   |   |   |   |--- feature_190 >  5.50000000000000000000
|   |   |   |   |   |   |   |   |   |   |   |--- feature_539 <= 3.50000000000000000000
|   |   |   |   |   |   |   |   |   |   |   |   |--- class: 8
|   |   |   |   |   |   |   |   |   |   |   |--- feature_539 >  3.50000000000000000000
|   |   |   |   |   |   |   |   |   |   |   |   |--- class: 4
|   |   |   |   |   |   |   |   |   |--- feature_427 >  155.50000000000000000000
|   |   |   |   |   |   |   |   |   |   |--- class: 4
|   |   |   |   |--- feature_623 >  3.00000000000000000000
|   |   |   |   |   |--- feature_510 <= 1.50000000000000000000
|   |   |   |   |   |   |--- feature_344 <= 5.00000000000000000000
|   |   |   |   |   |   |   |--- feature_179 <= 14.00000000000000000000
|   |   |   |   |   |   |   |   |--- feature_681 <= 181.00000000000000000000
|   |   |   |   |   |   |   |   |   |--- class: 5
|   |   |   |   |   |   |   |   |--- feature_681 >  181.00000000000000000000
|   |   |   |   |   |   |   |   |   |--- feature_353 <= 14.50000000000000000000
|   |   |   |   |   |   |   |   |   |   |--- class: 0
|   |   |   |   |   |   |   |   |   |--- feature_353 >  14.50000000000000000000
|   |   |   |   |   |   |   |   |   |   |--- feature_271 <= 126.50000000000000000000
|   |   |   |   |   |   |   |   |   |   |   |--- class: 9
|   |   |   |   |   |   |   |   |   |   |--- feature_271 >  126.50000000000000000000
|   |   |   |   |   |   |   |   |   |   |   |--- class: 7
|   |   |   |   |   |   |   |--- feature_179 >  14.00000000000000000000
|   |   |   |   |   |   |   |   |--- feature_235 <= 95.50000000000000000000
|   |   |   |   |   |   |   |   |   |--- feature_286 <= 127.00000000000000000000
|   |   |   |   |   |   |   |   |   |   |--- class: 3
|   |   |   |   |   |   |   |   |   |--- feature_286 >  127.00000000000000000000
|   |   |   |   |   |   |   |   |   |   |--- class: 2
|   |   |   |   |   |   |   |   |--- feature_235 >  95.50000000000000000000
|   |   |   |   |   |   |   |   |   |--- class: 5
|   |   |   |   |   |   |--- feature_344 >  5.00000000000000000000
|   |   |   |   |   |   |   |--- feature_271 <= 181.50000000000000000000
|   |   |   |   |   |   |   |   |--- class: 5
|   |   |   |   |   |   |   |--- feature_271 >  181.50000000000000000000
|   |   |   |   |   |   |   |   |--- feature_186 <= 248.50000000000000000000
|   |   |   |   |   |   |   |   |   |--- feature_417 <= 13.50000000000000000000
|   |   |   |   |   |   |   |   |   |   |--- class: 7
|   |   |   |   |   |   |   |   |   |--- feature_417 >  13.50000000000000000000
|   |   |   |   |   |   |   |   |   |   |--- class: 5
|   |   |   |   |   |   |   |   |--- feature_186 >  248.50000000000000000000
|   |   |   |   |   |   |   |   |   |--- class: 0
|   |   |   |   |   |--- feature_510 >  1.50000000000000000000
|   |   |   |   |   |   |--- feature_410 <= 60.50000000000000000000
|   |   |   |   |   |   |   |--- feature_718 <= 126.50000000000000000000
|   |   |   |   |   |   |   |   |--- class: 0
|   |   |   |   |   |   |   |--- feature_718 >  126.50000000000000000000
|   |   |   |   |   |   |   |   |--- class: 7
|   |   |   |   |   |   |--- feature_410 >  60.50000000000000000000
|   |   |   |   |   |   |   |--- feature_216 <= 103.00000000000000000000
|   |   |   |   |   |   |   |   |--- feature_594 <= 170.50000000000000000000
|   |   |   |   |   |   |   |   |   |--- feature_577 <= 126.50000000000000000000
|   |   |   |   |   |   |   |   |   |   |--- class: 2
|   |   |   |   |   |   |   |   |   |--- feature_577 >  126.50000000000000000000
|   |   |   |   |   |   |   |   |   |   |--- class: 5
|   |   |   |   |   |   |   |   |--- feature_594 >  170.50000000000000000000
|   |   |   |   |   |   |   |   |   |--- class: 3
|   |   |   |   |   |   |   |--- feature_216 >  103.00000000000000000000
|   |   |   |   |   |   |   |   |--- class: 0
|   |   |   |--- feature_514 >  5.50000000000000000000
|   |   |   |   |--- feature_241 <= 4.50000000000000000000
|   |   |   |   |   |--- feature_244 <= 3.50000000000000000000
|   |   |   |   |   |   |--- feature_295 <= 2.00000000000000000000
|   |   |   |   |   |   |   |--- feature_574 <= 135.50000000000000000000
|   |   |   |   |   |   |   |   |--- feature_571 <= 96.00000000000000000000
|   |   |   |   |   |   |   |   |   |--- feature_315 <= 25.50000000000000000000
|   |   |   |   |   |   |   |   |   |   |--- feature_437 <= 11.50000000000000000000
|   |   |   |   |   |   |   |   |   |   |   |--- feature_607 <= 32.00000000000000000000
|   |   |   |   |   |   |   |   |   |   |   |   |--- feature_320 <= 45.50000000000000000000
|   |   |   |   |   |   |   |   |   |   |   |   |   |--- class: 5
|   |   |   |   |   |   |   |   |   |   |   |   |--- feature_320 >  45.50000000000000000000
|   |   |   |   |   |   |   |   |   |   |   |   |   |--- class: 2
|   |   |   |   |   |   |   |   |   |   |   |--- feature_607 >  32.00000000000000000000
|   |   |   |   |   |   |   |   |   |   |   |   |--- feature_468 <= 254.00000000000000000000
|   |   |   |   |   |   |   |   |   |   |   |   |   |--- class: 4
|   |   |   |   |   |   |   |   |   |   |   |   |--- feature_468 >  254.00000000000000000000
|   |   |   |   |   |   |   |   |   |   |   |   |   |--- class: 9
|   |   |   |   |   |   |   |   |   |   |--- feature_437 >  11.50000000000000000000
|   |   |   |   |   |   |   |   |   |   |   |--- feature_352 <= 39.00000000000000000000
|   |   |   |   |   |   |   |   |   |   |   |   |--- feature_397 <= 127.00000000000000000000
|   |   |   |   |   |   |   |   |   |   |   |   |   |--- class: 4
|   |   |   |   |   |   |   |   |   |   |   |   |--- feature_397 >  127.00000000000000000000
|   |   |   |   |   |   |   |   |   |   |   |   |   |--- class: 6
|   |   |   |   |   |   |   |   |   |   |   |--- feature_352 >  39.00000000000000000000
|   |   |   |   |   |   |   |   |   |   |   |   |--- feature_604 <= 91.00000000000000000000
|   |   |   |   |   |   |   |   |   |   |   |   |   |--- class: 6
|   |   |   |   |   |   |   |   |   |   |   |   |--- feature_604 >  91.00000000000000000000
|   |   |   |   |   |   |   |   |   |   |   |   |   |--- class: 9
|   |   |   |   |   |   |   |   |   |--- feature_315 >  25.50000000000000000000
|   |   |   |   |   |   |   |   |   |   |--- feature_443 <= 56.00000000000000000000
|   |   |   |   |   |   |   |   |   |   |   |--- feature_371 <= 30.50000000000000000000
|   |   |   |   |   |   |   |   |   |   |   |   |--- class: 6
|   |   |   |   |   |   |   |   |   |   |   |--- feature_371 >  30.50000000000000000000
|   |   |   |   |   |   |   |   |   |   |   |   |--- class: 4
|   |   |   |   |   |   |   |   |   |   |--- feature_443 >  56.00000000000000000000
|   |   |   |   |   |   |   |   |   |   |   |--- class: 6
|   |   |   |   |   |   |   |   |--- feature_571 >  96.00000000000000000000
|   |   |   |   |   |   |   |   |   |--- feature_242 <= 64.00000000000000000000
|   |   |   |   |   |   |   |   |   |   |--- feature_486 <= 61.00000000000000000000
|   |   |   |   |   |   |   |   |   |   |   |--- feature_463 <= 70.50000000000000000000
|   |   |   |   |   |   |   |   |   |   |   |   |--- feature_426 <= 126.00000000000000000000
|   |   |   |   |   |   |   |   |   |   |   |   |   |--- class: 5
|   |   |   |   |   |   |   |   |   |   |   |   |--- feature_426 >  126.00000000000000000000
|   |   |   |   |   |   |   |   |   |   |   |   |   |--- feature_547 <= 233.50000000000000000000
|   |   |   |   |   |   |   |   |   |   |   |   |   |   |--- class: 9
|   |   |   |   |   |   |   |   |   |   |   |   |   |--- feature_547 >  233.50000000000000000000
|   |   |   |   |   |   |   |   |   |   |   |   |   |   |--- class: 0
|   |   |   |   |   |   |   |   |   |   |   |--- feature_463 >  70.50000000000000000000
|   |   |   |   |   |   |   |   |   |   |   |   |--- class: 6
|   |   |   |   |   |   |   |   |   |   |--- feature_486 >  61.00000000000000000000
|   |   |   |   |   |   |   |   |   |   |   |--- feature_568 <= 60.00000000000000000000
|   |   |   |   |   |   |   |   |   |   |   |   |--- class: 6
|   |   |   |   |   |   |   |   |   |   |   |--- feature_568 >  60.00000000000000000000
|   |   |   |   |   |   |   |   |   |   |   |   |--- class: 2
|   |   |   |   |   |   |   |   |   |--- feature_242 >  64.00000000000000000000
|   |   |   |   |   |   |   |   |   |   |--- class: 0
|   |   |   |   |   |   |   |--- feature_574 >  135.50000000000000000000
|   |   |   |   |   |   |   |   |--- feature_572 <= 1.50000000000000000000
|   |   |   |   |   |   |   |   |   |--- feature_414 <= 54.00000000000000000000
|   |   |   |   |   |   |   |   |   |   |--- class: 4
|   |   |   |   |   |   |   |   |   |--- feature_414 >  54.00000000000000000000
|   |   |   |   |   |   |   |   |   |   |--- class: 6
|   |   |   |   |   |   |   |   |--- feature_572 >  1.50000000000000000000
|   |   |   |   |   |   |   |   |   |--- feature_300 <= 239.50000000000000000000
|   |   |   |   |   |   |   |   |   |   |--- feature_581 <= 252.50000000000000000000
|   |   |   |   |   |   |   |   |   |   |   |--- feature_189 <= 90.50000000000000000000
|   |   |   |   |   |   |   |   |   |   |   |   |--- feature_269 <= 11.50000000000000000000
|   |   |   |   |   |   |   |   |   |   |   |   |   |--- class: 6
|   |   |   |   |   |   |   |   |   |   |   |   |--- feature_269 >  11.50000000000000000000
|   |   |   |   |   |   |   |   |   |   |   |   |   |--- class: 4
|   |   |   |   |   |   |   |   |   |   |   |--- feature_189 >  90.50000000000000000000
|   |   |   |   |   |   |   |   |   |   |   |   |--- class: 5
|   |   |   |   |   |   |   |   |   |   |--- feature_581 >  252.50000000000000000000
|   |   |   |   |   |   |   |   |   |   |   |--- feature_491 <= 125.50000000000000000000
|   |   |   |   |   |   |   |   |   |   |   |   |--- feature_554 <= 254.00000000000000000000
|   |   |   |   |   |   |   |   |   |   |   |   |   |--- class: 3
|   |   |   |   |   |   |   |   |   |   |   |   |--- feature_554 >  254.00000000000000000000
|   |   |   |   |   |   |   |   |   |   |   |   |   |--- class: 2
|   |   |   |   |   |   |   |   |   |   |   |--- feature_491 >  125.50000000000000000000
|   |   |   |   |   |   |   |   |   |   |   |   |--- class: 6
|   |   |   |   |   |   |   |   |   |--- feature_300 >  239.50000000000000000000
|   |   |   |   |   |   |   |   |   |   |--- feature_265 <= 5.50000000000000000000
|   |   |   |   |   |   |   |   |   |   |   |--- class: 6
|   |   |   |   |   |   |   |   |   |   |--- feature_265 >  5.50000000000000000000
|   |   |   |   |   |   |   |   |   |   |   |--- class: 4
|   |   |   |   |   |   |--- feature_295 >  2.00000000000000000000
|   |   |   |   |   |   |   |--- feature_601 <= 3.00000000000000000000
|   |   |   |   |   |   |   |   |--- feature_415 <= 10.00000000000000000000
|   |   |   |   |   |   |   |   |   |--- feature_260 <= 48.50000000000000000000
|   |   |   |   |   |   |   |   |   |   |--- feature_267 <= 84.00000000000000000000
|   |   |   |   |   |   |   |   |   |   |   |--- class: 5
|   |   |   |   |   |   |   |   |   |   |--- feature_267 >  84.00000000000000000000
|   |   |   |   |   |   |   |   |   |   |   |--- feature_314 <= 63.00000000000000000000
|   |   |   |   |   |   |   |   |   |   |   |   |--- class: 2
|   |   |   |   |   |   |   |   |   |   |   |--- feature_314 >  63.00000000000000000000
|   |   |   |   |   |   |   |   |   |   |   |   |--- class: 9
|   |   |   |   |   |   |   |   |   |--- feature_260 >  48.50000000000000000000
|   |   |   |   |   |   |   |   |   |   |--- feature_427 <= 0.50000000000000000000
|   |   |   |   |   |   |   |   |   |   |   |--- feature_326 <= 13.50000000000000000000
|   |   |   |   |   |   |   |   |   |   |   |   |--- feature_261 <= 55.00000000000000000000
|   |   |   |   |   |   |   |   |   |   |   |   |   |--- class: 2
|   |   |   |   |   |   |   |   |   |   |   |   |--- feature_261 >  55.00000000000000000000
|   |   |   |   |   |   |   |   |   |   |   |   |   |--- class: 9
|   |   |   |   |   |   |   |   |   |   |   |--- feature_326 >  13.50000000000000000000
|   |   |   |   |   |   |   |   |   |   |   |   |--- class: 7
|   |   |   |   |   |   |   |   |   |   |--- feature_427 >  0.50000000000000000000
|   |   |   |   |   |   |   |   |   |   |   |--- class: 9
|   |   |   |   |   |   |   |   |--- feature_415 >  10.00000000000000000000
|   |   |   |   |   |   |   |   |   |--- class: 0
|   |   |   |   |   |   |   |--- feature_601 >  3.00000000000000000000
|   |   |   |   |   |   |   |   |--- feature_430 <= 5.00000000000000000000
|   |   |   |   |   |   |   |   |   |--- feature_342 <= 219.50000000000000000000
|   |   |   |   |   |   |   |   |   |   |--- feature_574 <= 218.00000000000000000000
|   |   |   |   |   |   |   |   |   |   |   |--- class: 5
|   |   |   |   |   |   |   |   |   |   |--- feature_574 >  218.00000000000000000000
|   |   |   |   |   |   |   |   |   |   |   |--- feature_292 <= 131.00000000000000000000
|   |   |   |   |   |   |   |   |   |   |   |   |--- class: 6
|   |   |   |   |   |   |   |   |   |   |   |--- feature_292 >  131.00000000000000000000
|   |   |   |   |   |   |   |   |   |   |   |   |--- class: 3
|   |   |   |   |   |   |   |   |   |--- feature_342 >  219.50000000000000000000
|   |   |   |   |   |   |   |   |   |   |--- class: 0
|   |   |   |   |   |   |   |   |--- feature_430 >  5.00000000000000000000
|   |   |   |   |   |   |   |   |   |--- feature_295 <= 252.50000000000000000000
|   |   |   |   |   |   |   |   |   |   |--- feature_550 <= 13.50000000000000000000
|   |   |   |   |   |   |   |   |   |   |   |--- feature_545 <= 126.50000000000000000000
|   |   |   |   |   |   |   |   |   |   |   |   |--- feature_349 <= 246.00000000000000000000
|   |   |   |   |   |   |   |   |   |   |   |   |   |--- class: 2
|   |   |   |   |   |   |   |   |   |   |   |   |--- feature_349 >  246.00000000000000000000
|   |   |   |   |   |   |   |   |   |   |   |   |   |--- class: 5
|   |   |   |   |   |   |   |   |   |   |   |--- feature_545 >  126.50000000000000000000
|   |   |   |   |   |   |   |   |   |   |   |   |--- class: 6
|   |   |   |   |   |   |   |   |   |   |--- feature_550 >  13.50000000000000000000
|   |   |   |   |   |   |   |   |   |   |   |--- class: 6
|   |   |   |   |   |   |   |   |   |--- feature_295 >  252.50000000000000000000
|   |   |   |   |   |   |   |   |   |   |--- feature_632 <= 53.50000000000000000000
|   |   |   |   |   |   |   |   |   |   |   |--- feature_400 <= 154.00000000000000000000
|   |   |   |   |   |   |   |   |   |   |   |   |--- class: 2
|   |   |   |   |   |   |   |   |   |   |   |--- feature_400 >  154.00000000000000000000
|   |   |   |   |   |   |   |   |   |   |   |   |--- class: 6
|   |   |   |   |   |   |   |   |   |   |--- feature_632 >  53.50000000000000000000
|   |   |   |   |   |   |   |   |   |   |   |--- class: 0
|   |   |   |   |   |--- feature_244 >  3.50000000000000000000
|   |   |   |   |   |   |--- feature_128 <= 9.50000000000000000000
|   |   |   |   |   |   |   |--- feature_184 <= 180.00000000000000000000
|   |   |   |   |   |   |   |   |--- feature_437 <= 62.50000000000000000000
|   |   |   |   |   |   |   |   |   |--- feature_511 <= 188.00000000000000000000
|   |   |   |   |   |   |   |   |   |   |--- feature_209 <= 41.00000000000000000000
|   |   |   |   |   |   |   |   |   |   |   |--- class: 6
|   |   |   |   |   |   |   |   |   |   |--- feature_209 >  41.00000000000000000000
|   |   |   |   |   |   |   |   |   |   |   |--- feature_551 <= 94.50000000000000000000
|   |   |   |   |   |   |   |   |   |   |   |   |--- class: 0
|   |   |   |   |   |   |   |   |   |   |   |--- feature_551 >  94.50000000000000000000
|   |   |   |   |   |   |   |   |   |   |   |   |--- class: 9
|   |   |   |   |   |   |   |   |   |--- feature_511 >  188.00000000000000000000
|   |   |   |   |   |   |   |   |   |   |--- feature_572 <= 164.00000000000000000000
|   |   |   |   |   |   |   |   |   |   |   |--- class: 4
|   |   |   |   |   |   |   |   |   |   |--- feature_572 >  164.00000000000000000000
|   |   |   |   |   |   |   |   |   |   |   |--- class: 0
|   |   |   |   |   |   |   |   |--- feature_437 >  62.50000000000000000000
|   |   |   |   |   |   |   |   |   |--- feature_368 <= 23.50000000000000000000
|   |   |   |   |   |   |   |   |   |   |--- class: 4
|   |   |   |   |   |   |   |   |   |--- feature_368 >  23.50000000000000000000
|   |   |   |   |   |   |   |   |   |   |--- class: 9
|   |   |   |   |   |   |   |--- feature_184 >  180.00000000000000000000
|   |   |   |   |   |   |   |   |--- feature_493 <= 4.00000000000000000000
|   |   |   |   |   |   |   |   |   |--- feature_215 <= 165.50000000000000000000
|   |   |   |   |   |   |   |   |   |   |--- class: 8
|   |   |   |   |   |   |   |   |   |--- feature_215 >  165.50000000000000000000
|   |   |   |   |   |   |   |   |   |   |--- class: 0
|   |   |   |   |   |   |   |   |--- feature_493 >  4.00000000000000000000
|   |   |   |   |   |   |   |   |   |--- class: 9
|   |   |   |   |   |   |--- feature_128 >  9.50000000000000000000
|   |   |   |   |   |   |   |--- feature_538 <= 5.50000000000000000000
|   |   |   |   |   |   |   |   |--- feature_518 <= 87.00000000000000000000
|   |   |   |   |   |   |   |   |   |--- class: 0
|   |   |   |   |   |   |   |   |--- feature_518 >  87.00000000000000000000
|   |   |   |   |   |   |   |   |   |--- class: 6
|   |   |   |   |   |   |   |--- feature_538 >  5.50000000000000000000
|   |   |   |   |   |   |   |   |--- class: 2
|   |   |   |   |--- feature_241 >  4.50000000000000000000
|   |   |   |   |   |--- feature_491 <= 32.50000000000000000000
|   |   |   |   |   |   |--- feature_220 <= 2.00000000000000000000
|   |   |   |   |   |   |   |--- feature_153 <= 4.50000000000000000000
|   |   |   |   |   |   |   |   |--- feature_716 <= 8.50000000000000000000
|   |   |   |   |   |   |   |   |   |--- feature_493 <= 34.00000000000000000000
|   |   |   |   |   |   |   |   |   |   |--- feature_376 <= 67.00000000000000000000
|   |   |   |   |   |   |   |   |   |   |   |--- feature_543 <= 63.00000000000000000000
|   |   |   |   |   |   |   |   |   |   |   |   |--- feature_260 <= 90.00000000000000000000
|   |   |   |   |   |   |   |   |   |   |   |   |   |--- class: 5
|   |   |   |   |   |   |   |   |   |   |   |   |--- feature_260 >  90.00000000000000000000
|   |   |   |   |   |   |   |   |   |   |   |   |   |--- class: 0
|   |   |   |   |   |   |   |   |   |   |   |--- feature_543 >  63.00000000000000000000
|   |   |   |   |   |   |   |   |   |   |   |   |--- class: 0
|   |   |   |   |   |   |   |   |   |   |--- feature_376 >  67.00000000000000000000
|   |   |   |   |   |   |   |   |   |   |   |--- feature_241 <= 184.00000000000000000000
|   |   |   |   |   |   |   |   |   |   |   |   |--- class: 6
|   |   |   |   |   |   |   |   |   |   |   |--- feature_241 >  184.00000000000000000000
|   |   |   |   |   |   |   |   |   |   |   |   |--- feature_401 <= 216.00000000000000000000
|   |   |   |   |   |   |   |   |   |   |   |   |   |--- feature_294 <= 203.00000000000000000000
|   |   |   |   |   |   |   |   |   |   |   |   |   |   |--- class: 3
|   |   |   |   |   |   |   |   |   |   |   |   |   |--- feature_294 >  203.00000000000000000000
|   |   |   |   |   |   |   |   |   |   |   |   |   |   |--- class: 0
|   |   |   |   |   |   |   |   |   |   |   |   |--- feature_401 >  216.00000000000000000000
|   |   |   |   |   |   |   |   |   |   |   |   |   |--- class: 5
|   |   |   |   |   |   |   |   |   |--- feature_493 >  34.00000000000000000000
|   |   |   |   |   |   |   |   |   |   |--- feature_265 <= 121.00000000000000000000
|   |   |   |   |   |   |   |   |   |   |   |--- feature_209 <= 68.50000000000000000000
|   |   |   |   |   |   |   |   |   |   |   |   |--- feature_542 <= 225.00000000000000000000
|   |   |   |   |   |   |   |   |   |   |   |   |   |--- class: 4
|   |   |   |   |   |   |   |   |   |   |   |   |--- feature_542 >  225.00000000000000000000
|   |   |   |   |   |   |   |   |   |   |   |   |   |--- feature_388 <= 126.50000000000000000000
|   |   |   |   |   |   |   |   |   |   |   |   |   |   |--- class: 5
|   |   |   |   |   |   |   |   |   |   |   |   |   |--- feature_388 >  126.50000000000000000000
|   |   |   |   |   |   |   |   |   |   |   |   |   |   |--- class: 0
|   |   |   |   |   |   |   |   |   |   |   |--- feature_209 >  68.50000000000000000000
|   |   |   |   |   |   |   |   |   |   |   |   |--- class: 9
|   |   |   |   |   |   |   |   |   |   |--- feature_265 >  121.00000000000000000000
|   |   |   |   |   |   |   |   |   |   |   |--- feature_636 <= 126.00000000000000000000
|   |   |   |   |   |   |   |   |   |   |   |   |--- class: 0
|   |   |   |   |   |   |   |   |   |   |   |--- feature_636 >  126.00000000000000000000
|   |   |   |   |   |   |   |   |   |   |   |   |--- class: 9
|   |   |   |   |   |   |   |   |--- feature_716 >  8.50000000000000000000
|   |   |   |   |   |   |   |   |   |--- feature_262 <= 232.50000000000000000000
|   |   |   |   |   |   |   |   |   |   |--- feature_492 <= 126.50000000000000000000
|   |   |   |   |   |   |   |   |   |   |   |--- class: 5
|   |   |   |   |   |   |   |   |   |   |--- feature_492 >  126.50000000000000000000
|   |   |   |   |   |   |   |   |   |   |   |--- class: 9
|   |   |   |   |   |   |   |   |   |--- feature_262 >  232.50000000000000000000
|   |   |   |   |   |   |   |   |   |   |--- class: 7
|   |   |   |   |   |   |   |--- feature_153 >  4.50000000000000000000
|   |   |   |   |   |   |   |   |--- feature_407 <= 1.50000000000000000000
|   |   |   |   |   |   |   |   |   |--- feature_546 <= 126.00000000000000000000
|   |   |   |   |   |   |   |   |   |   |--- class: 0
|   |   |   |   |   |   |   |   |   |--- feature_546 >  126.00000000000000000000
|   |   |   |   |   |   |   |   |   |   |--- feature_372 <= 6.00000000000000000000
|   |   |   |   |   |   |   |   |   |   |   |--- feature_632 <= 181.50000000000000000000
|   |   |   |   |   |   |   |   |   |   |   |   |--- class: 0
|   |   |   |   |   |   |   |   |   |   |   |--- feature_632 >  181.50000000000000000000
|   |   |   |   |   |   |   |   |   |   |   |   |--- class: 2
|   |   |   |   |   |   |   |   |   |   |--- feature_372 >  6.00000000000000000000
|   |   |   |   |   |   |   |   |   |   |   |--- feature_466 <= 251.00000000000000000000
|   |   |   |   |   |   |   |   |   |   |   |   |--- class: 0
|   |   |   |   |   |   |   |   |   |   |   |--- feature_466 >  251.00000000000000000000
|   |   |   |   |   |   |   |   |   |   |   |   |--- feature_523 <= 252.50000000000000000000
|   |   |   |   |   |   |   |   |   |   |   |   |   |--- class: 9
|   |   |   |   |   |   |   |   |   |   |   |   |--- feature_523 >  252.50000000000000000000
|   |   |   |   |   |   |   |   |   |   |   |   |   |--- class: 0
|   |   |   |   |   |   |   |   |--- feature_407 >  1.50000000000000000000
|   |   |   |   |   |   |   |   |   |--- class: 8
|   |   |   |   |   |   |--- feature_220 >  2.00000000000000000000
|   |   |   |   |   |   |   |--- class: 5
|   |   |   |   |   |--- feature_491 >  32.50000000000000000000
|   |   |   |   |   |   |--- feature_158 <= 15.00000000000000000000
|   |   |   |   |   |   |   |--- feature_456 <= 2.00000000000000000000
|   |   |   |   |   |   |   |   |--- feature_233 <= 9.50000000000000000000
|   |   |   |   |   |   |   |   |   |--- feature_570 <= 3.00000000000000000000
|   |   |   |   |   |   |   |   |   |   |--- feature_374 <= 29.50000000000000000000
|   |   |   |   |   |   |   |   |   |   |   |--- feature_317 <= 19.50000000000000000000
|   |   |   |   |   |   |   |   |   |   |   |   |--- feature_272 <= 127.50000000000000000000
|   |   |   |   |   |   |   |   |   |   |   |   |   |--- feature_380 <= 206.00000000000000000000
|   |   |   |   |   |   |   |   |   |   |   |   |   |   |--- class: 6
|   |   |   |   |   |   |   |   |   |   |   |   |   |--- feature_380 >  206.00000000000000000000
|   |   |   |   |   |   |   |   |   |   |   |   |   |   |--- class: 2
|   |   |   |   |   |   |   |   |   |   |   |   |--- feature_272 >  127.50000000000000000000
|   |   |   |   |   |   |   |   |   |   |   |   |   |--- class: 5
|   |   |   |   |   |   |   |   |   |   |   |--- feature_317 >  19.50000000000000000000
|   |   |   |   |   |   |   |   |   |   |   |   |--- class: 7
|   |   |   |   |   |   |   |   |   |   |--- feature_374 >  29.50000000000000000000
|   |   |   |   |   |   |   |   |   |   |   |--- feature_214 <= 56.50000000000000000000
|   |   |   |   |   |   |   |   |   |   |   |   |--- class: 9
|   |   |   |   |   |   |   |   |   |   |   |--- feature_214 >  56.50000000000000000000
|   |   |   |   |   |   |   |   |   |   |   |   |--- class: 4
|   |   |   |   |   |   |   |   |   |--- feature_570 >  3.00000000000000000000
|   |   |   |   |   |   |   |   |   |   |--- feature_517 <= 233.50000000000000000000
|   |   |   |   |   |   |   |   |   |   |   |--- feature_210 <= 1.50000000000000000000
|   |   |   |   |   |   |   |   |   |   |   |   |--- feature_568 <= 117.00000000000000000000
|   |   |   |   |   |   |   |   |   |   |   |   |   |--- class: 6
|   |   |   |   |   |   |   |   |   |   |   |   |--- feature_568 >  117.00000000000000000000
|   |   |   |   |   |   |   |   |   |   |   |   |   |--- class: 3
|   |   |   |   |   |   |   |   |   |   |   |--- feature_210 >  1.50000000000000000000
|   |   |   |   |   |   |   |   |   |   |   |   |--- class: 0
|   |   |   |   |   |   |   |   |   |   |--- feature_517 >  233.50000000000000000000
|   |   |   |   |   |   |   |   |   |   |   |--- class: 2
|   |   |   |   |   |   |   |   |--- feature_233 >  9.50000000000000000000
|   |   |   |   |   |   |   |   |   |--- feature_454 <= 34.50000000000000000000
|   |   |   |   |   |   |   |   |   |   |--- feature_374 <= 70.50000000000000000000
|   |   |   |   |   |   |   |   |   |   |   |--- class: 7
|   |   |   |   |   |   |   |   |   |   |--- feature_374 >  70.50000000000000000000
|   |   |   |   |   |   |   |   |   |   |   |--- feature_157 <= 115.00000000000000000000
|   |   |   |   |   |   |   |   |   |   |   |   |--- class: 6
|   |   |   |   |   |   |   |   |   |   |   |--- feature_157 >  115.00000000000000000000
|   |   |   |   |   |   |   |   |   |   |   |   |--- class: 4
|   |   |   |   |   |   |   |   |   |--- feature_454 >  34.50000000000000000000
|   |   |   |   |   |   |   |   |   |   |--- class: 9
|   |   |   |   |   |   |   |--- feature_456 >  2.00000000000000000000
|   |   |   |   |   |   |   |   |--- feature_210 <= 6.50000000000000000000
|   |   |   |   |   |   |   |   |   |--- feature_294 <= 62.00000000000000000000
|   |   |   |   |   |   |   |   |   |   |--- feature_385 <= 59.00000000000000000000
|   |   |   |   |   |   |   |   |   |   |   |--- feature_401 <= 22.50000000000000000000
|   |   |   |   |   |   |   |   |   |   |   |   |--- feature_485 <= 226.50000000000000000000
|   |   |   |   |   |   |   |   |   |   |   |   |   |--- class: 9
|   |   |   |   |   |   |   |   |   |   |   |   |--- feature_485 >  226.50000000000000000000
|   |   |   |   |   |   |   |   |   |   |   |   |   |--- class: 2
|   |   |   |   |   |   |   |   |   |   |   |--- feature_401 >  22.50000000000000000000
|   |   |   |   |   |   |   |   |   |   |   |   |--- class: 4
|   |   |   |   |   |   |   |   |   |   |--- feature_385 >  59.00000000000000000000
|   |   |   |   |   |   |   |   |   |   |   |--- class: 6
|   |   |   |   |   |   |   |   |   |--- feature_294 >  62.00000000000000000000
|   |   |   |   |   |   |   |   |   |   |--- feature_569 <= 12.00000000000000000000
|   |   |   |   |   |   |   |   |   |   |   |--- feature_303 <= 112.00000000000000000000
|   |   |   |   |   |   |   |   |   |   |   |   |--- class: 7
|   |   |   |   |   |   |   |   |   |   |   |--- feature_303 >  112.00000000000000000000
|   |   |   |   |   |   |   |   |   |   |   |   |--- class: 5
|   |   |   |   |   |   |   |   |   |   |--- feature_569 >  12.00000000000000000000
|   |   |   |   |   |   |   |   |   |   |   |--- class: 0
|   |   |   |   |   |   |   |   |--- feature_210 >  6.50000000000000000000
|   |   |   |   |   |   |   |   |   |--- feature_292 <= 244.00000000000000000000
|   |   |   |   |   |   |   |   |   |   |--- feature_247 <= 91.00000000000000000000
|   |   |   |   |   |   |   |   |   |   |   |--- feature_443 <= 134.50000000000000000000
|   |   |   |   |   |   |   |   |   |   |   |   |--- feature_630 <= 87.50000000000000000000
|   |   |   |   |   |   |   |   |   |   |   |   |   |--- feature_257 <= 216.00000000000000000000
|   |   |   |   |   |   |   |   |   |   |   |   |   |   |--- class: 9
|   |   |   |   |   |   |   |   |   |   |   |   |   |--- feature_257 >  216.00000000000000000000
|   |   |   |   |   |   |   |   |   |   |   |   |   |   |--- class: 4
|   |   |   |   |   |   |   |   |   |   |   |   |--- feature_630 >  87.50000000000000000000
|   |   |   |   |   |   |   |   |   |   |   |   |   |--- feature_714 <= 68.50000000000000000000
|   |   |   |   |   |   |   |   |   |   |   |   |   |   |--- class: 7
|   |   |   |   |   |   |   |   |   |   |   |   |   |--- feature_714 >  68.50000000000000000000
|   |   |   |   |   |   |   |   |   |   |   |   |   |   |--- class: 9
|   |   |   |   |   |   |   |   |   |   |   |--- feature_443 >  134.50000000000000000000
|   |   |   |   |   |   |   |   |   |   |   |   |--- feature_328 <= 181.00000000000000000000
|   |   |   |   |   |   |   |   |   |   |   |   |   |--- class: 0
|   |   |   |   |   |   |   |   |   |   |   |   |--- feature_328 >  181.00000000000000000000
|   |   |   |   |   |   |   |   |   |   |   |   |   |--- class: 7
|   |   |   |   |   |   |   |   |   |   |--- feature_247 >  91.00000000000000000000
|   |   |   |   |   |   |   |   |   |   |   |--- feature_301 <= 126.50000000000000000000
|   |   |   |   |   |   |   |   |   |   |   |   |--- class: 5
|   |   |   |   |   |   |   |   |   |   |   |--- feature_301 >  126.50000000000000000000
|   |   |   |   |   |   |   |   |   |   |   |   |--- class: 4
|   |   |   |   |   |   |   |   |   |--- feature_292 >  244.00000000000000000000
|   |   |   |   |   |   |   |   |   |   |--- feature_316 <= 13.00000000000000000000
|   |   |   |   |   |   |   |   |   |   |   |--- feature_241 <= 94.00000000000000000000
|   |   |   |   |   |   |   |   |   |   |   |   |--- class: 4
|   |   |   |   |   |   |   |   |   |   |   |--- feature_241 >  94.00000000000000000000
|   |   |   |   |   |   |   |   |   |   |   |   |--- feature_577 <= 119.50000000000000000000
|   |   |   |   |   |   |   |   |   |   |   |   |   |--- class: 9
|   |   |   |   |   |   |   |   |   |   |   |   |--- feature_577 >  119.50000000000000000000
|   |   |   |   |   |   |   |   |   |   |   |   |   |--- class: 5
|   |   |   |   |   |   |   |   |   |   |--- feature_316 >  13.00000000000000000000
|   |   |   |   |   |   |   |   |   |   |   |--- feature_401 <= 214.50000000000000000000
|   |   |   |   |   |   |   |   |   |   |   |   |--- feature_205 <= 141.50000000000000000000
|   |   |   |   |   |   |   |   |   |   |   |   |   |--- class: 0
|   |   |   |   |   |   |   |   |   |   |   |   |--- feature_205 >  141.50000000000000000000
|   |   |   |   |   |   |   |   |   |   |   |   |   |--- class: 2
|   |   |   |   |   |   |   |   |   |   |   |--- feature_401 >  214.50000000000000000000
|   |   |   |   |   |   |   |   |   |   |   |   |--- feature_546 <= 247.50000000000000000000
|   |   |   |   |   |   |   |   |   |   |   |   |   |--- class: 7
|   |   |   |   |   |   |   |   |   |   |   |   |--- feature_546 >  247.50000000000000000000
|   |   |   |   |   |   |   |   |   |   |   |   |   |--- class: 8
|   |   |   |   |   |   |--- feature_158 >  15.00000000000000000000
|   |   |   |   |   |   |   |--- feature_599 <= 36.50000000000000000000
|   |   |   |   |   |   |   |   |--- feature_182 <= 153.00000000000000000000
|   |   |   |   |   |   |   |   |   |--- feature_131 <= 172.00000000000000000000
|   |   |   |   |   |   |   |   |   |   |--- class: 4
|   |   |   |   |   |   |   |   |   |--- feature_131 >  172.00000000000000000000
|   |   |   |   |   |   |   |   |   |   |--- feature_570 <= 157.00000000000000000000
|   |   |   |   |   |   |   |   |   |   |   |--- feature_540 <= 107.00000000000000000000
|   |   |   |   |   |   |   |   |   |   |   |   |--- class: 4
|   |   |   |   |   |   |   |   |   |   |   |--- feature_540 >  107.00000000000000000000
|   |   |   |   |   |   |   |   |   |   |   |   |--- class: 2
|   |   |   |   |   |   |   |   |   |   |--- feature_570 >  157.00000000000000000000
|   |   |   |   |   |   |   |   |   |   |   |--- class: 6
|   |   |   |   |   |   |   |   |--- feature_182 >  153.00000000000000000000
|   |   |   |   |   |   |   |   |   |--- feature_513 <= 253.50000000000000000000
|   |   |   |   |   |   |   |   |   |   |--- feature_207 <= 30.50000000000000000000
|   |   |   |   |   |   |   |   |   |   |   |--- feature_544 <= 235.50000000000000000000
|   |   |   |   |   |   |   |   |   |   |   |   |--- class: 8
|   |   |   |   |   |   |   |   |   |   |   |--- feature_544 >  235.50000000000000000000
|   |   |   |   |   |   |   |   |   |   |   |   |--- class: 0
|   |   |   |   |   |   |   |   |   |   |--- feature_207 >  30.50000000000000000000
|   |   |   |   |   |   |   |   |   |   |   |--- feature_689 <= 98.50000000000000000000
|   |   |   |   |   |   |   |   |   |   |   |   |--- class: 9
|   |   |   |   |   |   |   |   |   |   |   |--- feature_689 >  98.50000000000000000000
|   |   |   |   |   |   |   |   |   |   |   |   |--- class: 2
|   |   |   |   |   |   |   |   |   |--- feature_513 >  253.50000000000000000000
|   |   |   |   |   |   |   |   |   |   |--- class: 4
|   |   |   |   |   |   |   |--- feature_599 >  36.50000000000000000000
|   |   |   |   |   |   |   |   |--- feature_270 <= 41.50000000000000000000
|   |   |   |   |   |   |   |   |   |--- feature_547 <= 254.50000000000000000000
|   |   |   |   |   |   |   |   |   |   |--- class: 6
|   |   |   |   |   |   |   |   |   |--- feature_547 >  254.50000000000000000000
|   |   |   |   |   |   |   |   |   |   |--- class: 5
|   |   |   |   |   |   |   |   |--- feature_270 >  41.50000000000000000000
|   |   |   |   |   |   |   |   |   |--- feature_182 <= 209.50000000000000000000
|   |   |   |   |   |   |   |   |   |   |--- feature_375 <= 3.00000000000000000000
|   |   |   |   |   |   |   |   |   |   |   |--- feature_396 <= 74.50000000000000000000
|   |   |   |   |   |   |   |   |   |   |   |   |--- class: 4
|   |   |   |   |   |   |   |   |   |   |   |--- feature_396 >  74.50000000000000000000
|   |   |   |   |   |   |   |   |   |   |   |   |--- class: 3
|   |   |   |   |   |   |   |   |   |   |--- feature_375 >  3.00000000000000000000
|   |   |   |   |   |   |   |   |   |   |   |--- class: 0
|   |   |   |   |   |   |   |   |   |--- feature_182 >  209.50000000000000000000
|   |   |   |   |   |   |   |   |   |   |--- class: 2
|   |   |--- feature_597 >  0.50000000000000000000
|   |   |   |--- feature_428 <= 0.50000000000000000000
|   |   |   |   |--- feature_490 <= 16.50000000000000000000
|   |   |   |   |   |--- feature_398 <= 34.50000000000000000000
|   |   |   |   |   |   |--- feature_430 <= 146.00000000000000000000
|   |   |   |   |   |   |   |--- feature_323 <= 3.00000000000000000000
|   |   |   |   |   |   |   |   |--- feature_547 <= 126.00000000000000000000
|   |   |   |   |   |   |   |   |   |--- feature_291 <= 26.50000000000000000000
|   |   |   |   |   |   |   |   |   |   |--- feature_243 <= 14.50000000000000000000
|   |   |   |   |   |   |   |   |   |   |   |--- feature_158 <= 3.50000000000000000000
|   |   |   |   |   |   |   |   |   |   |   |   |--- feature_568 <= 25.50000000000000000000
|   |   |   |   |   |   |   |   |   |   |   |   |   |--- class: 3
|   |   |   |   |   |   |   |   |   |   |   |   |--- feature_568 >  25.50000000000000000000
|   |   |   |   |   |   |   |   |   |   |   |   |   |--- feature_656 <= 79.00000000000000000000
|   |   |   |   |   |   |   |   |   |   |   |   |   |   |--- class: 0
|   |   |   |   |   |   |   |   |   |   |   |   |   |--- feature_656 >  79.00000000000000000000
|   |   |   |   |   |   |   |   |   |   |   |   |   |   |--- class: 2
|   |   |   |   |   |   |   |   |   |   |   |--- feature_158 >  3.50000000000000000000
|   |   |   |   |   |   |   |   |   |   |   |   |--- feature_158 <= 43.00000000000000000000
|   |   |   |   |   |   |   |   |   |   |   |   |   |--- class: 1
|   |   |   |   |   |   |   |   |   |   |   |   |--- feature_158 >  43.00000000000000000000
|   |   |   |   |   |   |   |   |   |   |   |   |   |--- class: 5
|   |   |   |   |   |   |   |   |   |   |--- feature_243 >  14.50000000000000000000
|   |   |   |   |   |   |   |   |   |   |   |--- feature_318 <= 34.50000000000000000000
|   |   |   |   |   |   |   |   |   |   |   |   |--- class: 0
|   |   |   |   |   |   |   |   |   |   |   |--- feature_318 >  34.50000000000000000000
|   |   |   |   |   |   |   |   |   |   |   |   |--- class: 3
|   |   |   |   |   |   |   |   |   |--- feature_291 >  26.50000000000000000000
|   |   |   |   |   |   |   |   |   |   |--- feature_548 <= 222.50000000000000000000
|   |   |   |   |   |   |   |   |   |   |   |--- feature_570 <= 239.50000000000000000000
|   |   |   |   |   |   |   |   |   |   |   |   |--- class: 5
|   |   |   |   |   |   |   |   |   |   |   |--- feature_570 >  239.50000000000000000000
|   |   |   |   |   |   |   |   |   |   |   |   |--- class: 0
|   |   |   |   |   |   |   |   |   |   |--- feature_548 >  222.50000000000000000000
|   |   |   |   |   |   |   |   |   |   |   |--- class: 3
|   |   |   |   |   |   |   |   |--- feature_547 >  126.00000000000000000000
|   |   |   |   |   |   |   |   |   |--- feature_375 <= 14.50000000000000000000
|   |   |   |   |   |   |   |   |   |   |--- feature_520 <= 47.50000000000000000000
|   |   |   |   |   |   |   |   |   |   |   |--- feature_373 <= 59.00000000000000000000
|   |   |   |   |   |   |   |   |   |   |   |   |--- feature_102 <= 68.50000000000000000000
|   |   |   |   |   |   |   |   |   |   |   |   |   |--- class: 0
|   |   |   |   |   |   |   |   |   |   |   |   |--- feature_102 >  68.50000000000000000000
|   |   |   |   |   |   |   |   |   |   |   |   |   |--- class: 1
|   |   |   |   |   |   |   |   |   |   |   |--- feature_373 >  59.00000000000000000000
|   |   |   |   |   |   |   |   |   |   |   |   |--- feature_656 <= 247.50000000000000000000
|   |   |   |   |   |   |   |   |   |   |   |   |   |--- class: 2
|   |   |   |   |   |   |   |   |   |   |   |   |--- feature_656 >  247.50000000000000000000
|   |   |   |   |   |   |   |   |   |   |   |   |   |--- class: 5
|   |   |   |   |   |   |   |   |   |   |--- feature_520 >  47.50000000000000000000
|   |   |   |   |   |   |   |   |   |   |   |--- feature_508 <= 74.00000000000000000000
|   |   |   |   |   |   |   |   |   |   |   |   |--- feature_156 <= 40.50000000000000000000
|   |   |   |   |   |   |   |   |   |   |   |   |   |--- feature_243 <= 210.50000000000000000000
|   |   |   |   |   |   |   |   |   |   |   |   |   |   |--- class: 2
|   |   |   |   |   |   |   |   |   |   |   |   |   |--- feature_243 >  210.50000000000000000000
|   |   |   |   |   |   |   |   |   |   |   |   |   |   |--- feature_492 <= 113.50000000000000000000
|   |   |   |   |   |   |   |   |   |   |   |   |   |   |   |--- class: 2
|   |   |   |   |   |   |   |   |   |   |   |   |   |   |--- feature_492 >  113.50000000000000000000
|   |   |   |   |   |   |   |   |   |   |   |   |   |   |   |--- class: 7
|   |   |   |   |   |   |   |   |   |   |   |   |--- feature_156 >  40.50000000000000000000
|   |   |   |   |   |   |   |   |   |   |   |   |   |--- class: 2
|   |   |   |   |   |   |   |   |   |   |   |--- feature_508 >  74.00000000000000000000
|   |   |   |   |   |   |   |   |   |   |   |   |--- class: 3
|   |   |   |   |   |   |   |   |   |--- feature_375 >  14.50000000000000000000
|   |   |   |   |   |   |   |   |   |   |--- feature_211 <= 37.50000000000000000000
|   |   |   |   |   |   |   |   |   |   |   |--- class: 5
|   |   |   |   |   |   |   |   |   |   |--- feature_211 >  37.50000000000000000000
|   |   |   |   |   |   |   |   |   |   |   |--- feature_513 <= 9.00000000000000000000
|   |   |   |   |   |   |   |   |   |   |   |   |--- class: 9
|   |   |   |   |   |   |   |   |   |   |   |--- feature_513 >  9.00000000000000000000
|   |   |   |   |   |   |   |   |   |   |   |   |--- feature_656 <= 138.50000000000000000000
|   |   |   |   |   |   |   |   |   |   |   |   |   |--- class: 2
|   |   |   |   |   |   |   |   |   |   |   |   |--- feature_656 >  138.50000000000000000000
|   |   |   |   |   |   |   |   |   |   |   |   |   |--- class: 0
|   |   |   |   |   |   |   |--- feature_323 >  3.00000000000000000000
|   |   |   |   |   |   |   |   |--- feature_267 <= 75.50000000000000000000
|   |   |   |   |   |   |   |   |   |--- feature_269 <= 164.00000000000000000000
|   |   |   |   |   |   |   |   |   |   |--- feature_235 <= 17.00000000000000000000
|   |   |   |   |   |   |   |   |   |   |   |--- feature_261 <= 19.50000000000000000000
|   |   |   |   |   |   |   |   |   |   |   |   |--- feature_151 <= 11.00000000000000000000
|   |   |   |   |   |   |   |   |   |   |   |   |   |--- feature_270 <= 114.00000000000000000000
|   |   |   |   |   |   |   |   |   |   |   |   |   |   |--- feature_97 <= 127.00000000000000000000
|   |   |   |   |   |   |   |   |   |   |   |   |   |   |   |--- class: 5
|   |   |   |   |   |   |   |   |   |   |   |   |   |   |--- feature_97 >  127.00000000000000000000
|   |   |   |   |   |   |   |   |   |   |   |   |   |   |   |--- class: 3
|   |   |   |   |   |   |   |   |   |   |   |   |   |--- feature_270 >  114.00000000000000000000
|   |   |   |   |   |   |   |   |   |   |   |   |   |   |--- class: 3
|   |   |   |   |   |   |   |   |   |   |   |   |--- feature_151 >  11.00000000000000000000
|   |   |   |   |   |   |   |   |   |   |   |   |   |--- feature_470 <= 156.00000000000000000000
|   |   |   |   |   |   |   |   |   |   |   |   |   |   |--- class: 3
|   |   |   |   |   |   |   |   |   |   |   |   |   |--- feature_470 >  156.00000000000000000000
|   |   |   |   |   |   |   |   |   |   |   |   |   |   |--- class: 5
|   |   |   |   |   |   |   |   |   |   |   |--- feature_261 >  19.50000000000000000000
|   |   |   |   |   |   |   |   |   |   |   |   |--- feature_265 <= 155.50000000000000000000
|   |   |   |   |   |   |   |   |   |   |   |   |   |--- class: 5
|   |   |   |   |   |   |   |   |   |   |   |   |--- feature_265 >  155.50000000000000000000
|   |   |   |   |   |   |   |   |   |   |   |   |   |--- class: 3
|   |   |   |   |   |   |   |   |   |   |--- feature_235 >  17.00000000000000000000
|   |   |   |   |   |   |   |   |   |   |   |--- feature_148 <= 189.00000000000000000000
|   |   |   |   |   |   |   |   |   |   |   |   |--- class: 5
|   |   |   |   |   |   |   |   |   |   |   |--- feature_148 >  189.00000000000000000000
|   |   |   |   |   |   |   |   |   |   |   |   |--- feature_326 <= 57.00000000000000000000
|   |   |   |   |   |   |   |   |   |   |   |   |   |--- class: 3
|   |   |   |   |   |   |   |   |   |   |   |   |--- feature_326 >  57.00000000000000000000
|   |   |   |   |   |   |   |   |   |   |   |   |   |--- class: 5
|   |   |   |   |   |   |   |   |   |--- feature_269 >  164.00000000000000000000
|   |   |   |   |   |   |   |   |   |   |--- feature_515 <= 31.00000000000000000000
|   |   |   |   |   |   |   |   |   |   |   |--- feature_580 <= 252.00000000000000000000
|   |   |   |   |   |   |   |   |   |   |   |   |--- class: 3
|   |   |   |   |   |   |   |   |   |   |   |--- feature_580 >  252.00000000000000000000
|   |   |   |   |   |   |   |   |   |   |   |   |--- class: 1
|   |   |   |   |   |   |   |   |   |   |--- feature_515 >  31.00000000000000000000
|   |   |   |   |   |   |   |   |   |   |   |--- feature_289 <= 34.50000000000000000000
|   |   |   |   |   |   |   |   |   |   |   |   |--- feature_626 <= 236.00000000000000000000
|   |   |   |   |   |   |   |   |   |   |   |   |   |--- class: 5
|   |   |   |   |   |   |   |   |   |   |   |   |--- feature_626 >  236.00000000000000000000
|   |   |   |   |   |   |   |   |   |   |   |   |   |--- class: 0
|   |   |   |   |   |   |   |   |   |   |   |--- feature_289 >  34.50000000000000000000
|   |   |   |   |   |   |   |   |   |   |   |   |--- class: 7
|   |   |   |   |   |   |   |   |--- feature_267 >  75.50000000000000000000
|   |   |   |   |   |   |   |   |   |--- feature_124 <= 113.00000000000000000000
|   |   |   |   |   |   |   |   |   |   |--- feature_263 <= 183.00000000000000000000
|   |   |   |   |   |   |   |   |   |   |   |--- feature_247 <= 23.50000000000000000000
|   |   |   |   |   |   |   |   |   |   |   |   |--- feature_439 <= 212.00000000000000000000
|   |   |   |   |   |   |   |   |   |   |   |   |   |--- feature_321 <= 11.50000000000000000000
|   |   |   |   |   |   |   |   |   |   |   |   |   |   |--- feature_211 <= 253.50000000000000000000
|   |   |   |   |   |   |   |   |   |   |   |   |   |   |   |--- class: 5
|   |   |   |   |   |   |   |   |   |   |   |   |   |   |--- feature_211 >  253.50000000000000000000
|   |   |   |   |   |   |   |   |   |   |   |   |   |   |   |--- class: 7
|   |   |   |   |   |   |   |   |   |   |   |   |   |--- feature_321 >  11.50000000000000000000
|   |   |   |   |   |   |   |   |   |   |   |   |   |   |--- feature_135 <= 12.50000000000000000000
|   |   |   |   |   |   |   |   |   |   |   |   |   |   |   |--- feature_316 <= 225.50000000000000000000
|   |   |   |   |   |   |   |   |   |   |   |   |   |   |   |   |--- feature_431 <= 93.00000000000000000000
|   |   |   |   |   |   |   |   |   |   |   |   |   |   |   |   |   |--- feature_511 <= 253.50000000000000000000
|   |   |   |   |   |   |   |   |   |   |   |   |   |   |   |   |   |   |--- class: 3
|   |   |   |   |   |   |   |   |   |   |   |   |   |   |   |   |   |--- feature_511 >  253.50000000000000000000
|   |   |   |   |   |   |   |   |   |   |   |   |   |   |   |   |   |   |--- class: 5
|   |   |   |   |   |   |   |   |   |   |   |   |   |   |   |   |--- feature_431 >  93.00000000000000000000
|   |   |   |   |   |   |   |   |   |   |   |   |   |   |   |   |   |--- feature_296 <= 105.00000000000000000000
|   |   |   |   |   |   |   |   |   |   |   |   |   |   |   |   |   |   |--- class: 0
|   |   |   |   |   |   |   |   |   |   |   |   |   |   |   |   |   |--- feature_296 >  105.00000000000000000000
|   |   |   |   |   |   |   |   |   |   |   |   |   |   |   |   |   |   |--- class: 5
|   |   |   |   |   |   |   |   |   |   |   |   |   |   |   |--- feature_316 >  225.50000000000000000000
|   |   |   |   |   |   |   |   |   |   |   |   |   |   |   |   |--- class: 5
|   |   |   |   |   |   |   |   |   |   |   |   |   |   |--- feature_135 >  12.50000000000000000000
|   |   |   |   |   |   |   |   |   |   |   |   |   |   |   |--- class: 5
|   |   |   |   |   |   |   |   |   |   |   |   |--- feature_439 >  212.00000000000000000000
|   |   |   |   |   |   |   |   |   |   |   |   |   |--- feature_299 <= 112.50000000000000000000
|   |   |   |   |   |   |   |   |   |   |   |   |   |   |--- class: 3
|   |   |   |   |   |   |   |   |   |   |   |   |   |--- feature_299 >  112.50000000000000000000
|   |   |   |   |   |   |   |   |   |   |   |   |   |   |--- feature_159 <= 150.00000000000000000000
|   |   |   |   |   |   |   |   |   |   |   |   |   |   |   |--- class: 2
|   |   |   |   |   |   |   |   |   |   |   |   |   |   |--- feature_159 >  150.00000000000000000000
|   |   |   |   |   |   |   |   |   |   |   |   |   |   |   |--- class: 3
|   |   |   |   |   |   |   |   |   |   |   |--- feature_247 >  23.50000000000000000000
|   |   |   |   |   |   |   |   |   |   |   |   |--- class: 5
|   |   |   |   |   |   |   |   |   |   |--- feature_263 >  183.00000000000000000000
|   |   |   |   |   |   |   |   |   |   |   |--- feature_259 <= 138.50000000000000000000
|   |   |   |   |   |   |   |   |   |   |   |   |--- feature_602 <= 252.00000000000000000000
|   |   |   |   |   |   |   |   |   |   |   |   |   |--- class: 5
|   |   |   |   |   |   |   |   |   |   |   |   |--- feature_602 >  252.00000000000000000000
|   |   |   |   |   |   |   |   |   |   |   |   |   |--- feature_161 <= 13.00000000000000000000
|   |   |   |   |   |   |   |   |   |   |   |   |   |   |--- feature_347 <= 210.00000000000000000000
|   |   |   |   |   |   |   |   |   |   |   |   |   |   |   |--- class: 3
|   |   |   |   |   |   |   |   |   |   |   |   |   |   |--- feature_347 >  210.00000000000000000000
|   |   |   |   |   |   |   |   |   |   |   |   |   |   |   |--- class: 5
|   |   |   |   |   |   |   |   |   |   |   |   |   |--- feature_161 >  13.00000000000000000000
|   |   |   |   |   |   |   |   |   |   |   |   |   |   |--- feature_210 <= 9.50000000000000000000
|   |   |   |   |   |   |   |   |   |   |   |   |   |   |   |--- class: 1
|   |   |   |   |   |   |   |   |   |   |   |   |   |   |--- feature_210 >  9.50000000000000000000
|   |   |   |   |   |   |   |   |   |   |   |   |   |   |   |--- class: 5
|   |   |   |   |   |   |   |   |   |   |   |--- feature_259 >  138.50000000000000000000
|   |   |   |   |   |   |   |   |   |   |   |   |--- feature_321 <= 198.50000000000000000000
|   |   |   |   |   |   |   |   |   |   |   |   |   |--- class: 7
|   |   |   |   |   |   |   |   |   |   |   |   |--- feature_321 >  198.50000000000000000000
|   |   |   |   |   |   |   |   |   |   |   |   |   |--- feature_527 <= 24.50000000000000000000
|   |   |   |   |   |   |   |   |   |   |   |   |   |   |--- class: 2
|   |   |   |   |   |   |   |   |   |   |   |   |   |--- feature_527 >  24.50000000000000000000
|   |   |   |   |   |   |   |   |   |   |   |   |   |   |--- class: 5
|   |   |   |   |   |   |   |   |   |--- feature_124 >  113.00000000000000000000
|   |   |   |   |   |   |   |   |   |   |--- feature_436 <= 104.50000000000000000000
|   |   |   |   |   |   |   |   |   |   |   |--- feature_261 <= 236.50000000000000000000
|   |   |   |   |   |   |   |   |   |   |   |   |--- class: 3
|   |   |   |   |   |   |   |   |   |   |   |--- feature_261 >  236.50000000000000000000
|   |   |   |   |   |   |   |   |   |   |   |   |--- class: 5
|   |   |   |   |   |   |   |   |   |   |--- feature_436 >  104.50000000000000000000
|   |   |   |   |   |   |   |   |   |   |   |--- feature_605 <= 9.00000000000000000000
|   |   |   |   |   |   |   |   |   |   |   |   |--- class: 3
|   |   |   |   |   |   |   |   |   |   |   |--- feature_605 >  9.00000000000000000000
|   |   |   |   |   |   |   |   |   |   |   |   |--- feature_293 <= 77.00000000000000000000
|   |   |   |   |   |   |   |   |   |   |   |   |   |--- feature_630 <= 127.00000000000000000000
|   |   |   |   |   |   |   |   |   |   |   |   |   |   |--- class: 1
|   |   |   |   |   |   |   |   |   |   |   |   |   |--- feature_630 >  127.00000000000000000000
|   |   |   |   |   |   |   |   |   |   |   |   |   |   |--- class: 2
|   |   |   |   |   |   |   |   |   |   |   |   |--- feature_293 >  77.00000000000000000000
|   |   |   |   |   |   |   |   |   |   |   |   |   |--- class: 9
|   |   |   |   |   |   |--- feature_430 >  146.00000000000000000000
|   |   |   |   |   |   |   |--- feature_327 <= 16.50000000000000000000
|   |   |   |   |   |   |   |   |--- feature_513 <= 43.00000000000000000000
|   |   |   |   |   |   |   |   |   |--- feature_542 <= 229.50000000000000000000
|   |   |   |   |   |   |   |   |   |   |--- feature_352 <= 252.50000000000000000000
|   |   |   |   |   |   |   |   |   |   |   |--- class: 5
|   |   |   |   |   |   |   |   |   |   |--- feature_352 >  252.50000000000000000000
|   |   |   |   |   |   |   |   |   |   |   |--- class: 3
|   |   |   |   |   |   |   |   |   |--- feature_542 >  229.50000000000000000000
|   |   |   |   |   |   |   |   |   |   |--- feature_522 <= 20.00000000000000000000
|   |   |   |   |   |   |   |   |   |   |   |--- class: 0
|   |   |   |   |   |   |   |   |   |   |--- feature_522 >  20.00000000000000000000
|   |   |   |   |   |   |   |   |   |   |   |--- class: 6
|   |   |   |   |   |   |   |   |--- feature_513 >  43.00000000000000000000
|   |   |   |   |   |   |   |   |   |--- feature_241 <= 21.00000000000000000000
|   |   |   |   |   |   |   |   |   |   |--- feature_626 <= 243.00000000000000000000
|   |   |   |   |   |   |   |   |   |   |   |--- feature_527 <= 2.50000000000000000000
|   |   |   |   |   |   |   |   |   |   |   |   |--- class: 6
|   |   |   |   |   |   |   |   |   |   |   |--- feature_527 >  2.50000000000000000000
|   |   |   |   |   |   |   |   |   |   |   |   |--- class: 2
|   |   |   |   |   |   |   |   |   |   |--- feature_626 >  243.00000000000000000000
|   |   |   |   |   |   |   |   |   |   |   |--- feature_662 <= 43.00000000000000000000
|   |   |   |   |   |   |   |   |   |   |   |   |--- class: 0
|   |   |   |   |   |   |   |   |   |   |   |--- feature_662 >  43.00000000000000000000
|   |   |   |   |   |   |   |   |   |   |   |   |--- class: 5
|   |   |   |   |   |   |   |   |   |--- feature_241 >  21.00000000000000000000
|   |   |   |   |   |   |   |   |   |   |--- feature_579 <= 198.50000000000000000000
|   |   |   |   |   |   |   |   |   |   |   |--- class: 0
|   |   |   |   |   |   |   |   |   |   |--- feature_579 >  198.50000000000000000000
|   |   |   |   |   |   |   |   |   |   |   |--- class: 8
|   |   |   |   |   |   |   |--- feature_327 >  16.50000000000000000000
|   |   |   |   |   |   |   |   |--- feature_183 <= 1.00000000000000000000
|   |   |   |   |   |   |   |   |   |--- feature_263 <= 150.50000000000000000000
|   |   |   |   |   |   |   |   |   |   |--- feature_551 <= 65.50000000000000000000
|   |   |   |   |   |   |   |   |   |   |   |--- class: 5
|   |   |   |   |   |   |   |   |   |   |--- feature_551 >  65.50000000000000000000
|   |   |   |   |   |   |   |   |   |   |   |--- feature_353 <= 112.00000000000000000000
|   |   |   |   |   |   |   |   |   |   |   |   |--- class: 2
|   |   |   |   |   |   |   |   |   |   |   |--- feature_353 >  112.00000000000000000000
|   |   |   |   |   |   |   |   |   |   |   |   |--- class: 6
|   |   |   |   |   |   |   |   |   |--- feature_263 >  150.50000000000000000000
|   |   |   |   |   |   |   |   |   |   |--- class: 0
|   |   |   |   |   |   |   |   |--- feature_183 >  1.00000000000000000000
|   |   |   |   |   |   |   |   |   |--- class: 0
|   |   |   |   |   |--- feature_398 >  34.50000000000000000000
|   |   |   |   |   |   |--- feature_410 <= 0.50000000000000000000
|   |   |   |   |   |   |   |--- feature_348 <= 197.50000000000000000000
|   |   |   |   |   |   |   |   |--- feature_315 <= 20.00000000000000000000
|   |   |   |   |   |   |   |   |   |--- feature_386 <= 3.50000000000000000000
|   |   |   |   |   |   |   |   |   |   |--- feature_499 <= 13.00000000000000000000
|   |   |   |   |   |   |   |   |   |   |   |--- class: 5
|   |   |   |   |   |   |   |   |   |   |--- feature_499 >  13.00000000000000000000
|   |   |   |   |   |   |   |   |   |   |   |--- class: 0
|   |   |   |   |   |   |   |   |   |--- feature_386 >  3.50000000000000000000
|   |   |   |   |   |   |   |   |   |   |--- class: 0
|   |   |   |   |   |   |   |   |--- feature_315 >  20.00000000000000000000
|   |   |   |   |   |   |   |   |   |--- class: 0
|   |   |   |   |   |   |   |--- feature_348 >  197.50000000000000000000
|   |   |   |   |   |   |   |   |--- feature_273 <= 56.50000000000000000000
|   |   |   |   |   |   |   |   |   |--- class: 5
|   |   |   |   |   |   |   |   |--- feature_273 >  56.50000000000000000000
|   |   |   |   |   |   |   |   |   |--- feature_594 <= 60.50000000000000000000
|   |   |   |   |   |   |   |   |   |   |--- class: 0
|   |   |   |   |   |   |   |   |   |--- feature_594 >  60.50000000000000000000
|   |   |   |   |   |   |   |   |   |   |--- class: 9
|   |   |   |   |   |   |--- feature_410 >  0.50000000000000000000
|   |   |   |   |   |   |   |--- feature_427 <= 10.00000000000000000000
|   |   |   |   |   |   |   |   |--- feature_183 <= 115.00000000000000000000
|   |   |   |   |   |   |   |   |   |--- feature_576 <= 127.50000000000000000000
|   |   |   |   |   |   |   |   |   |   |--- feature_545 <= 179.50000000000000000000
|   |   |   |   |   |   |   |   |   |   |   |--- class: 4
|   |   |   |   |   |   |   |   |   |   |--- feature_545 >  179.50000000000000000000
|   |   |   |   |   |   |   |   |   |   |   |--- class: 9
|   |   |   |   |   |   |   |   |   |--- feature_576 >  127.50000000000000000000
|   |   |   |   |   |   |   |   |   |   |--- class: 3
|   |   |   |   |   |   |   |   |--- feature_183 >  115.00000000000000000000
|   |   |   |   |   |   |   |   |   |--- class: 5
|   |   |   |   |   |   |   |--- feature_427 >  10.00000000000000000000
|   |   |   |   |   |   |   |   |--- feature_326 <= 32.00000000000000000000
|   |   |   |   |   |   |   |   |   |--- feature_437 <= 67.50000000000000000000
|   |   |   |   |   |   |   |   |   |   |--- feature_185 <= 191.00000000000000000000
|   |   |   |   |   |   |   |   |   |   |   |--- class: 0
|   |   |   |   |   |   |   |   |   |   |--- feature_185 >  191.00000000000000000000
|   |   |   |   |   |   |   |   |   |   |   |--- class: 9
|   |   |   |   |   |   |   |   |   |--- feature_437 >  67.50000000000000000000
|   |   |   |   |   |   |   |   |   |   |--- class: 6
|   |   |   |   |   |   |   |   |--- feature_326 >  32.00000000000000000000
|   |   |   |   |   |   |   |   |   |--- class: 0
|   |   |   |   |--- feature_490 >  16.50000000000000000000
|   |   |   |   |   |--- feature_708 <= 0.50000000000000000000
|   |   |   |   |   |   |--- feature_321 <= 31.50000000000000000000
|   |   |   |   |   |   |   |--- feature_398 <= 23.00000000000000000000
|   |   |   |   |   |   |   |   |--- feature_514 <= 24.50000000000000000000
|   |   |   |   |   |   |   |   |   |--- feature_604 <= 10.50000000000000000000
|   |   |   |   |   |   |   |   |   |   |--- feature_681 <= 3.00000000000000000000
|   |   |   |   |   |   |   |   |   |   |   |--- feature_651 <= 131.00000000000000000000
|   |   |   |   |   |   |   |   |   |   |   |   |--- feature_597 <= 48.00000000000000000000
|   |   |   |   |   |   |   |   |   |   |   |   |   |--- feature_601 <= 113.00000000000000000000
|   |   |   |   |   |   |   |   |   |   |   |   |   |   |--- class: 1
|   |   |   |   |   |   |   |   |   |   |   |   |   |--- feature_601 >  113.00000000000000000000
|   |   |   |   |   |   |   |   |   |   |   |   |   |   |--- class: 7
|   |   |   |   |   |   |   |   |   |   |   |   |--- feature_597 >  48.00000000000000000000
|   |   |   |   |   |   |   |   |   |   |   |   |   |--- feature_270 <= 254.00000000000000000000
|   |   |   |   |   |   |   |   |   |   |   |   |   |   |--- class: 2
|   |   |   |   |   |   |   |   |   |   |   |   |   |--- feature_270 >  254.00000000000000000000
|   |   |   |   |   |   |   |   |   |   |   |   |   |   |--- class: 3
|   |   |   |   |   |   |   |   |   |   |   |--- feature_651 >  131.00000000000000000000
|   |   |   |   |   |   |   |   |   |   |   |   |--- class: 7
|   |   |   |   |   |   |   |   |   |   |--- feature_681 >  3.00000000000000000000
|   |   |   |   |   |   |   |   |   |   |   |--- feature_683 <= 254.50000000000000000000
|   |   |   |   |   |   |   |   |   |   |   |   |--- class: 7
|   |   |   |   |   |   |   |   |   |   |   |--- feature_683 >  254.50000000000000000000
|   |   |   |   |   |   |   |   |   |   |   |   |--- class: 9
|   |   |   |   |   |   |   |   |   |--- feature_604 >  10.50000000000000000000
|   |   |   |   |   |   |   |   |   |   |--- feature_544 <= 17.00000000000000000000
|   |   |   |   |   |   |   |   |   |   |   |--- feature_653 <= 196.00000000000000000000
|   |   |   |   |   |   |   |   |   |   |   |   |--- feature_436 <= 202.00000000000000000000
|   |   |   |   |   |   |   |   |   |   |   |   |   |--- class: 7
|   |   |   |   |   |   |   |   |   |   |   |   |--- feature_436 >  202.00000000000000000000
|   |   |   |   |   |   |   |   |   |   |   |   |   |--- class: 1
|   |   |   |   |   |   |   |   |   |   |   |--- feature_653 >  196.00000000000000000000
|   |   |   |   |   |   |   |   |   |   |   |   |--- class: 2
|   |   |   |   |   |   |   |   |   |   |--- feature_544 >  17.00000000000000000000
|   |   |   |   |   |   |   |   |   |   |   |--- feature_133 <= 143.50000000000000000000
|   |   |   |   |   |   |   |   |   |   |   |   |--- feature_744 <= 126.50000000000000000000
|   |   |   |   |   |   |   |   |   |   |   |   |   |--- class: 2
|   |   |   |   |   |   |   |   |   |   |   |   |--- feature_744 >  126.50000000000000000000
|   |   |   |   |   |   |   |   |   |   |   |   |   |--- class: 7
|   |   |   |   |   |   |   |   |   |   |   |--- feature_133 >  143.50000000000000000000
|   |   |   |   |   |   |   |   |   |   |   |   |--- class: 1
|   |   |   |   |   |   |   |   |--- feature_514 >  24.50000000000000000000
|   |   |   |   |   |   |   |   |   |--- feature_347 <= 139.00000000000000000000
|   |   |   |   |   |   |   |   |   |   |--- feature_267 <= 238.00000000000000000000
|   |   |   |   |   |   |   |   |   |   |   |--- class: 2
|   |   |   |   |   |   |   |   |   |   |--- feature_267 >  238.00000000000000000000
|   |   |   |   |   |   |   |   |   |   |   |--- feature_293 <= 125.50000000000000000000
|   |   |   |   |   |   |   |   |   |   |   |   |--- feature_465 <= 253.50000000000000000000
|   |   |   |   |   |   |   |   |   |   |   |   |   |--- class: 2
|   |   |   |   |   |   |   |   |   |   |   |   |--- feature_465 >  253.50000000000000000000
|   |   |   |   |   |   |   |   |   |   |   |   |   |--- class: 7
|   |   |   |   |   |   |   |   |   |   |   |--- feature_293 >  125.50000000000000000000
|   |   |   |   |   |   |   |   |   |   |   |   |--- class: 3
|   |   |   |   |   |   |   |   |   |--- feature_347 >  139.00000000000000000000
|   |   |   |   |   |   |   |   |   |   |--- feature_603 <= 160.00000000000000000000
|   |   |   |   |   |   |   |   |   |   |   |--- class: 6
|   |   |   |   |   |   |   |   |   |   |--- feature_603 >  160.00000000000000000000
|   |   |   |   |   |   |   |   |   |   |   |--- class: 4
|   |   |   |   |   |   |   |--- feature_398 >  23.00000000000000000000
|   |   |   |   |   |   |   |   |--- feature_214 <= 47.50000000000000000000
|   |   |   |   |   |   |   |   |   |--- class: 6
|   |   |   |   |   |   |   |   |--- feature_214 >  47.50000000000000000000
|   |   |   |   |   |   |   |   |   |--- feature_344 <= 5.50000000000000000000
|   |   |   |   |   |   |   |   |   |   |--- class: 2
|   |   |   |   |   |   |   |   |   |--- feature_344 >  5.50000000000000000000
|   |   |   |   |   |   |   |   |   |   |--- feature_636 <= 13.00000000000000000000
|   |   |   |   |   |   |   |   |   |   |   |--- feature_242 <= 253.50000000000000000000
|   |   |   |   |   |   |   |   |   |   |   |   |--- class: 0
|   |   |   |   |   |   |   |   |   |   |   |--- feature_242 >  253.50000000000000000000
|   |   |   |   |   |   |   |   |   |   |   |   |--- class: 1
|   |   |   |   |   |   |   |   |   |   |--- feature_636 >  13.00000000000000000000
|   |   |   |   |   |   |   |   |   |   |   |--- class: 9
|   |   |   |   |   |   |--- feature_321 >  31.50000000000000000000
|   |   |   |   |   |   |   |--- feature_431 <= 72.00000000000000000000
|   |   |   |   |   |   |   |   |--- feature_463 <= 158.50000000000000000000
|   |   |   |   |   |   |   |   |   |--- feature_352 <= 2.00000000000000000000
|   |   |   |   |   |   |   |   |   |   |--- feature_600 <= 251.50000000000000000000
|   |   |   |   |   |   |   |   |   |   |   |--- feature_454 <= 28.50000000000000000000
|   |   |   |   |   |   |   |   |   |   |   |   |--- class: 5
|   |   |   |   |   |   |   |   |   |   |   |--- feature_454 >  28.50000000000000000000
|   |   |   |   |   |   |   |   |   |   |   |   |--- class: 0
|   |   |   |   |   |   |   |   |   |   |--- feature_600 >  251.50000000000000000000
|   |   |   |   |   |   |   |   |   |   |   |--- class: 2
|   |   |   |   |   |   |   |   |   |--- feature_352 >  2.00000000000000000000
|   |   |   |   |   |   |   |   |   |   |--- feature_356 <= 170.00000000000000000000
|   |   |   |   |   |   |   |   |   |   |   |--- feature_485 <= 209.00000000000000000000
|   |   |   |   |   |   |   |   |   |   |   |   |--- class: 5
|   |   |   |   |   |   |   |   |   |   |   |--- feature_485 >  209.00000000000000000000
|   |   |   |   |   |   |   |   |   |   |   |   |--- class: 3
|   |   |   |   |   |   |   |   |   |   |--- feature_356 >  170.00000000000000000000
|   |   |   |   |   |   |   |   |   |   |   |--- class: 3
|   |   |   |   |   |   |   |   |--- feature_463 >  158.50000000000000000000
|   |   |   |   |   |   |   |   |   |--- feature_158 <= 11.00000000000000000000
|   |   |   |   |   |   |   |   |   |   |--- feature_355 <= 62.00000000000000000000
|   |   |   |   |   |   |   |   |   |   |   |--- feature_358 <= 126.50000000000000000000
|   |   |   |   |   |   |   |   |   |   |   |   |--- class: 3
|   |   |   |   |   |   |   |   |   |   |   |--- feature_358 >  126.50000000000000000000
|   |   |   |   |   |   |   |   |   |   |   |   |--- class: 0
|   |   |   |   |   |   |   |   |   |   |--- feature_355 >  62.00000000000000000000
|   |   |   |   |   |   |   |   |   |   |   |--- class: 7
|   |   |   |   |   |   |   |   |   |--- feature_158 >  11.00000000000000000000
|   |   |   |   |   |   |   |   |   |   |--- feature_631 <= 227.00000000000000000000
|   |   |   |   |   |   |   |   |   |   |   |--- class: 2
|   |   |   |   |   |   |   |   |   |   |--- feature_631 >  227.00000000000000000000
|   |   |   |   |   |   |   |   |   |   |   |--- class: 1
|   |   |   |   |   |   |   |--- feature_431 >  72.00000000000000000000
|   |   |   |   |   |   |   |   |--- feature_298 <= 5.50000000000000000000
|   |   |   |   |   |   |   |   |   |--- feature_654 <= 22.00000000000000000000
|   |   |   |   |   |   |   |   |   |   |--- class: 6
|   |   |   |   |   |   |   |   |   |--- feature_654 >  22.00000000000000000000
|   |   |   |   |   |   |   |   |   |   |--- feature_159 <= 210.00000000000000000000
|   |   |   |   |   |   |   |   |   |   |   |--- class: 0
|   |   |   |   |   |   |   |   |   |   |--- feature_159 >  210.00000000000000000000
|   |   |   |   |   |   |   |   |   |   |   |--- feature_130 <= 25.50000000000000000000
|   |   |   |   |   |   |   |   |   |   |   |   |--- class: 5
|   |   |   |   |   |   |   |   |   |   |   |--- feature_130 >  25.50000000000000000000
|   |   |   |   |   |   |   |   |   |   |   |   |--- class: 6
|   |   |   |   |   |   |   |   |--- feature_298 >  5.50000000000000000000
|   |   |   |   |   |   |   |   |   |--- feature_212 <= 101.00000000000000000000
|   |   |   |   |   |   |   |   |   |   |--- feature_633 <= 215.50000000000000000000
|   |   |   |   |   |   |   |   |   |   |   |--- class: 5
|   |   |   |   |   |   |   |   |   |   |--- feature_633 >  215.50000000000000000000
|   |   |   |   |   |   |   |   |   |   |   |--- feature_320 <= 246.50000000000000000000
|   |   |   |   |   |   |   |   |   |   |   |   |--- class: 4
|   |   |   |   |   |   |   |   |   |   |   |--- feature_320 >  246.50000000000000000000
|   |   |   |   |   |   |   |   |   |   |   |   |--- class: 9
|   |   |   |   |   |   |   |   |   |--- feature_212 >  101.00000000000000000000
|   |   |   |   |   |   |   |   |   |   |--- class: 0
|   |   |   |   |   |--- feature_708 >  0.50000000000000000000
|   |   |   |   |   |   |--- feature_185 <= 253.50000000000000000000
|   |   |   |   |   |   |   |--- class: 7
|   |   |   |   |   |   |--- feature_185 >  253.50000000000000000000
|   |   |   |   |   |   |   |--- feature_600 <= 173.00000000000000000000
|   |   |   |   |   |   |   |   |--- feature_658 <= 66.50000000000000000000
|   |   |   |   |   |   |   |   |   |--- class: 9
|   |   |   |   |   |   |   |   |--- feature_658 >  66.50000000000000000000
|   |   |   |   |   |   |   |   |   |--- class: 2
|   |   |   |   |   |   |   |--- feature_600 >  173.00000000000000000000
|   |   |   |   |   |   |   |   |--- class: 7
|   |   |   |--- feature_428 >  0.50000000000000000000
|   |   |   |   |--- feature_243 <= 0.50000000000000000000
|   |   |   |   |   |--- feature_463 <= 23.00000000000000000000
|   |   |   |   |   |   |--- feature_323 <= 81.50000000000000000000
|   |   |   |   |   |   |   |--- feature_654 <= 0.50000000000000000000
|   |   |   |   |   |   |   |   |--- feature_400 <= 14.00000000000000000000
|   |   |   |   |   |   |   |   |   |--- feature_124 <= 0.50000000000000000000
|   |   |   |   |   |   |   |   |   |   |--- feature_270 <= 5.50000000000000000000
|   |   |   |   |   |   |   |   |   |   |   |--- feature_180 <= 67.50000000000000000000
|   |   |   |   |   |   |   |   |   |   |   |   |--- class: 6
|   |   |   |   |   |   |   |   |   |   |   |--- feature_180 >  67.50000000000000000000
|   |   |   |   |   |   |   |   |   |   |   |   |--- class: 2
|   |   |   |   |   |   |   |   |   |   |--- feature_270 >  5.50000000000000000000
|   |   |   |   |   |   |   |   |   |   |   |--- class: 0
|   |   |   |   |   |   |   |   |   |--- feature_124 >  0.50000000000000000000
|   |   |   |   |   |   |   |   |   |   |--- class: 2
|   |   |   |   |   |   |   |   |--- feature_400 >  14.00000000000000000000
|   |   |   |   |   |   |   |   |   |--- feature_274 <= 7.50000000000000000000
|   |   |   |   |   |   |   |   |   |   |--- feature_269 <= 92.50000000000000000000
|   |   |   |   |   |   |   |   |   |   |   |--- feature_516 <= 224.50000000000000000000
|   |   |   |   |   |   |   |   |   |   |   |   |--- feature_272 <= 134.50000000000000000000
|   |   |   |   |   |   |   |   |   |   |   |   |   |--- feature_484 <= 192.50000000000000000000
|   |   |   |   |   |   |   |   |   |   |   |   |   |   |--- feature_468 <= 234.00000000000000000000
|   |   |   |   |   |   |   |   |   |   |   |   |   |   |   |--- feature_345 <= 68.00000000000000000000
|   |   |   |   |   |   |   |   |   |   |   |   |   |   |   |   |--- class: 6
|   |   |   |   |   |   |   |   |   |   |   |   |   |   |   |--- feature_345 >  68.00000000000000000000
|   |   |   |   |   |   |   |   |   |   |   |   |   |   |   |   |--- class: 0
|   |   |   |   |   |   |   |   |   |   |   |   |   |   |--- feature_468 >  234.00000000000000000000
|   |   |   |   |   |   |   |   |   |   |   |   |   |   |   |--- class: 6
|   |   |   |   |   |   |   |   |   |   |   |   |   |--- feature_484 >  192.50000000000000000000
|   |   |   |   |   |   |   |   |   |   |   |   |   |   |--- class: 6
|   |   |   |   |   |   |   |   |   |   |   |   |--- feature_272 >  134.50000000000000000000
|   |   |   |   |   |   |   |   |   |   |   |   |   |--- class: 0
|   |   |   |   |   |   |   |   |   |   |   |--- feature_516 >  224.50000000000000000000
|   |   |   |   |   |   |   |   |   |   |   |   |--- class: 2
|   |   |   |   |   |   |   |   |   |   |--- feature_269 >  92.50000000000000000000
|   |   |   |   |   |   |   |   |   |   |   |--- feature_121 <= 16.50000000000000000000
|   |   |   |   |   |   |   |   |   |   |   |   |--- feature_154 <= 254.50000000000000000000
|   |   |   |   |   |   |   |   |   |   |   |   |   |--- class: 0
|   |   |   |   |   |   |   |   |   |   |   |   |--- feature_154 >  254.50000000000000000000
|   |   |   |   |   |   |   |   |   |   |   |   |   |--- class: 9
|   |   |   |   |   |   |   |   |   |   |   |--- feature_121 >  16.50000000000000000000
|   |   |   |   |   |   |   |   |   |   |   |   |--- feature_315 <= 113.50000000000000000000
|   |   |   |   |   |   |   |   |   |   |   |   |   |--- feature_413 <= 12.50000000000000000000
